{"learner":{"attributes":{"best_iteration":"999","best_score":"0.04866713300890473"},"feature_names":["id","host_id","latitude","longitude","price","minimum_nights","number_of_reviews","reviews_per_month","calculated_host_listings_count","availability_365","number_of_reviews_ltm","event_count","avg_influence","total_influence","event_density","influence_score","availability_ratio","log_price","city_encoded","area_encoded","month","day_of_week","is_weekend","event_x_influence","city_freq","area_freq","neighbourhood_group_Brooklyn","neighbourhood_group_Manhattan","neighbourhood_group_Queens","neighbourhood_group_Staten Island","area_Arden Heights","area_Arrochar","area_Arverne","area_Astoria","area_Bath Beach","area_Battery Park City","area_Bay Ridge","area_Bay Terrace","area_Baychester","area_Bayside","area_Bayswater","area_Bedford-Stuyvesant","area_Belle Harbor","area_Bellerose","area_Belmont","area_Bensonhurst","area_Bergen Beach","area_Boerum Hill","area_Borough Park","area_Breezy Point","area_Briarwood","area_Brighton Beach","area_Bronxdale","area_Brooklyn Heights","area_Brownsville","area_Bull's Head","area_Bushwick","area_Cambria Heights","area_Canarsie","area_Carroll Gardens","area_Castle Hill","area_Castleton Corners","area_Chelsea","area_Chinatown","area_City Island","area_Civic Center","area_Claremont Village","area_Clason Point","area_Clifton","area_Clinton Hill","area_Co-op City","area_Cobble Hill","area_College Point","area_Columbia St","area_Concord","area_Concourse","area_Concourse Village","area_Coney Island","area_Corona","area_Country Club","area_Crown Heights","area_Cypress Hills","area_DUMBO","area_Ditmars Steinway","area_Dongan Hills","area_Douglaston","area_Downtown Brooklyn","area_Dyker Heights","area_East Elmhurst","area_East Flatbush","area_East Harlem","area_East Morrisania","area_East New York","area_East Village","area_Eastchester","area_Edenwald","area_Edgemere","area_Elmhurst","area_Eltingville","area_Emerson Hill","area_Far Rockaway","area_Fieldston","area_Financial District","area_Flatbush","area_Flatiron District","area_Flatlands","area_Flushing","area_Fordham","area_Forest Hills","area_Fort Greene","area_Fort Hamilton","area_Fresh Meadows","area_Gerritsen Beach","area_Glendale","area_Gowanus","area_Gramercy","area_Grant City","area_Gravesend","area_Great Kills","area_Greenpoint","area_Greenwich Village","area_Grymes Hill","area_Harlem","area_Hell's Kitchen","area_Highbridge","area_Hollis","area_Hollis Hills","area_Holliswood","area_Howard Beach","area_Huguenot","area_Hunts Point","area_Inwood","area_Jackson Heights","area_Jamaica","area_Jamaica Estates","area_Jamaica Hills","area_Kensington","area_Kew Gardens","area_Kew Gardens Hills","area_Kingsbridge","area_Kips Bay","area_Laurelton","area_Little Italy","area_Long Island City","area_Longwood","area_Lower East Side","area_Manhattan Beach","area_Marble Hill","area_Mariners Harbor","area_Maspeth","area_Melrose","area_Middle Village","area_Midland Beach","area_Midtown","area_Midwood","area_Mill Basin","area_Morningside Heights","area_Morris Heights","area_Morris Park","area_Morrisania","area_Mott Haven","area_Mount Hope","area_Murray Hill","area_Navy Yard","area_Neponsit","area_New Brighton","area_New Dorp","area_New Dorp Beach","area_New Springville","area_NoHo","area_Nolita","area_North Riverdale","area_Norwood","area_Oakwood","area_Olinville","area_Ozone Park","area_Park Slope","area_Parkchester","area_Pelham Bay","area_Pelham Gardens","area_Port Morris","area_Port Richmond","area_Prince's Bay","area_Prospect Heights","area_Prospect-Lefferts Gardens","area_Queens Village","area_Randall Manor","area_Red Hook","area_Rego Park","area_Richmond Hill","area_Ridgewood","area_Riverdale","area_Rockaway Beach","area_Roosevelt Island","area_Rosebank","area_Rosedale","area_Rossville","area_Schuylerville","area_Sea Gate","area_Sheepshead Bay","area_Shore Acres","area_Silver Lake","area_SoHo","area_Soundview","area_South Ozone Park","area_South Slope","area_Springfield Gardens","area_Spuyten Duyvil","area_St. Albans","area_St. George","area_Stapleton","area_Stuyvesant Town","area_Sunnyside","area_Sunset Park","area_Theater District","area_Throgs Neck","area_Tompkinsville","area_Tottenville","area_Tremont","area_Tribeca","area_Two Bridges","area_Unionport","area_University Heights","area_Upper East Side","area_Upper West Side","area_Van Nest","area_Vinegar Hill","area_Wakefield","area_Washington Heights","area_West Brighton","area_West Farms","area_West Village","area_Westchester Square","area_Westerleigh","area_Whitestone","area_Williamsbridge","area_Williamsburg","area_Willowbrook","area_Windsor Terrace","area_Woodhaven","area_Woodlawn","area_Woodside","room_type_Hotel room","room_type_Private room","room_type_Shared room"],"feature_types":["int","int","float","float","float","int","int","float","int","int","int","float","float","float","float","float","float","float","int","int","int","int","int","float","float","float","i","i","i","i","i","i","i","i","i","i","i","i","i","i","i","i","i","i","i","i","i","i","i","i","i","i","i","i","i","i","i","i","i","i","i","i","i","i","i","i","i","i","i","i","i","i","i","i","i","i","i","i","i","i","i","i","i","i","i","i","i","i","i","i","i","i","i","i","i","i","i","i","i","i","i","i","i","i","i","i","i","i","i","i","i","i","i","i","i","i","i","i","i","i","i","i","i","i","i","i","i","i","i","i","i","i","i","i","i","i","i","i","i","i","i","i","i","i","i","i","i","i","i","i","i","i","i","i","i","i","i","i","i","i","i","i","i","i","i","i","i","i","i","i","i","i","i","i","i","i","i","i","i","i","i","i","i","i","i","i","i","i","i","i","i","i","i","i","i","i","i","i","i","i","i","i","i","i","i","i","i","i","i","i","i","i","i","i","i","i","i","i","i","i","i","i","i","i","i","i","i","i","i","i","i","i","i","i","i","i","i","i","i","i","i","i","i","i","i"],"gradient_booster":{"model":{"cats":{"enc":[],"feature_segments":[],"sorted_idx":[]},"gbtree_model_param":{"num_parallel_tree":"1","num_trees":"1000"},"iteration_indptr":[0,1,2,3,4,5,6,7,8,9,10,11,12,13,14,15,16,17,18,19,20,21,22,23,24,25,26,27,28,29,30,31,32,33,34,35,36,37,38,39,40,41,42,43,44,45,46,47,48,49,50,51,52,53,54,55,56,57,58,59,60,61,62,63,64,65,66,67,68,69,70,71,72,73,74,75,76,77,78,79,80,81,82,83,84,85,86,87,88,89,90,91,92,93,94,95,96,97,98,99,100,101,102,103,104,105,106,107,108,109,110,111,112,113,114,115,116,117,118,119,120,121,122,123,124,125,126,127,128,129,130,131,132,133,134,135,136,137,138,139,140,141,142,143,144,145,146,147,148,149,150,151,152,153,154,155,156,157,158,159,160,161,162,163,164,165,166,167,168,169,170,171,172,173,174,175,176,177,178,179,180,181,182,183,184,185,186,187,188,189,190,191,192,193,194,195,196,197,198,199,200,201,202,203,204,205,206,207,208,209,210,211,212,213,214,215,216,217,218,219,220,221,222,223,224,225,226,227,228,229,230,231,232,233,234,235,236,237,238,239,240,241,242,243,244,245,246,247,248,249,250,251,252,253,254,255,256,257,258,259,260,261,262,263,264,265,266,267,268,269,270,271,272,273,274,275,276,277,278,279,280,281,282,283,284,285,286,287,288,289,290,291,292,293,294,295,296,297,298,299,300,301,302,303,304,305,306,307,308,309,310,311,312,313,314,315,316,317,318,319,320,321,322,323,324,325,326,327,328,329,330,331,332,333,334,335,336,337,338,339,340,341,342,343,344,345,346,347,348,349,350,351,352,353,354,355,356,357,358,359,360,361,362,363,364,365,366,367,368,369,370,371,372,373,374,375,376,377,378,379,380,381,382,383,384,385,386,387,388,389,390,391,392,393,394,395,396,397,398,399,400,401,402,403,404,405,406,407,408,409,410,411,412,413,414,415,416,417,418,419,420,421,422,423,424,425,426,427,428,429,430,431,432,433,434,435,436,437,438,439,440,441,442,443,444,445,446,447,448,449,450,451,452,453,454,455,456,457,458,459,460,461,462,463,464,465,466,467,468,469,470,471,472,473,474,475,476,477,478,479,480,481,482,483,484,485,486,487,488,489,490,491,492,493,494,495,496,497,498,499,500,501,502,503,504,505,506,507,508,509,510,511,512,513,514,515,516,517,518,519,520,521,522,523,524,525,526,527,528,529,530,531,532,533,534,535,536,537,538,539,540,541,542,543,544,545,546,547,548,549,550,551,552,553,554,555,556,557,558,559,560,561,562,563,564,565,566,567,568,569,570,571,572,573,574,575,576,577,578,579,580,581,582,583,584,585,586,587,588,589,590,591,592,593,594,595,596,597,598,599,600,601,602,603,604,605,606,607,608,609,610,611,612,613,614,615,616,617,618,619,620,621,622,623,624,625,626,627,628,629,630,631,632,633,634,635,636,637,638,639,640,641,642,643,644,645,646,647,648,649,650,651,652,653,654,655,656,657,658,659,660,661,662,663,664,665,666,667,668,669,670,671,672,673,674,675,676,677,678,679,680,681,682,683,684,685,686,687,688,689,690,691,692,693,694,695,696,697,698,699,700,701,702,703,704,705,706,707,708,709,710,711,712,713,714,715,716,717,718,719,720,721,722,723,724,725,726,727,728,729,730,731,732,733,734,735,736,737,738,739,740,741,742,743,744,745,746,747,748,749,750,751,752,753,754,755,756,757,758,759,760,761,762,763,764,765,766,767,768,769,770,771,772,773,774,775,776,777,778,779,780,781,782,783,784,785,786,787,788,789,790,791,792,793,794,795,796,797,798,799,800,801,802,803,804,805,806,807,808,809,810,811,812,813,814,815,816,817,818,819,820,821,822,823,824,825,826,827,828,829,830,831,832,833,834,835,836,837,838,839,840,841,842,843,844,845,846,847,848,849,850,851,852,853,854,855,856,857,858,859,860,861,862,863,864,865,866,867,868,869,870,871,872,873,874,875,876,877,878,879,880,881,882,883,884,885,886,887,888,889,890,891,892,893,894,895,896,897,898,899,900,901,902,903,904,905,906,907,908,909,910,911,912,913,914,915,916,917,918,919,920,921,922,923,924,925,926,927,928,929,930,931,932,933,934,935,936,937,938,939,940,941,942,943,944,945,946,947,948,949,950,951,952,953,954,955,956,957,958,959,960,961,962,963,964,965,966,967,968,969,970,971,972,973,974,975,976,977,978,979,980,981,982,983,984,985,986,987,988,989,990,991,992,993,994,995,996,997,998,999,1000],"tree_info":[0,0,0,0,0,0,0,0,0,0,0,0,0,0,0,0,0,0,0,0,0,0,0,0,0,0,0,0,0,0,0,0,0,0,0,0,0,0,0,0,0,0,0,0,0,0,0,0,0,0,0,0,0,0,0,0,0,0,0,0,0,0,0,0,0,0,0,0,0,0,0,0,0,0,0,0,0,0,0,0,0,0,0,0,0,0,0,0,0,0,0,0,0,0,0,0,0,0,0,0,0,0,0,0,0,0,0,0,0,0,0,0,0,0,0,0,0,0,0,0,0,0,0,0,0,0,0,0,0,0,0,0,0,0,0,0,0,0,0,0,0,0,0,0,0,0,0,0,0,0,0,0,0,0,0,0,0,0,0,0,0,0,0,0,0,0,0,0,0,0,0,0,0,0,0,0,0,0,0,0,0,0,0,0,0,0,0,0,0,0,0,0,0,0,0,0,0,0,0,0,0,0,0,0,0,0,0,0,0,0,0,0,0,0,0,0,0,0,0,0,0,0,0,0,0,0,0,0,0,0,0,0,0,0,0,0,0,0,0,0,0,0,0,0,0,0,0,0,0,0,0,0,0,0,0,0,0,0,0,0,0,0,0,0,0,0,0,0,0,0,0,0,0,0,0,0,0,0,0,0,0,0,0,0,0,0,0,0,0,0,0,0,0,0,0,0,0,0,0,0,0,0,0,0,0,0,0,0,0,0,0,0,0,0,0,0,0,0,0,0,0,0,0,0,0,0,0,0,0,0,0,0,0,0,0,0,0,0,0,0,0,0,0,0,0,0,0,0,0,0,0,0,0,0,0,0,0,0,0,0,0,0,0,0,0,0,0,0,0,0,0,0,0,0,0,0,0,0,0,0,0,0,0,0,0,0,0,0,0,0,0,0,0,0,0,0,0,0,0,0,0,0,0,0,0,0,0,0,0,0,0,0,0,0,0,0,0,0,0,0,0,0,0,0,0,0,0,0,0,0,0,0,0,0,0,0,0,0,0,0,0,0,0,0,0,0,0,0,0,0,0,0,0,0,0,0,0,0,0,0,0,0,0,0,0,0,0,0,0,0,0,0,0,0,0,0,0,0,0,0,0,0,0,0,0,0,0,0,0,0,0,0,0,0,0,0,0,0,0,0,0,0,0,0,0,0,0,0,0,0,0,0,0,0,0,0,0,0,0,0,0,0,0,0,0,0,0,0,0,0,0,0,0,0,0,0,0,0,0,0,0,0,0,0,0,0,0,0,0,0,0,0,0,0,0,0,0,0,0,0,0,0,0,0,0,0,0,0,0,0,0,0,0,0,0,0,0,0,0,0,0,0,0,0,0,0,0,0,0,0,0,0,0,0,0,0,0,0,0,0,0,0,0,0,0,0,0,0,0,0,0,0,0,0,0,0,0,0,0,0,0,0,0,0,0,0,0,0,0,0,0,0,0,0,0,0,0,0,0,0,0,0,0,0,0,0,0,0,0,0,0,0,0,0,0,0,0,0,0,0,0,0,0,0,0,0,0,0,0,0,0,0,0,0,0,0,0,0,0,0,0,0,0,0,0,0,0,0,0,0,0,0,0,0,0,0,0,0,0,0,0,0,0,0,0,0,0,0,0,0,0,0,0,0,0,0,0,0,0,0,0,0,0,0,0,0,0,0,0,0,0,0,0,0,0,0,0,0,0,0,0,0,0,0,0,0,0,0,0,0,0,0,0,0,0,0,0,0,0,0,0,0,0,0,0,0,0,0,0,0,0,0,0,0,0,0,0,0,0,0,0,0,0,0,0,0,0,0,0,0,0,0,0,0,0,0,0,0,0,0,0,0,0,0,0,0,0,0,0,0,0,0,0,0,0,0,0,0,0,0,0,0,0,0,0,0,0,0,0,0,0,0,0,0,0,0,0,0,0,0,0,0,0,0,0,0,0,0,0,0,0,0,0,0,0,0,0,0,0,0,0,0,0,0,0,0,0,0,0,0,0,0,0,0,0,0,0,0,0,0,0,0,0,0,0,0,0,0,0,0,0,0,0,0,0,0,0,0,0,0,0,0,0,0,0,0,0,0,0,0,0,0,0,0,0,0,0,0,0,0,0,0,0,0,0,0,0,0,0,0,0,0,0,0,0,0,0,0,0,0,0,0,0,0,0,0,0,0,0,0,0,0,0,0,0,0,0,0,0,0,0,0,0,0,0,0,0,0,0,0,0,0,0,0,0,0,0,0,0,0,0,0,0,0,0,0,0,0,0,0,0,0,0,0,0,0,0,0,0,0],"trees":[{"base_weights":[-5.5481243E-4,-1.3699591E-1,5.091521E-1,-1.6611998E-1,6.628508E-2,3.3392268E-1,6.938508E-1,-1.7074534E-1,-8.115986E-2,1.2513666E-2,1.2422509E-1,2.565065E-1,4.1624564E-1,6.061301E-1,8.1100345E-1,-8.580355E-3,-6.816803E-3,-4.791689E-3,-2.6872265E-3,-5.9102225E-4,1.8296359E-3,4.859311E-3,7.603424E-3,1.1303859E-2,1.5381309E-2,1.890483E-2,2.2780912E-2,2.7919916E-2,3.2715093E-2,3.7332587E-2,4.265446E-2],"categories":[],"categories_nodes":[],"categories_segments":[],"categories_sizes":[],"default_left":[0,0,0,0,0,0,0,0,0,0,0,0,0,0,0,0,0,0,0,0,0,0,0,0,0,0,0,0,0,0,0],"id":0,"left_children":[1,3,5,7,9,11,13,15,17,19,21,23,25,27,29,-1,-1,-1,-1,-1,-1,-1,-1,-1,-1,-1,-1,-1,-1,-1,-1],"loss_changes":[2.1016948E3,1.4130402E2,2.0479602E2,7.904724E0,9.161528E0,1.9929901E1,2.8976318E1,2.0812988E-1,2.750759E-1,9.407258E-1,7.814846E-1,1.9113998E0,1.0226746E0,1.8070679E0,4.8095703E-2,0E0,0E0,0E0,0E0,0E0,0E0,0E0,0E0,0E0,0E0,0E0,0E0,0E0,0E0,0E0,0E0],"parents":[2147483647,0,0,1,1,2,2,3,3,4,4,5,5,6,6,7,7,8,8,9,9,10,10,11,11,12,12,13,13,14,14],"right_children":[2,4,6,8,10,12,14,16,18,20,22,24,26,28,30,-1,-1,-1,-1,-1,-1,-1,-1,-1,-1,-1,-1,-1,-1,-1,-1],"split_conditions":[5.46806E0,5.220356E0,5.8318825E0,5.1298985E0,5.3423343E0,5.638355E0,6.0576863E0,5.088281E0,5.187386E0,5.2846746E0,5.4071717E0,5.572154E0,5.7300997E0,5.9414706E0,6.1463294E0,-8.580355E-3,-6.816803E-3,-4.791689E-3,-2.6872265E-3,-5.9102225E-4,1.8296359E-3,4.859311E-3,7.603424E-3,1.1303859E-2,1.5381309E-2,1.890483E-2,2.2780912E-2,2.7919916E-2,3.2715093E-2,3.7332587E-2,4.265446E-2],"split_indices":[17,17,17,17,17,17,17,17,17,17,17,17,17,17,17,0,0,0,0,0,0,0,0,0,0,0,0,0,0,0,0],"split_type":[0,0,0,0,0,0,0,0,0,0,0,0,0,0,0,0,0,0,0,0,0,0,0,0,0,0,0,0,0,0,0],"sum_hessian":[3.022E4,2.3842E4,6.378E3,2.0859E4,2.983E3,3.28E3,3.098E3,1.9768E4,1.091E3,1.558E3,1.425E3,1.703E3,1.577E3,1.787E3,1.311E3,1.9245E4,5.23E2,6.82E2,4.09E2,7.55E2,8.03E2,7.48E2,6.77E2,1.09E3,6.13E2,8.3E2,7.47E2,9.27E2,8.6E2,5.5E2,7.61E2],"tree_param":{"num_deleted":"0","num_feature":"245","num_nodes":"31","size_leaf_vector":"1"}},{"base_weights":[-5.6027534E-4,-1.2822405E-1,4.9351642E-1,-1.580504E-1,6.823978E-2,3.2823122E-1,6.6121763E-1,-1.6257837E-1,-7.9185866E-2,1.9549597E-2,1.3235655E-1,2.567912E-1,4.0585846E-1,5.7891333E-1,3.847403E-2,-8.15761E-3,-6.337171E-3,-4.7301273E-3,-2.5411826E-3,-4.2893115E-4,2.2064387E-3,5.599025E-3,8.092844E-3,1.08998455E-2,1.4834051E-2,1.8481558E-2,2.2197025E-2,2.6198173E-2,3.0739982E-2],"categories":[],"categories_nodes":[],"categories_segments":[],"categories_sizes":[],"default_left":[0,0,0,0,0,0,0,0,0,0,0,0,0,0,0,0,0,0,0,0,0,0,0,0,0,0,0,0,0],"id":1,"left_children":[1,3,5,7,9,11,13,15,17,19,21,23,25,27,-1,-1,-1,-1,-1,-1,-1,-1,-1,-1,-1,-1,-1,-1,-1],"loss_changes":[1.9086844E3,1.410679E2,1.7057458E2,7.17865E0,9.730374E0,1.6427032E1,2.47417E1,5.3894043E-2,3.438635E-1,1.2901368E0,4.880829E-1,1.8431168E0,7.525177E-1,1.3773193E0,0E0,0E0,0E0,0E0,0E0,0E0,0E0,0E0,0E0,0E0,0E0,0E0,0E0,0E0,0E0],"parents":[2147483647,0,0,1,1,2,2,3,3,4,4,5,5,6,6,7,7,8,8,9,9,10,10,11,11,12,12,13,13],"right_children":[2,4,6,8,10,12,14,16,18,20,22,24,26,28,-1,-1,-1,-1,-1,-1,-1,-1,-1,-1,-1,-1,-1,-1,-1],"split_conditions":[5.484797E0,5.220356E0,5.8377304E0,5.123964E0,5.3614893E0,5.655992E0,6.0576863E0,5.0998664E0,5.187386E0,5.293305E0,5.433722E0,5.5645204E0,5.7400613E0,5.926926E0,3.847403E-2,-8.15761E-3,-6.337171E-3,-4.7301273E-3,-2.5411826E-3,-4.2893115E-4,2.2064387E-3,5.599025E-3,8.092844E-3,1.08998455E-2,1.4834051E-2,1.8481558E-2,2.2197025E-2,2.6198173E-2,3.0739982E-2],"split_indices":[17,17,17,17,17,17,17,17,17,17,17,17,17,17,0,0,0,0,0,0,0,0,0,0,0,0,0,0,0],"split_type":[0,0,0,0,0,0,0,0,0,0,0,0,0,0,0,0,0,0,0,0,0,0,0,0,0,0,0,0,0],"sum_hessian":[3.026E4,2.405E4,6.21E3,2.0885E4,3.165E3,3.135E3,3.075E3,1.9736E4,1.149E3,1.81E3,1.355E3,1.646E3,1.489E3,1.763E3,1.312E3,1.9387E4,3.49E2,7.17E2,4.32E2,8.26E2,9.84E2,8.3E2,5.25E2,8.57E2,7.89E2,7.93E2,6.96E2,7.26E2,1.037E3],"tree_param":{"num_deleted":"0","num_feature":"245","num_nodes":"29","size_leaf_vector":"1"}},{"base_weights":[4.9105077E-4,-1.23739086E-1,4.628899E-1,-1.5186083E-1,4.8917633E-2,3.0273545E-1,6.265513E-1,-7.7300854E-3,-8.8628896E-2,1.8785268E-3,1.1172352E-1,2.3173858E-1,3.7467137E-1,5.446024E-1,7.28054E-1,-5.23685E-3,-3.6726464E-3,-1.2886989E-3,1.4210236E-3,4.300828E-3,6.7932396E-3,1.0150869E-2,1.3710724E-2,1.6805422E-2,2.0377165E-2,2.480146E-2,2.9074145E-2,3.3926684E-2,3.908647E-2],"categories":[],"categories_nodes":[],"categories_segments":[],"categories_sizes":[],"default_left":[0,0,0,0,0,0,0,0,0,0,0,0,0,0,0,0,0,0,0,0,0,0,0,0,0,0,0,0,0],"id":2,"left_children":[1,3,5,7,9,11,13,-1,15,17,19,21,23,25,27,-1,-1,-1,-1,-1,-1,-1,-1,-1,-1,-1,-1,-1,-1],"loss_changes":[1.7334777E3,1.1558682E2,1.6601685E2,3.2607727E0,9.717788E0,1.5675446E1,2.378125E1,0E0,1.1895657E-2,1.4103608E0,6.218262E-1,1.3625946E0,8.698273E-1,1.2153931E0,6.564331E-1,0E0,0E0,0E0,0E0,0E0,0E0,0E0,0E0,0E0,0E0,0E0,0E0,0E0,0E0],"parents":[2147483647,0,0,1,1,2,2,3,3,4,4,5,5,6,6,8,8,9,9,10,10,11,11,12,12,13,13,14,14],"right_children":[2,4,6,8,10,12,14,-1,16,18,20,22,24,26,28,-1,-1,-1,-1,-1,-1,-1,-1,-1,-1,-1,-1,-1,-1],"split_conditions":[5.46806E0,5.198124E0,5.8318825E0,5.117994E0,5.3423343E0,5.638355E0,6.052089E0,-7.7300854E-3,5.1532917E0,5.273E0,5.4026775E0,5.5645204E0,5.7170277E0,5.926926E0,6.1717005E0,-5.23685E-3,-3.6726464E-3,-1.2886989E-3,1.4210236E-3,4.300828E-3,6.7932396E-3,1.0150869E-2,1.3710724E-2,1.6805422E-2,2.0377165E-2,2.480146E-2,2.9074145E-2,3.3926684E-2,3.908647E-2],"split_indices":[17,17,17,17,17,17,17,0,17,17,17,17,17,17,17,0,0,0,0,0,0,0,0,0,0,0,0,0,0],"split_type":[0,0,0,0,0,0,0,0,0,0,0,0,0,0,0,0,0,0,0,0,0,0,0,0,0,0,0,0,0],"sum_hessian":[3.0165E4,2.3777E4,6.388E3,2.0452E4,3.325E3,3.236E3,3.152E3,1.9583E4,8.69E2,1.912E3,1.413E3,1.642E3,1.594E3,1.76E3,1.392E3,3.81E2,4.88E2,9.18E2,9.94E2,7.11E2,7.02E2,1.004E3,6.38E2,7.63E2,8.31E2,7.9E2,9.7E2,7.55E2,6.37E2],"tree_param":{"num_deleted":"0","num_feature":"245","num_nodes":"29","size_leaf_vector":"1"}},{"base_weights":[-1.5959177E-4,-1.1598692E-1,4.4633338E-1,-1.428275E-1,6.1629012E-2,2.9183465E-1,5.9306645E-1,-1.4679225E-1,-7.253859E-2,1.1445212E-2,1.1355599E-1,2.258595E-1,3.552177E-1,5.161465E-1,6.9011956E-1,-7.3657515E-3,-5.6422525E-3,-4.362763E-3,-2.4089778E-3,-4.8581275E-4,1.7159242E-3,4.216711E-3,6.8124817E-3,9.696002E-3,1.2922011E-2,1.6213557E-2,1.9505259E-2,2.3965152E-2,2.7849058E-2,3.1839088E-2,3.663389E-2],"categories":[],"categories_nodes":[],"categories_segments":[],"categories_sizes":[],"default_left":[0,0,0,0,0,0,0,0,0,0,0,0,0,0,0,0,0,0,0,0,0,0,0,0,0,0,0,0,0,0,0],"id":3,"left_children":[1,3,5,7,9,11,13,15,17,19,21,23,25,27,29,-1,-1,-1,-1,-1,-1,-1,-1,-1,-1,-1,-1,-1,-1,-1,-1],"loss_changes":[1.5627886E3,1.1452789E2,1.3969434E2,5.5608215E0,8.07445E0,1.1894775E1,2.1509644E1,4.0039062E-2,2.581153E-1,8.068301E-1,7.6420593E-1,9.64447E-1,5.6663513E-1,8.634033E-1,3.9526367E-1,0E0,0E0,0E0,0E0,0E0,0E0,0E0,0E0,0E0,0E0,0E0,0E0,0E0,0E0,0E0,0E0],"parents":[2147483647,0,0,1,1,2,2,3,3,4,4,5,5,6,6,7,7,8,8,9,9,10,10,11,11,12,12,13,13,14,14],"right_children":[2,4,6,8,10,12,14,16,18,20,22,24,26,28,30,-1,-1,-1,-1,-1,-1,-1,-1,-1,-1,-1,-1,-1,-1,-1,-1],"split_conditions":[5.484797E0,5.220356E0,5.8261623E0,5.123964E0,5.3471074E0,5.638355E0,6.0473723E0,5.0998664E0,5.1817837E0,5.293305E0,5.4071717E0,5.5558143E0,5.7300997E0,5.9414706E0,6.1463294E0,-7.3657515E-3,-5.6422525E-3,-4.362763E-3,-2.4089778E-3,-4.8581275E-4,1.7159242E-3,4.216711E-3,6.8124817E-3,9.696002E-3,1.2922011E-2,1.6213557E-2,1.9505259E-2,2.3965152E-2,2.7849058E-2,3.1839088E-2,3.663389E-2],"split_indices":[17,17,17,17,17,17,17,17,17,17,17,17,17,17,17,0,0,0,0,0,0,0,0,0,0,0,0,0,0,0,0],"split_type":[0,0,0,0,0,0,0,0,0,0,0,0,0,0,0,0,0,0,0,0,0,0,0,0,0,0,0,0,0,0,0],"sum_hessian":[3.0219E4,2.3998E4,6.221E3,2.0853E4,3.145E3,3.038E3,3.183E3,1.9723E4,1.13E3,1.611E3,1.534E3,1.503E3,1.535E3,1.792E3,1.391E3,1.9385E4,3.38E2,6.74E2,4.56E2,8.15E2,7.96E2,6.96E2,8.38E2,7.85E2,7.18E2,8.45E2,6.9E2,9.75E2,8.17E2,6.49E2,7.42E2],"tree_param":{"num_deleted":"0","num_feature":"245","num_nodes":"31","size_leaf_vector":"1"}},{"base_weights":[-8.4803527E-4,-1.1311651E-1,4.1219687E-1,-1.3610004E-1,4.7615282E-2,2.691046E-1,5.65238E-1,-1.3937613E-1,-7.0620485E-2,7.358753E-3,9.8762535E-2,1.8786025E-1,3.2560503E-1,4.8262867E-1,6.4894634E-1,-7.003311E-3,-5.573723E-3,-4.227739E-3,-2.5381758E-3,-6.1381573E-4,1.5306575E-3,3.5043152E-3,5.558837E-3,8.057252E-3,1.0329877E-2,1.3931301E-2,1.777998E-2,2.2046443E-2,2.5559658E-2,2.9882079E-2,3.4973115E-2],"categories":[],"categories_nodes":[],"categories_segments":[],"categories_sizes":[],"default_left":[0,0,0,0,0,0,0,0,0,0,0,0,0,0,0,0,0,0,0,0,0,0,0,0,0,0,0,0,0,0,0],"id":4,"left_children":[1,3,5,7,9,11,13,15,17,19,21,23,25,27,29,-1,-1,-1,-1,-1,-1,-1,-1,-1,-1,-1,-1,-1,-1,-1,-1],"loss_changes":[1.4002727E3,8.784479E1,1.4002368E2,4.219208E0,6.0028424E0,1.4653137E1,1.9448547E1,8.242798E-2,1.3154125E-1,7.842721E-1,2.5672722E-1,2.2616959E-1,1.8318176E0,2.5845337E-1,1.4168091E0,0E0,0E0,0E0,0E0,0E0,0E0,0E0,0E0,0E0,0E0,0E0,0E0,0E0,0E0,0E0,0E0],"parents":[2147483647,0,0,1,1,2,2,3,3,4,4,5,5,6,6,7,7,8,8,9,9,10,10,11,11,12,12,13,13,14,14],"right_children":[2,4,6,8,10,12,14,16,18,20,22,24,26,28,30,-1,-1,-1,-1,-1,-1,-1,-1,-1,-1,-1,-1,-1,-1,-1,-1],"split_conditions":[5.454631E0,5.209486E0,5.8318825E0,5.1298985E0,5.3471074E0,5.6013823E0,6.026238E0,5.088281E0,5.17615E0,5.293305E0,5.3845387E0,5.521461E0,5.690731E0,5.9117203E0,6.1463294E0,-7.003311E-3,-5.573723E-3,-4.227739E-3,-2.5381758E-3,-6.1381573E-4,1.5306575E-3,3.5043152E-3,5.558837E-3,8.057252E-3,1.0329877E-2,1.3931301E-2,1.777998E-2,2.2046443E-2,2.5559658E-2,2.9882079E-2,3.4973115E-2],"split_indices":[17,17,17,17,17,17,17,17,17,17,17,17,17,17,17,0,0,0,0,0,0,0,0,0,0,0,0,0,0,0,0],"split_type":[0,0,0,0,0,0,0,0,0,0,0,0,0,0,0,0,0,0,0,0,0,0,0,0,0,0,0,0,0,0,0],"sum_hessian":[3.0197E4,2.3747E4,6.45E3,2.0782E4,2.965E3,3.341E3,3.109E3,1.9774E4,1.008E3,1.672E3,1.293E3,1.383E3,1.958E3,1.581E3,1.528E3,1.925E4,5.24E2,5.57E2,4.51E2,8.84E2,7.88E2,4.21E2,8.72E2,6.04E2,7.79E2,7.88E2,1.17E3,6.77E2,9.04E2,7.87E2,7.41E2],"tree_param":{"num_deleted":"0","num_feature":"245","num_nodes":"31","size_leaf_vector":"1"}},{"base_weights":[-9.390474E-4,-1.04651734E-1,4.0202934E-1,-1.2894149E-1,5.4844506E-2,2.744399E-1,5.472457E-1,-1.324088E-1,-6.1621796E-2,1.5024888E-2,1.07733764E-1,2.0953281E-1,3.3836052E-1,4.8668003E-1,3.2124795E-2,-6.653499E-3,-5.353221E-3,-3.58304E-3,-2.0508056E-3,-3.1769468E-4,1.8628793E-3,4.51469E-3,6.611302E-3,9.285182E-3,1.2659189E-2,1.5239936E-2,1.8884089E-2,2.2337658E-2,2.638762E-2],"categories":[],"categories_nodes":[],"categories_segments":[],"categories_sizes":[],"default_left":[0,0,0,0,0,0,0,0,0,0,0,0,0,0,0,0,0,0,0,0,0,0,0,0,0,0,0,0,0],"id":5,"left_children":[1,3,5,7,9,11,13,15,17,19,21,23,25,27,-1,-1,-1,-1,-1,-1,-1,-1,-1,-1,-1,-1,-1,-1,-1],"loss_changes":[1.2629368E3,9.323312E1,1.1332385E2,4.6529236E0,6.556925E0,1.2939087E1,1.4581787E1,4.9438477E-2,9.405422E-2,8.990511E-1,3.1916237E-1,1.1404953E0,1.1509705E0,1.242096E0,0E0,0E0,0E0,0E0,0E0,0E0,0E0,0E0,0E0,0E0,0E0,0E0,0E0,0E0,0E0],"parents":[2147483647,0,0,1,1,2,2,3,3,4,4,5,5,6,6,7,7,8,8,9,9,10,10,11,11,12,12,13,13],"right_children":[2,4,6,8,10,12,14,16,18,20,22,24,26,28,-1,-1,-1,-1,-1,-1,-1,-1,-1,-1,-1,-1,-1,-1,-1],"split_conditions":[5.484797E0,5.220356E0,5.8607864E0,5.1357985E0,5.3614893E0,5.655992E0,6.089045E0,5.088281E0,5.192957E0,5.296466E0,5.433722E0,5.5947113E0,5.7576423E0,5.9664235E0,3.2124795E-2,-6.653499E-3,-5.353221E-3,-3.58304E-3,-2.0508056E-3,-3.1769468E-4,1.8628793E-3,4.51469E-3,6.611302E-3,9.285182E-3,1.2659189E-2,1.5239936E-2,1.8884089E-2,2.2337658E-2,2.638762E-2],"split_indices":[17,17,17,17,17,17,17,17,17,17,17,17,17,17,0,0,0,0,0,0,0,0,0,0,0,0,0,0,0],"split_type":[0,0,0,0,0,0,0,0,0,0,0,0,0,0,0,0,0,0,0,0,0,0,0,0,0,0,0,0,0],"sum_hessian":[3.022E4,2.4038E4,6.182E3,2.0867E4,3.171E3,3.299E3,2.883E3,1.9828E4,1.039E3,1.822E3,1.349E3,1.651E3,1.648E3,1.78E3,1.103E3,1.9273E4,5.55E2,6.61E2,3.78E2,9.07E2,9.15E2,8.2E2,5.29E2,1.093E3,5.58E2,9.17E2,7.31E2,9.33E2,8.47E2],"tree_param":{"num_deleted":"0","num_feature":"245","num_nodes":"29","size_leaf_vector":"1"}},{"base_weights":[4.8554759E-4,-1.0186185E-1,3.7199855E-1,-1.2384269E-1,3.5403367E-2,2.4087436E-1,5.104822E-1,-6.302169E-3,-7.994215E-2,-7.269564E-3,7.928506E-2,1.7015903E-1,2.9202867E-1,2.1682113E-2,5.846784E-1,-4.5168377E-3,-3.0484681E-3,-1.6587814E-3,5.053023E-4,2.7058828E-3,4.954136E-3,7.2979107E-3,9.3587255E-3,1.2499916E-2,1.6019193E-2,2.6926382E-2,3.1548437E-2],"categories":[],"categories_nodes":[],"categories_segments":[],"categories_sizes":[],"default_left":[0,0,0,0,0,0,0,0,0,0,0,0,0,0,0,0,0,0,0,0,0,0,0,0,0,0,0],"id":6,"left_children":[1,3,5,7,9,11,13,-1,15,17,19,21,23,-1,25,-1,-1,-1,-1,-1,-1,-1,-1,-1,-1,-1,-1],"loss_changes":[1.1492986E3,7.157915E1,1.1743689E2,1.7372742E0,6.189527E0,1.1554031E1,1.628833E1,0E0,3.037119E-2,7.6544553E-1,6.3888454E-1,1.7253113E-1,1.5001984E0,0E0,1.2228394E0,0E0,0E0,0E0,0E0,0E0,0E0,0E0,0E0,0E0,0E0,0E0,0E0],"parents":[2147483647,0,0,1,1,2,2,3,3,4,4,5,5,6,6,8,8,9,9,10,10,11,11,12,12,14,14],"right_children":[2,4,6,8,10,12,14,-1,16,18,20,22,24,-1,26,-1,-1,-1,-1,-1,-1,-1,-1,-1,-1,-1,-1],"split_conditions":[5.454631E0,5.192957E0,5.8261623E0,5.1059456E0,5.311937E0,5.6013823E0,6.0186615E0,-6.302169E-3,5.154388E0,5.247024E0,5.3845387E0,5.521461E0,5.690731E0,2.1682113E-2,6.1463294E0,-4.5168377E-3,-3.0484681E-3,-1.6587814E-3,5.053023E-4,2.7058828E-3,4.954136E-3,7.2979107E-3,9.3587255E-3,1.2499916E-2,1.6019193E-2,2.6926382E-2,3.1548437E-2],"split_indices":[17,17,17,17,17,17,17,0,17,17,17,17,17,0,17,0,0,0,0,0,0,0,0,0,0,0,0],"split_type":[0,0,0,0,0,0,0,0,0,0,0,0,0,0,0,0,0,0,0,0,0,0,0,0,0,0,0],"sum_hessian":[3.0213E4,2.3687E4,6.526E3,2.0424E4,3.263E3,3.36E3,3.166E3,1.9422E4,1.002E3,1.644E3,1.619E3,1.424E3,1.936E3,1.572E3,1.594E3,6.06E2,3.96E2,6.82E2,9.62E2,7.4E2,8.79E2,6.24E2,8E2,8.06E2,1.13E3,8.28E2,7.66E2],"tree_param":{"num_deleted":"0","num_feature":"245","num_nodes":"27","size_leaf_vector":"1"}},{"base_weights":[5.3403917E-4,-9.449796E-2,3.6110067E-1,-1.16061896E-1,4.6215422E-2,2.4376872E-1,4.9353972E-1,-5.9596123E-3,-5.7234496E-2,7.041603E-3,8.758373E-2,1.8978888E-1,3.041673E-1,4.3114078E-1,2.8365616E-2,-3.7801105E-3,-6.108684E-4,-3.6138674E-4,2.250509E-3,3.5191388E-3,6.509058E-3,8.081285E-3,1.08883595E-2,1.3684111E-2,1.6824542E-2,1.9952925E-2,2.2992173E-2],"categories":[],"categories_nodes":[],"categories_segments":[],"categories_sizes":[],"default_left":[0,0,0,0,0,0,0,0,0,0,0,0,0,0,0,0,0,0,0,0,0,0,0,0,0,0,0],"id":7,"left_children":[1,3,5,7,9,11,13,-1,15,17,19,21,23,25,-1,-1,-1,-1,-1,-1,-1,-1,-1,-1,-1,-1,-1],"loss_changes":[1.0377871E3,7.279166E1,9.7079285E1,3.6304932E0,5.056888E0,1.0287491E1,1.1898254E1,0E0,7.9580545E-1,9.3216425E-1,8.95936E-1,9.2624664E-1,6.625824E-1,8.605957E-2,0E0,0E0,0E0,0E0,0E0,0E0,0E0,0E0,0E0,0E0,0E0,0E0,0E0],"parents":[2147483647,0,0,1,1,2,2,3,3,4,4,5,5,6,6,8,8,9,9,10,10,11,11,12,12,13,13],"right_children":[2,4,6,8,10,12,14,-1,16,18,20,22,24,26,-1,-1,-1,-1,-1,-1,-1,-1,-1,-1,-1,-1,-1],"split_conditions":[2.32E2,1.79E2,3.37E2,1.63E2,2.01E2,2.79E2,4.16E2,-5.9596123E-3,5.224547E-1,5.7E-1,5.7E-1,2.52E2,3.04E2,3.73E2,2.8365616E-2,-3.7801105E-3,-6.108684E-4,-3.6138674E-4,2.250509E-3,3.5191388E-3,6.509058E-3,8.081285E-3,1.08883595E-2,1.3684111E-2,1.6824542E-2,1.9952925E-2,2.2992173E-2],"split_indices":[4,4,4,4,4,4,4,0,12,13,13,4,4,4,0,0,0,0,0,0,0,0,0,0,0,0,0],"split_type":[0,0,0,0,0,0,0,0,0,0,0,0,0,0,0,0,0,0,0,0,0,0,0,0,0,0,0],"sum_hessian":[3.0273E4,2.3958E4,6.315E3,2.0781E4,3.177E3,3.357E3,2.958E3,1.9712E4,1.069E3,1.646E3,1.531E3,1.788E3,1.569E3,1.621E3,1.337E3,7.42E2,3.27E2,1.179E3,4.67E2,1.113E3,4.18E2,9.19E2,8.69E2,8.38E2,7.31E2,8.03E2,8.18E2],"tree_param":{"num_deleted":"0","num_feature":"245","num_nodes":"27","size_leaf_vector":"1"}},{"base_weights":[2.5936347E-4,-8.9812234E-2,3.4394366E-1,-1.116638E-1,3.7943278E-2,2.2478239E-1,4.5782346E-1,-5.6753764E-3,-6.140628E-2,3.2623942E-4,8.412237E-2,1.6809465E-1,2.7057776E-1,3.9052418E-1,5.254942E-1,-3.842956E-3,-9.1596803E-4,-1.1448229E-3,1.2560067E-3,3.4349763E-3,6.250688E-3,7.443819E-3,1.0534505E-2,1.1818416E-2,1.4624754E-2,1.7851237E-2,2.0647345E-2,2.4633324E-2,2.8727321E-2],"categories":[],"categories_nodes":[],"categories_segments":[],"categories_sizes":[],"default_left":[0,0,0,0,0,0,0,0,0,0,0,0,0,0,0,0,0,0,0,0,0,0,0,0,0,0,0,0,0],"id":8,"left_children":[1,3,5,7,9,11,13,-1,15,17,19,21,23,25,27,-1,-1,-1,-1,-1,-1,-1,-1,-1,-1,-1,-1,-1,-1],"loss_changes":[9.3640015E2,6.6971756E1,8.42558E1,1.7006683E0,5.986706E0,7.4206696E0,1.3064514E1,0E0,3.999586E-1,1.1215402E0,7.6246166E-1,6.874771E-1,5.301056E-1,9.094238E-3,6.31073E-1,0E0,0E0,0E0,0E0,0E0,0E0,0E0,0E0,0E0,0E0,0E0,0E0,0E0,0E0],"parents":[2147483647,0,0,1,1,2,2,3,3,4,4,5,5,6,6,8,8,9,9,10,10,11,11,12,12,13,13,14,14],"right_children":[2,4,6,8,10,12,14,-1,16,18,20,22,24,26,28,-1,-1,-1,-1,-1,-1,-1,-1,-1,-1,-1,-1,-1,-1],"split_conditions":[2.32E2,1.75E2,3.26E2,1.63E2,2.01E2,2.68E2,4E2,-5.6753764E-3,5.548933E-1,1.89E2,5.224547E-1,5.632052E-1,2.93E2,3.57E2,4.65E2,-3.842956E-3,-9.1596803E-4,-1.1448229E-3,1.2560067E-3,3.4349763E-3,6.250688E-3,7.443819E-3,1.0534505E-2,1.1818416E-2,1.4624754E-2,1.7851237E-2,2.0647345E-2,2.4633324E-2,2.8727321E-2],"split_indices":[4,4,4,4,4,4,4,0,12,4,12,12,4,4,4,0,0,0,0,0,0,0,0,0,0,0,0,0,0],"split_type":[0,0,0,0,0,0,0,0,0,0,0,0,0,0,0,0,0,0,0,0,0,0,0,0,0,0,0,0,0],"sum_hessian":[3.0235E4,2.3956E4,6.279E3,2.0464E4,3.492E3,3.077E3,3.202E3,1.9717E4,7.47E2,1.938E3,1.554E3,1.391E3,1.686E3,1.623E3,1.579E3,5.31E2,2.16E2,9.8E2,9.58E2,1.152E3,4.02E2,9.84E2,4.07E2,6.9E2,9.96E2,6.89E2,9.34E2,9.78E2,6.01E2],"tree_param":{"num_deleted":"0","num_feature":"245","num_nodes":"29","size_leaf_vector":"1"}},{"base_weights":[1.6584052E-4,-8.512182E-2,3.284122E-1,-1.0444684E-1,4.9207725E-2,2.2823536E-1,4.52281E-1,-1.07775465E-1,-4.9309842E-2,1.5438447E-2,8.969641E-2,1.6982144E-1,2.7923316E-1,4.028166E-1,2.6209423E-2,-5.4174955E-3,-4.284633E-3,-2.9858311E-3,-1.7100846E-3,-1.6005732E-4,1.4448607E-3,3.7528703E-3,5.3298553E-3,7.2990092E-3,9.908725E-3,1.2337216E-2,1.5788548E-2,1.8681051E-2,2.1815173E-2],"categories":[],"categories_nodes":[],"categories_segments":[],"categories_sizes":[],"default_left":[0,0,0,0,0,0,0,0,0,0,0,0,0,0,0,0,0,0,0,0,0,0,0,0,0,0,0,0,0],"id":9,"left_children":[1,3,5,7,9,11,13,15,17,19,21,23,25,27,-1,-1,-1,-1,-1,-1,-1,-1,-1,-1,-1,-1,-1,-1,-1],"loss_changes":[8.470749E2,6.2393555E1,7.6453064E1,3.6803741E0,4.013041E0,9.718933E0,8.338318E0,2.9022217E-2,9.145713E-2,4.4266197E-1,1.3007641E-1,6.7089844E-1,1.3808289E0,3.3370972E-1,0E0,0E0,0E0,0E0,0E0,0E0,0E0,0E0,0E0,0E0,0E0,0E0,0E0,0E0,0E0],"parents":[2147483647,0,0,1,1,2,2,3,3,4,4,5,5,6,6,7,7,8,8,9,9,10,10,11,11,12,12,13,13],"right_children":[2,4,6,8,10,12,14,16,18,20,22,24,26,28,-1,-1,-1,-1,-1,-1,-1,-1,-1,-1,-1,-1,-1,-1,-1],"split_conditions":[5.484797E0,5.230092E0,5.874814E0,5.1357985E0,5.3614893E0,5.651083E0,6.089045E0,5.088281E0,5.192957E0,5.293305E0,5.4293456E0,5.572154E0,5.765191E0,5.986306E0,2.6209423E-2,-5.4174955E-3,-4.284633E-3,-2.9858311E-3,-1.7100846E-3,-1.6005732E-4,1.4448607E-3,3.7528703E-3,5.3298553E-3,7.2990092E-3,9.908725E-3,1.2337216E-2,1.5788548E-2,1.8681051E-2,2.1815173E-2],"split_indices":[17,17,17,17,17,17,17,17,17,17,17,17,17,17,0,0,0,0,0,0,0,0,0,0,0,0,0,0,0],"split_type":[0,0,0,0,0,0,0,0,0,0,0,0,0,0,0,0,0,0,0,0,0,0,0,0,0,0,0,0,0],"sum_hessian":[3.0243E4,2.4005E4,6.238E3,2.0993E4,3.012E3,3.458E3,2.78E3,1.9778E4,1.215E3,1.658E3,1.354E3,1.627E3,1.831E3,1.667E3,1.113E3,1.9221E4,5.57E2,6.75E2,5.4E2,6.65E2,9.93E2,7.66E2,5.88E2,9.13E2,7.14E2,9.96E2,8.35E2,9.26E2,7.41E2],"tree_param":{"num_deleted":"0","num_feature":"245","num_nodes":"29","size_leaf_vector":"1"}},{"base_weights":[2.1480421E-4,-8.043608E-2,3.112388E-1,-9.955659E-2,4.2535175E-2,2.1405636E-1,4.2778534E-1,-1.0226963E-1,-4.835301E-2,5.8089863E-3,7.853817E-2,1.6096821E-1,2.6453364E-1,3.8102984E-1,2.4949506E-2,-5.134589E-3,-3.825719E-3,-2.8448037E-3,-1.5964862E-3,-3.8021055E-4,9.6530415E-4,2.910164E-3,4.722137E-3,7.1009183E-3,9.7614685E-3,1.1819465E-2,1.4852851E-2,1.737368E-2,2.03623E-2],"categories":[],"categories_nodes":[],"categories_segments":[],"categories_sizes":[],"default_left":[0,0,0,0,0,0,0,0,0,0,0,0,0,0,0,0,0,0,0,0,0,0,0,0,0,0,0,0,0],"id":10,"left_children":[1,3,5,7,9,11,13,15,17,19,21,23,25,27,-1,-1,-1,-1,-1,-1,-1,-1,-1,-1,-1,-1,-1,-1,-1],"loss_changes":[7.5642377E2,5.6349777E1,6.941968E1,2.7133179E0,4.1666493E0,8.54985E0,7.9246216E0,1.0986328E-2,5.5429697E-2,3.0343437E-1,3.515663E-1,6.6576004E-1,8.3670807E-1,3.347473E-1,0E0,0E0,0E0,0E0,0E0,0E0,0E0,0E0,0E0,0E0,0E0,0E0,0E0,0E0,0E0],"parents":[2147483647,0,0,1,1,2,2,3,3,4,4,5,5,6,6,7,7,8,8,9,9,10,10,11,11,12,12,13,13],"right_children":[2,4,6,8,10,12,14,16,18,20,22,24,26,28,-1,-1,-1,-1,-1,-1,-1,-1,-1,-1,-1,-1,-1,-1,-1],"split_conditions":[5.484797E0,5.220356E0,5.866468E0,5.1298985E0,5.3423343E0,5.655992E0,6.089045E0,5.1033664E0,5.187386E0,5.2846746E0,5.4026775E0,5.5947113E0,5.765191E0,5.963579E0,2.4949506E-2,-5.134589E-3,-3.825719E-3,-2.8448037E-3,-1.5964862E-3,-3.8021055E-4,9.6530415E-4,2.910164E-3,4.722137E-3,7.1009183E-3,9.7614685E-3,1.1819465E-2,1.4852851E-2,1.737368E-2,2.03623E-2],"split_indices":[17,17,17,17,17,17,17,17,17,17,17,17,17,17,0,0,0,0,0,0,0,0,0,0,0,0,0,0,0],"split_type":[0,0,0,0,0,0,0,0,0,0,0,0,0,0,0,0,0,0,0,0,0,0,0,0,0,0,0,0,0],"sum_hessian":[3.014E4,2.3933E4,6.207E3,2.072E4,3.213E3,3.394E3,2.813E3,1.9656E4,1.064E3,1.606E3,1.607E3,1.67E3,1.724E3,1.718E3,1.095E3,1.9292E4,3.64E2,6.55E2,4.09E2,7.69E2,8.37E2,7.39E2,8.68E2,1.104E3,5.66E2,9.54E2,7.7E2,7.89E2,9.29E2],"tree_param":{"num_deleted":"0","num_feature":"245","num_nodes":"29","size_leaf_vector":"1"}},{"base_weights":[3.2250298E-4,-7.602677E-2,2.991192E-1,-9.3862616E-2,4.866296E-2,2.0719697E-1,4.076538E-1,-9.7068466E-2,-4.0547017E-2,1.6728189E-2,8.113965E-2,1.5659794E-1,2.5103673E-1,1.7819844E-2,4.644881E-1,-4.885319E-3,-3.7375956E-3,-2.5032489E-3,-1.4014265E-3,-0E0,1.3940255E-3,3.4224347E-3,5.0560096E-3,6.717638E-3,9.118163E-3,1.1240798E-2,1.4049463E-2,2.1738974E-2,2.567405E-2],"categories":[],"categories_nodes":[],"categories_segments":[],"categories_sizes":[],"default_left":[0,0,0,0,0,0,0,0,0,0,0,0,0,0,0,0,0,0,0,0,0,0,0,0,0,0,0,0,0],"id":11,"left_children":[1,3,5,7,9,11,13,15,17,19,21,23,25,-1,27,-1,-1,-1,-1,-1,-1,-1,-1,-1,-1,-1,-1,-1,-1],"loss_changes":[6.922069E2,5.378279E1,6.0748047E1,3.4642181E0,3.0281363E0,6.9166565E0,6.90921E0,8.92334E-2,6.32987E-2,2.6059586E-1,1.8495274E-1,5.1306915E-1,7.0423126E-1,0E0,3.0325317E-1,0E0,0E0,0E0,0E0,0E0,0E0,0E0,0E0,0E0,0E0,0E0,0E0,0E0,0E0],"parents":[2147483647,0,0,1,1,2,2,3,3,4,4,5,5,6,6,7,7,8,8,9,9,10,10,11,11,12,12,14,14],"right_children":[2,4,6,8,10,12,14,16,18,20,22,24,26,-1,28,-1,-1,-1,-1,-1,-1,-1,-1,-1,-1,-1,-1,-1,-1],"split_conditions":[5.4901147E0,5.241747E0,5.866468E0,5.1416636E0,5.3614893E0,5.655992E0,6.0576863E0,5.088281E0,5.198124E0,5.2983174E0,5.4424176E0,5.576782E0,5.765191E0,1.7819844E-2,6.206576E0,-4.885319E-3,-3.7375956E-3,-2.5032489E-3,-1.4014265E-3,-0E0,1.3940255E-3,3.4224347E-3,5.0560096E-3,6.717638E-3,9.118163E-3,1.1240798E-2,1.4049463E-2,2.1738974E-2,2.567405E-2],"split_indices":[17,17,17,17,17,17,17,17,17,17,17,17,17,0,17,0,0,0,0,0,0,0,0,0,0,0,0,0,0],"split_type":[0,0,0,0,0,0,0,0,0,0,0,0,0,0,0,0,0,0,0,0,0,0,0,0,0,0,0,0,0],"sum_hessian":[3.0327E4,2.4154E4,6.173E3,2.1139E4,3.015E3,3.352E3,2.821E3,1.992E4,1.219E3,1.538E3,1.477E3,1.573E3,1.779E3,1.504E3,1.317E3,1.9313E4,6.07E2,6.42E2,5.77E2,6.51E2,8.87E2,9.42E2,5.35E2,8.75E2,6.98E2,9.8E2,7.99E2,8.51E2,4.66E2],"tree_param":{"num_deleted":"0","num_feature":"245","num_nodes":"29","size_leaf_vector":"1"}},{"base_weights":[-5.851582E-4,-7.415033E-2,2.7728614E-1,-9.01135E-2,3.486645E-2,1.8819559E-1,3.8316244E-1,-4.6286085E-3,-4.4618774E-2,5.9490623E-3,6.7092195E-2,1.4305049E-1,2.3756261E-1,3.3477765E-1,4.3990436E-1,-2.7468156E-3,-1.6360747E-3,-4.985799E-4,8.2190474E-4,2.2299543E-3,3.795568E-3,5.900433E-3,8.319399E-3,1.07274875E-2,1.3216674E-2,1.5515409E-2,1.8135792E-2,2.0404628E-2,2.4149574E-2],"categories":[],"categories_nodes":[],"categories_segments":[],"categories_sizes":[],"default_left":[0,0,0,0,0,0,0,0,0,0,0,0,0,0,0,0,0,0,0,0,0,0,0,0,0,0,0,0,0],"id":12,"left_children":[1,3,5,7,9,11,13,-1,15,17,19,21,23,25,27,-1,-1,-1,-1,-1,-1,-1,-1,-1,-1,-1,-1,-1,-1],"loss_changes":[6.170533E2,4.1618454E1,5.8807373E1,2.1811676E0,2.7624173E0,7.188545E0,6.6876526E0,0E0,4.1361094E-2,2.7815375E-1,1.5161419E-1,7.179947E-1,3.5456848E-1,6.6711426E-2,3.07724E-1,0E0,0E0,0E0,0E0,0E0,0E0,0E0,0E0,0E0,0E0,0E0,0E0,0E0,0E0],"parents":[2147483647,0,0,1,1,2,2,3,3,4,4,5,5,6,6,8,8,9,9,10,10,11,11,12,12,13,13,14,14],"right_children":[2,4,6,8,10,12,14,-1,16,18,20,22,24,26,28,-1,-1,-1,-1,-1,-1,-1,-1,-1,-1,-1,-1,-1,-1],"split_conditions":[5.46806E0,5.220356E0,5.8607864E0,5.1298985E0,5.3471074E0,5.655992E0,6.0576863E0,-4.6286085E-3,5.17615E0,5.273E0,5.3845387E0,5.549076E0,5.7576423E0,5.963579E0,6.1923623E0,-2.7468156E-3,-1.6360747E-3,-4.985799E-4,8.2190474E-4,2.2299543E-3,3.795568E-3,5.900433E-3,8.319399E-3,1.07274875E-2,1.3216674E-2,1.5515409E-2,1.8135792E-2,2.0404628E-2,2.4149574E-2],"split_indices":[17,17,17,17,17,17,17,0,17,17,17,17,17,17,17,0,0,0,0,0,0,0,0,0,0,0,0,0,0],"split_type":[0,0,0,0,0,0,0,0,0,0,0,0,0,0,0,0,0,0,0,0,0,0,0,0,0,0,0,0,0],"sum_hessian":[3.019E4,2.3875E4,6.315E3,2.0834E4,3.041E3,3.439E3,2.876E3,1.9742E4,1.092E3,1.621E3,1.42E3,1.813E3,1.626E3,1.573E3,1.303E3,5.34E2,5.58E2,6.06E2,1.015E3,4.37E2,9.83E2,9.04E2,9.09E2,9.09E2,7.17E2,8.77E2,6.96E2,7.81E2,5.22E2],"tree_param":{"num_deleted":"0","num_feature":"245","num_nodes":"29","size_leaf_vector":"1"}},{"base_weights":[6.689131E-4,-7.11207E-2,2.6112533E-1,-8.557848E-2,3.1832106E-2,1.6905737E-1,3.561259E-1,-4.399567E-3,-4.4600826E-2,2.9820462E-3,5.9109073E-2,1.2318967E-1,2.0768772E-1,1.5006E-2,4.0774545E-1,-2.9237885E-3,-1.7693101E-3,-6.658428E-4,5.8507296E-4,2.0668134E-3,3.5532021E-3,5.2907504E-3,7.0719863E-3,9.2630945E-3,1.1648598E-2,1.8868519E-2,2.266256E-2],"categories":[],"categories_nodes":[],"categories_segments":[],"categories_sizes":[],"default_left":[0,0,0,0,0,0,0,0,0,0,0,0,0,0,0,0,0,0,0,0,0,0,0,0,0,0,0],"id":13,"left_children":[1,3,5,7,9,11,13,-1,15,17,19,21,23,-1,25,-1,-1,-1,-1,-1,-1,-1,-1,-1,-1,-1,-1],"loss_changes":[5.6786285E2,3.5483025E1,5.669754E1,1.9197083E0,2.238399E0,5.51754E0,8.239807E0,0E0,5.207467E-2,2.0378458E-1,1.9430923E-1,1.9869995E-1,4.723587E-1,0E0,9.4937134E-1,0E0,0E0,0E0,0E0,0E0,0E0,0E0,0E0,0E0,0E0,0E0,0E0],"parents":[2147483647,0,0,1,1,2,2,3,3,4,4,5,5,6,6,8,8,9,9,10,10,11,11,12,12,14,14],"right_children":[2,4,6,8,10,12,14,-1,16,18,20,22,24,-1,26,-1,-1,-1,-1,-1,-1,-1,-1,-1,-1,-1,-1],"split_conditions":[5.454631E0,5.220356E0,5.8261623E0,5.117994E0,5.327876E0,5.613128E0,6.011267E0,-4.399567E-3,5.154388E0,5.2566485E0,5.389072E0,5.529429E0,5.7170277E0,1.5006E-2,6.1717005E0,-2.9237885E-3,-1.7693101E-3,-6.658428E-4,5.8507296E-4,2.0668134E-3,3.5532021E-3,5.2907504E-3,7.0719863E-3,9.2630945E-3,1.1648598E-2,1.8868519E-2,2.266256E-2],"split_indices":[17,17,17,17,17,17,17,0,17,17,17,17,17,0,17,0,0,0,0,0,0,0,0,0,0,0,0],"split_type":[0,0,0,0,0,0,0,0,0,0,0,0,0,0,0,0,0,0,0,0,0,0,0,0,0,0,0],"sum_hessian":[3.0354E4,2.3794E4,6.56E3,2.0873E4,2.921E3,3.341E3,3.219E3,1.9686E4,1.187E3,1.439E3,1.482E3,1.545E3,1.796E3,1.563E3,1.656E3,4.24E2,7.63E2,4.61E2,9.78E2,6.35E2,8.47E2,8.3E2,7.15E2,9.86E2,8.1E2,1.023E3,6.33E2],"tree_param":{"num_deleted":"0","num_feature":"245","num_nodes":"27","size_leaf_vector":"1"}},{"base_weights":[6.2598214E-5,-6.513007E-2,2.573855E-1,-8.04041E-2,4.103867E-2,1.7579955E-1,3.4580588E-1,-8.33651E-2,-3.6372863E-2,1.4244574E-2,6.9554016E-2,1.3735498E-1,2.1813898E-1,3.0782223E-1,2.0283353E-2,-4.1688327E-3,-0E0,-2.2775873E-3,-1.2173377E-3,-0E0,1.1846735E-3,2.7909118E-3,4.16048E-3,5.9261206E-3,8.081666E-3,9.781856E-3,1.1850751E-2,1.4272556E-2,1.6878536E-2],"categories":[],"categories_nodes":[],"categories_segments":[],"categories_sizes":[],"default_left":[0,0,0,0,0,0,0,0,0,0,0,0,0,0,0,0,0,0,0,0,0,0,0,0,0,0,0,0,0],"id":14,"left_children":[1,3,5,7,9,11,13,15,17,19,21,23,25,27,-1,-1,-1,-1,-1,-1,-1,-1,-1,-1,-1,-1,-1,-1,-1],"loss_changes":[5.0783765E2,3.9196915E1,4.3444824E1,2.6239166E0,2.2282786E0,4.755188E0,5.5694275E0,3.326416E-3,7.6568484E-2,2.0348468E-1,1.1882782E-1,4.373684E-1,6.66275E-2,2.9512024E-1,0E0,0E0,0E0,0E0,0E0,0E0,0E0,0E0,0E0,0E0,0E0,0E0,0E0,0E0,0E0],"parents":[2147483647,0,0,1,1,2,2,3,3,4,4,5,5,6,6,7,7,8,8,9,9,10,10,11,11,12,12,13,13],"right_children":[2,4,6,8,10,12,14,16,18,20,22,24,26,28,-1,-1,-1,-1,-1,-1,-1,-1,-1,-1,-1,-1,-1,-1,-1],"split_conditions":[5.4901147E0,5.241747E0,5.8607864E0,5.1298985E0,5.3614893E0,5.674081E0,6.089045E0,1E0,5.192957E0,5.296466E0,5.4293456E0,5.5947113E0,5.754151E0,5.986306E0,2.0283353E-2,-4.1688327E-3,-0E0,-2.2775873E-3,-1.2173377E-3,-0E0,1.1846735E-3,2.7909118E-3,4.16048E-3,5.9261206E-3,8.081666E-3,9.781856E-3,1.1850751E-2,1.4272556E-2,1.6878536E-2],"split_indices":[17,17,17,17,17,17,17,229,17,17,17,17,17,17,0,0,0,0,0,0,0,0,0,0,0,0,0,0,0],"split_type":[0,0,0,0,0,0,0,0,0,0,0,0,0,0,0,0,0,0,0,0,0,0,0,0,0,0,0,0,0],"sum_hessian":[3.0255E4,2.4138E4,6.117E3,2.1111E4,3.027E3,3.192E3,2.925E3,1.9757E4,1.354E3,1.581E3,1.446E3,1.692E3,1.5E3,1.811E3,1.114E3,1.9752E4,5E0,7.16E2,6.38E2,6.49E2,9.32E2,7.65E2,6.81E2,9.86E2,7.06E2,7.24E2,7.76E2,1.071E3,7.4E2],"tree_param":{"num_deleted":"0","num_feature":"245","num_nodes":"29","size_leaf_vector":"1"}},{"base_weights":[1.5374896E-4,-6.3337475E-2,2.384025E-1,-7.7161506E-2,3.1739984E-2,1.4911906E-1,3.1707087E-1,-7.910317E-2,-3.7414018E-2,5.0381273E-3,6.0059827E-2,5.384954E-3,1.7715493E-1,2.681782E-1,3.6879286E-1,-3.97721E-3,-2.9717868E-3,-1.8887382E-3,-0E0,-4.7215476E-4,7.4716954E-4,2.3770572E-3,3.5972937E-3,7.7323816E-3,9.604283E-3,1.2220162E-2,1.4376651E-2,1.7034274E-2,2.0551229E-2],"categories":[],"categories_nodes":[],"categories_segments":[],"categories_sizes":[],"default_left":[0,0,0,0,0,0,0,0,0,0,0,0,0,0,0,0,0,0,0,0,0,0,0,0,0,0,0,0,0],"id":15,"left_children":[1,3,5,7,9,11,13,15,17,19,21,-1,23,25,27,-1,-1,-1,-1,-1,-1,-1,-1,-1,-1,-1,-1,-1,-1],"loss_changes":[4.585898E2,3.1498703E1,4.4203735E1,1.4874344E0,2.2252574E0,3.1416397E0,7.6213074E0,1.941681E-2,1.5789986E-2,2.3270278E-1,8.630562E-2,0E0,1.5895462E-1,6.712341E-2,7.583008E-1,0E0,0E0,0E0,0E0,0E0,0E0,0E0,0E0,0E0,0E0,0E0,0E0,0E0,0E0],"parents":[2147483647,0,0,1,1,2,2,3,3,4,4,5,5,6,6,7,7,8,8,9,9,10,10,12,12,13,13,14,14],"right_children":[2,4,6,8,10,12,14,16,18,20,22,-1,24,26,28,-1,-1,-1,-1,-1,-1,-1,-1,-1,-1,-1,-1,-1,-1],"split_conditions":[5.46806E0,5.220356E0,5.79584E0,5.1416636E0,5.3423343E0,5.5947113E0,6.011267E0,5.0998664E0,2.18E2,5.273E0,5.4071717E0,5.384954E-3,5.68358E0,5.8975286E0,6.1717005E0,-3.97721E-3,-2.9717868E-3,-1.8887382E-3,-0E0,-4.7215476E-4,7.4716954E-4,2.3770572E-3,3.5972937E-3,7.7323816E-3,9.604283E-3,1.2220162E-2,1.4376651E-2,1.7034274E-2,2.0551229E-2],"split_indices":[17,17,17,17,17,17,17,17,19,17,17,0,17,17,17,0,0,0,0,0,0,0,0,0,0,0,0,0,0],"split_type":[0,0,0,0,0,0,0,0,0,0,0,0,0,0,0,0,0,0,0,0,0,0,0,0,0,0,0,0,0],"sum_hessian":[3.0299E4,2.3922E4,6.377E3,2.0895E4,3.027E3,2.997E3,3.38E3,1.9895E4,1E3,1.578E3,1.449E3,1.23E3,1.767E3,1.757E3,1.623E3,1.94E4,4.95E2,9.92E2,8E0,6E2,9.78E2,7.54E2,6.95E2,7.45E2,1.022E3,8.3E2,9.27E2,1.005E3,6.18E2],"tree_param":{"num_deleted":"0","num_feature":"245","num_nodes":"29","size_leaf_vector":"1"}},{"base_weights":[-1.6071367E-4,-5.790556E-2,2.348516E-1,-7.24403E-2,4.085456E-2,1.604398E-1,3.1140345E-1,-7.5304195E-2,-3.222786E-2,1.6669007E-2,6.8816826E-2,1.307505E-1,9.850765E-3,2.7470613E-1,1.816347E-2,-3.7657085E-3,-0E0,-2.0678553E-3,-7.651163E-6,2.4798486E-4,2.1218574E-3,2.8953732E-3,4.792809E-3,5.8498327E-3,7.841618E-3,1.2482497E-2,1.4741619E-2],"categories":[],"categories_nodes":[],"categories_segments":[],"categories_sizes":[],"default_left":[0,0,0,0,0,0,0,0,0,0,0,0,0,0,0,0,0,0,0,0,0,0,0,0,0,0,0],"id":16,"left_children":[1,3,5,7,9,11,13,15,17,19,21,23,-1,25,-1,-1,-1,-1,-1,-1,-1,-1,-1,-1,-1,-1,-1],"loss_changes":[4.0956476E2,3.4837273E1,3.328302E1,2.3198624E0,2.0095792E0,2.8863144E0,4.6280212E0,1.2741089E-3,3.7837327E-1,4.6098545E-1,2.4816418E-1,2.7988434E-1,0E0,1.101532E-1,0E0,0E0,0E0,0E0,0E0,0E0,0E0,0E0,0E0,0E0,0E0,0E0,0E0],"parents":[2147483647,0,0,1,1,2,2,3,3,4,4,5,5,6,6,7,7,8,8,9,9,10,10,11,11,13,13],"right_children":[2,4,6,8,10,12,14,16,18,20,22,24,-1,26,-1,-1,-1,-1,-1,-1,-1,-1,-1,-1,-1,-1,-1],"split_conditions":[2.4E2,1.82E2,3.37E2,1.63E2,2.1E2,2.88E2,4.24E2,1E0,5.966667E-1,5.7E-1,5.224547E-1,5.548933E-1,9.850765E-3,3.73E2,1.816347E-2,-3.7657085E-3,-0E0,-2.0678553E-3,-7.651163E-6,2.4798486E-4,2.1218574E-3,2.8953732E-3,4.792809E-3,5.8498327E-3,7.841618E-3,1.2482497E-2,1.4741619E-2],"split_indices":[4,4,4,4,4,4,4,210,12,13,12,12,0,4,0,0,0,0,0,0,0,0,0,0,0,0,0],"split_type":[0,0,0,0,0,0,0,0,0,0,0,0,0,0,0,0,0,0,0,0,0,0,0,0,0,0,0],"sum_hessian":[3.0187E4,2.4238E4,5.949E3,2.1138E4,3.1E3,3.028E3,2.921E3,1.9707E4,1.431E3,1.684E3,1.416E3,1.694E3,1.334E3,1.733E3,1.188E3,1.9702E4,5E0,1.089E3,3.42E2,1.187E3,4.97E2,1.042E3,3.74E2,1.145E3,5.49E2,8.12E2,9.21E2],"tree_param":{"num_deleted":"0","num_feature":"245","num_nodes":"27","size_leaf_vector":"1"}},{"base_weights":[1.0430093E-4,-5.5375576E-2,2.227389E-1,-6.9152705E-2,3.7396587E-2,1.5729614E-1,3.024426E-1,-7.1548864E-2,-3.2067027E-2,1.2770346E-2,6.156217E-2,1.2312442E-1,1.9461022E-1,2.7388653E-1,1.792548E-2,-3.578102E-3,-0E0,-2.057114E-3,-1.2374967E-3,2.4796065E-4,1.3048573E-3,2.5200248E-3,3.8368683E-3,5.186047E-3,7.1200416E-3,8.631346E-3,1.0564125E-2,1.2332835E-2,1.4650792E-2],"categories":[],"categories_nodes":[],"categories_segments":[],"categories_sizes":[],"default_left":[0,0,0,0,0,0,0,0,0,0,0,0,0,0,0,0,0,0,0,0,0,0,0,0,0,0,0,0,0],"id":17,"left_children":[1,3,5,7,9,11,13,15,17,19,21,23,25,27,-1,-1,-1,-1,-1,-1,-1,-1,-1,-1,-1,-1,-1,-1,-1],"loss_changes":[3.7473386E2,3.1062378E1,3.0970184E1,1.768425E0,1.7865906E0,3.8653412E0,3.4262695E0,6.6604614E-3,1.8308401E-2,1.3250884E-1,1.2532377E-1,3.6935806E-1,8.429718E-2,1.9465637E-1,0E0,0E0,0E0,0E0,0E0,0E0,0E0,0E0,0E0,0E0,0E0,0E0,0E0,0E0,0E0],"parents":[2147483647,0,0,1,1,2,2,3,3,4,4,5,5,6,6,7,7,8,8,9,9,10,10,11,11,12,12,13,13],"right_children":[2,4,6,8,10,12,14,16,18,20,22,24,26,28,-1,-1,-1,-1,-1,-1,-1,-1,-1,-1,-1,-1,-1,-1,-1],"split_conditions":[5.5022273E0,5.241747E0,5.878978E0,5.1357985E0,5.3614893E0,5.690731E0,6.126869E0,1E0,5.17615E0,5.311937E0,5.4424176E0,5.5947113E0,5.771441E0,5.9738097E0,1.792548E-2,-3.578102E-3,-0E0,-2.057114E-3,-1.2374967E-3,2.4796065E-4,1.3048573E-3,2.5200248E-3,3.8368683E-3,5.186047E-3,7.1200416E-3,8.631346E-3,1.0564125E-2,1.2332835E-2,1.4650792E-2],"split_indices":[17,17,17,17,17,17,17,43,17,17,17,17,17,17,0,0,0,0,0,0,0,0,0,0,0,0,0,0,0],"split_type":[0,0,0,0,0,0,0,0,0,0,0,0,0,0,0,0,0,0,0,0,0,0,0,0,0,0,0,0,0],"sum_hessian":[3.0319E4,2.4269E4,6.05E3,2.1141E4,3.128E3,3.334E3,2.716E3,1.983E4,1.311E3,1.572E3,1.556E3,1.761E3,1.573E3,1.823E3,8.93E2,1.9824E4,6E0,5.18E2,7.93E2,1.041E3,5.31E2,9.42E2,6.14E2,9.13E2,8.48E2,7.19E2,8.54E2,7.91E2,1.032E3],"tree_param":{"num_deleted":"0","num_feature":"245","num_nodes":"29","size_leaf_vector":"1"}},{"base_weights":[5.2523095E-4,-5.586489E-2,1.9887085E-1,-6.614302E-2,2.2212896E-2,1.2340603E-1,2.7211133E-1,-6.759345E-2,-2.8261134E-2,5.750815E-4,4.079577E-2,8.872687E-2,1.5225029E-1,1.1439843E-2,3.1576407E-1,-3.408841E-3,-2.5895676E-3,-1.4589772E-3,-0E0,-7.199789E-4,2.9750908E-4,1.4491635E-3,2.599001E-3,3.672873E-3,4.881488E-3,6.760824E-3,8.322998E-3,1.4797811E-2,1.8216923E-2],"categories":[],"categories_nodes":[],"categories_segments":[],"categories_sizes":[],"default_left":[0,0,0,0,0,0,0,0,0,0,0,0,0,0,0,0,0,0,0,0,0,0,0,0,0,0,0,0,0],"id":18,"left_children":[1,3,5,7,9,11,13,15,17,19,21,23,25,-1,27,-1,-1,-1,-1,-1,-1,-1,-1,-1,-1,-1,-1,-1,-1],"loss_changes":[3.3917444E2,1.898558E1,3.661255E1,1.0448456E0,1.0586845E0,3.038475E0,5.6636353E0,5.44281E-2,2.2620022E-2,9.5801085E-2,1.0568595E-1,1.5388489E-2,6.454468E-2,0E0,6.2590027E-1,0E0,0E0,0E0,0E0,0E0,0E0,0E0,0E0,0E0,0E0,0E0,0E0,0E0,0E0],"parents":[2147483647,0,0,1,1,2,2,3,3,4,4,5,5,6,6,7,7,8,8,9,9,10,10,11,11,12,12,14,14],"right_children":[2,4,6,8,10,12,14,16,18,20,22,24,26,-1,28,-1,-1,-1,-1,-1,-1,-1,-1,-1,-1,-1,-1,-1,-1],"split_conditions":[5.4424176E0,5.220356E0,5.79584E0,5.1532917E0,5.311937E0,5.5947113E0,6.011267E0,5.088281E0,-7.376936E1,5.247024E0,5.3845387E0,5.5022273E0,5.690731E0,1.1439843E-2,6.206576E0,-3.408841E-3,-2.5895676E-3,-1.4589772E-3,-0E0,-7.199789E-4,2.9750908E-4,1.4491635E-3,2.599001E-3,3.672873E-3,4.881488E-3,6.760824E-3,8.322998E-3,1.4797811E-2,1.8216923E-2],"split_indices":[17,17,17,17,17,17,17,17,3,17,17,17,17,0,17,0,0,0,0,0,0,0,0,0,0,0,0,0,0],"split_type":[0,0,0,0,0,0,0,0,0,0,0,0,0,0,0,0,0,0,0,0,0,0,0,0,0,0,0,0,0],"sum_hessian":[3.0306E4,2.3595E4,6.711E3,2.0862E4,2.733E3,3.316E3,3.395E3,2.0065E4,7.97E2,1.289E3,1.444E3,1.527E3,1.789E3,1.725E3,1.67E3,1.928E4,7.85E2,7.74E2,2.3E1,2.9E2,9.99E2,7.51E2,6.93E2,6.14E2,9.13E2,8.6E2,9.29E2,1.216E3,4.54E2],"tree_param":{"num_deleted":"0","num_feature":"245","num_nodes":"29","size_leaf_vector":"1"}},{"base_weights":[5.2571217E-5,-4.9982127E-2,2.0114388E-1,-6.2159225E-2,3.397067E-2,1.4048062E-1,2.7262565E-1,-6.42837E-2,-2.327309E-2,1.1628022E-2,5.610229E-2,1.1094876E-1,1.731631E-1,1.2238717E-2,1.5990762E-2,-3.2417194E-3,-2.4606735E-3,-1.1772738E-3,-0E0,-0E0,9.4178406E-4,2.2470115E-3,3.3778758E-3,4.6356167E-3,6.4376863E-3,7.7519673E-3,9.47344E-3],"categories":[],"categories_nodes":[],"categories_segments":[],"categories_sizes":[],"default_left":[0,0,0,0,0,0,0,0,0,0,0,0,0,0,0,0,0,0,0,0,0,0,0,0,0,0,0],"id":19,"left_children":[1,3,5,7,9,11,13,15,17,19,21,23,25,-1,-1,-1,-1,-1,-1,-1,-1,-1,-1,-1,-1,-1,-1],"loss_changes":[3.0496555E2,2.4830444E1,2.5663376E1,1.658844E0,1.4453962E0,2.8249817E0,2.8306274E0,4.294586E-2,9.937167E-3,1.1278555E-1,7.2235584E-2,3.102951E-1,2.128601E-2,0E0,0E0,0E0,0E0,0E0,0E0,0E0,0E0,0E0,0E0,0E0,0E0,0E0,0E0],"parents":[2147483647,0,0,1,1,2,2,3,3,4,4,5,5,6,6,7,7,8,8,9,9,10,10,11,11,12,12],"right_children":[2,4,6,8,10,12,14,16,18,20,22,24,26,-1,-1,-1,-1,-1,-1,-1,-1,-1,-1,-1,-1,-1,-1],"split_conditions":[5.5022273E0,5.247024E0,5.878978E0,5.1532917E0,5.3614893E0,5.690731E0,6.1114674E0,5.088281E0,1E0,5.2983174E0,5.433722E0,5.5947113E0,5.7789984E0,1.2238717E-2,1.5990762E-2,-3.2417194E-3,-2.4606735E-3,-1.1772738E-3,-0E0,-0E0,9.4178406E-4,2.2470115E-3,3.3778758E-3,4.6356167E-3,6.4376863E-3,7.7519673E-3,9.47344E-3],"split_indices":[17,17,17,17,17,17,17,17,208,17,17,17,17,0,0,0,0,0,0,0,0,0,0,0,0,0,0],"split_type":[0,0,0,0,0,0,0,0,0,0,0,0,0,0,0,0,0,0,0,0,0,0,0,0,0,0,0],"sum_hessian":[3.0289E4,2.4252E4,6.037E3,2.1191E4,3.061E3,3.278E3,2.759E3,2.0067E4,1.124E3,1.548E3,1.513E3,1.745E3,1.533E3,1.76E3,9.99E2,1.9286E4,7.81E2,1.116E3,8E0,6.42E2,9.06E2,8.18E2,6.95E2,8.99E2,8.46E2,7.7E2,7.63E2],"tree_param":{"num_deleted":"0","num_feature":"245","num_nodes":"27","size_leaf_vector":"1"}},{"base_weights":[4.644701E-4,-4.7578372E-2,1.912353E-1,-5.9282843E-2,3.3304747E-2,1.3768616E-1,2.6523915E-1,-6.1803464E-2,-3.0384947E-2,1.4023372E-2,5.568279E-2,1.10435344E-1,8.7259365E-3,1.1992826E-2,1.5472745E-2,-0E0,-3.0909365E-3,-2.1182946E-3,-1.1227544E-3,2.801059E-4,1.2809468E-3,2.7975799E-3,-0E0,4.4750404E-3,6.303524E-3],"categories":[],"categories_nodes":[],"categories_segments":[],"categories_sizes":[],"default_left":[0,0,0,0,0,0,0,0,0,0,0,0,0,0,0,0,0,0,0,0,0,0,0,0,0],"id":20,"left_children":[1,3,5,7,9,11,13,15,17,19,21,23,-1,-1,-1,-1,-1,-1,-1,-1,-1,-1,-1,-1,-1],"loss_changes":[2.769042E2,2.286427E1,2.3577621E1,1.4377289E0,1.2396486E0,3.2113876E0,2.0798187E0,5.9509277E-3,9.659219E-2,1.3054368E-1,2.5818348E-2,4.245186E-1,0E0,0E0,0E0,0E0,0E0,0E0,0E0,0E0,0E0,0E0,0E0,0E0,0E0],"parents":[2147483647,0,0,1,1,2,2,3,3,4,4,5,5,6,6,7,7,8,8,9,9,10,10,11,11],"right_children":[2,4,6,8,10,12,14,16,18,20,22,24,-1,-1,-1,-1,-1,-1,-1,-1,-1,-1,-1,-1,-1],"split_conditions":[5.5022273E0,5.247024E0,5.9053617E0,5.1033664E0,5.379897E0,5.7124324E0,6.126869E0,1E0,5.1532917E0,5.3176236E0,1E0,5.5947113E0,8.7259365E-3,1.1992826E-2,1.5472745E-2,-0E0,-3.0909365E-3,-2.1182946E-3,-1.1227544E-3,2.801059E-4,1.2809468E-3,2.7975799E-3,-0E0,4.4750404E-3,6.303524E-3],"split_indices":[17,17,17,17,17,17,17,19,17,17,185,17,0,0,0,0,0,0,0,0,0,0,0,0,0],"split_type":[0,0,0,0,0,0,0,0,0,0,0,0,0,0,0,0,0,0,0,0,0,0,0,0,0],"sum_hessian":[3.0191E4,2.4115E4,6.076E3,2.1078E4,3.037E3,3.538E3,2.538E3,1.9352E4,1.726E3,1.658E3,1.379E3,2.056E3,1.482E3,1.639E3,8.99E2,8E0,1.9344E4,6.32E2,1.094E3,1.013E3,6.45E2,1.374E3,5E0,9.15E2,1.141E3],"tree_param":{"num_deleted":"0","num_feature":"245","num_nodes":"25","size_leaf_vector":"1"}},{"base_weights":[4.7969425E-4,-4.553924E-2,1.7951135E-1,-5.6379613E-2,2.7716415E-2,1.2374919E-1,2.4487466E-1,-5.8057938E-2,-2.0923752E-2,5.675857E-3,4.589366E-2,9.65246E-2,1.5327781E-1,2.2182894E-1,1.4615818E-2,-2.9305115E-3,-2.1662544E-3,-1.1561627E-3,-9.8964425E-5,-3.7876274E-5,6.2777696E-4,1.6737117E-3,2.7934506E-3,3.6094717E-3,5.35806E-3,6.546601E-3,8.31361E-3,9.942091E-3,1.196112E-2],"categories":[],"categories_nodes":[],"categories_segments":[],"categories_sizes":[],"default_left":[0,0,0,0,0,0,0,0,1,0,0,0,0,0,0,0,0,0,0,0,0,0,0,0,0,0,0,0,0],"id":21,"left_children":[1,3,5,7,9,11,13,15,17,19,21,23,25,27,-1,-1,-1,-1,-1,-1,-1,-1,-1,-1,-1,-1,-1,-1,-1],"loss_changes":[2.4818896E2,1.9050098E1,2.1996094E1,1.1594543E0,1.1804078E0,2.390049E0,2.3799744E0,5.2375793E-2,1.538682E-2,7.463096E-2,1.1082482E-1,2.5378227E-1,9.597778E-2,1.90094E-1,0E0,0E0,0E0,0E0,0E0,0E0,0E0,0E0,0E0,0E0,0E0,0E0,0E0,0E0,0E0],"parents":[2147483647,0,0,1,1,2,2,3,3,4,4,5,5,6,6,7,7,8,8,9,9,10,10,11,11,12,12,13,13],"right_children":[2,4,6,8,10,12,14,16,18,20,22,24,26,28,-1,-1,-1,-1,-1,-1,-1,-1,-1,-1,-1,-1,-1,-1,-1],"split_conditions":[5.4901147E0,5.230092E0,5.866468E0,5.1532917E0,5.3423343E0,5.68358E0,6.126869E0,5.088281E0,1.82E0,5.293305E0,5.411646E0,5.5373344E0,5.7400613E0,5.9738097E0,1.4615818E-2,-2.9305115E-3,-2.1662544E-3,-1.1561627E-3,-9.8964425E-5,-3.7876274E-5,6.2777696E-4,1.6737117E-3,2.7934506E-3,3.6094717E-3,5.35806E-3,6.546601E-3,8.31361E-3,9.942091E-3,1.196112E-2],"split_indices":[17,17,17,17,17,17,17,17,7,17,17,17,17,17,0,0,0,0,0,0,0,0,0,0,0,0,0,0,0],"split_type":[0,0,0,0,0,0,0,0,0,0,0,0,0,0,0,0,0,0,0,0,0,0,0,0,0,0,0,0,0],"sum_hessian":[3.0102E4,2.3944E4,6.158E3,2.087E4,3.074E3,3.336E3,2.822E3,1.9898E4,9.72E2,1.416E3,1.658E3,1.76E3,1.576E3,1.925E3,8.97E2,1.9105E4,7.93E2,8.23E2,1.49E2,6.58E2,7.58E2,7.89E2,8.69E2,5.71E2,1.189E3,6.2E2,9.56E2,8.7E2,1.055E3],"tree_param":{"num_deleted":"0","num_feature":"245","num_nodes":"29","size_leaf_vector":"1"}},{"base_weights":[6.3508126E-4,-4.5614105E-2,1.6309375E-1,-5.36736E-2,1.966563E-2,1.05114E-1,2.2633687E-1,-5.543214E-2,-2.7395003E-2,3.228631E-3,3.4235403E-2,7.392855E-2,1.2835541E-1,9.485233E-3,2.592478E-1,-2.7730404E-3,-0E0,-1.3962047E-3,-0E0,-9.004454E-6,6.388728E-4,-0E0,1.7453792E-3,-0E0,3.7134064E-3,5.7311933E-3,7.2840983E-3,1.2051514E-2,1.5050933E-2],"categories":[],"categories_nodes":[],"categories_segments":[],"categories_sizes":[],"default_left":[0,0,0,0,0,0,0,0,0,0,0,0,0,0,0,0,0,0,0,0,0,0,0,0,0,0,0,0,0],"id":22,"left_children":[1,3,5,7,9,11,13,15,17,19,21,23,25,-1,27,-1,-1,-1,-1,-1,-1,-1,-1,-1,-1,-1,-1,-1,-1],"loss_changes":[2.274331E2,1.2424709E1,2.4197876E1,8.817749E-1,5.7911336E-1,2.3161736E0,3.259018E0,1.007843E-2,1.7884612E-2,5.3160664E-2,2.66155E-2,3.2668114E-2,1.6329575E-1,0E0,5.050049E-1,0E0,0E0,0E0,0E0,0E0,0E0,0E0,0E0,0E0,0E0,0E0,0E0,0E0,0E0],"parents":[2147483647,0,0,1,1,2,2,3,3,4,4,5,5,6,6,7,7,8,8,9,9,10,10,11,11,12,12,14,14],"right_children":[2,4,6,8,10,12,14,16,18,20,22,24,26,-1,28,-1,-1,-1,-1,-1,-1,-1,-1,-1,-1,-1,-1,-1,-1],"split_conditions":[5.4424176E0,5.230092E0,5.8261623E0,5.117994E0,5.3226366E0,5.5947113E0,6.011267E0,1E0,-7.376936E1,1.99E2,-7.401145E1,2.1E2,5.7124324E0,9.485233E-3,6.206576E0,-2.7730404E-3,-0E0,-1.3962047E-3,-0E0,-9.004454E-6,6.388728E-4,-0E0,1.7453792E-3,-0E0,3.7134064E-3,5.7311933E-3,7.2840983E-3,1.2051514E-2,1.5050933E-2],"split_indices":[17,17,17,17,17,17,17,187,3,4,3,4,17,0,17,0,0,0,0,0,0,0,0,0,0,0,0,0,0],"split_type":[0,0,0,0,0,0,0,0,0,0,0,0,0,0,0,0,0,0,0,0,0,0,0,0,0,0,0,0,0],"sum_hessian":[3.0248E4,2.3542E4,6.706E3,2.0969E4,2.573E3,3.511E3,3.195E3,1.9615E4,1.354E3,1.243E3,1.33E3,1.523E3,1.988E3,1.536E3,1.659E3,1.9598E4,1.7E1,1.326E3,2.8E1,8.41E2,4.02E2,2.9E1,1.301E3,8E0,1.515E3,1.154E3,8.34E2,1.186E3,4.73E2],"tree_param":{"num_deleted":"0","num_feature":"245","num_nodes":"29","size_leaf_vector":"1"}},{"base_weights":[-5.7517464E-6,-4.3281112E-2,1.5447049E-1,-5.1834106E-2,1.3003125E-2,9.5873065E-2,2.1085256E-1,-5.2903965E-2,-3.2634374E-2,-1.7875483E-3,3.2741733E-2,6.961444E-2,5.930894E-3,8.71345E-3,2.4260002E-1,-2.6456905E-3,-0E0,-1.6679056E-3,-0E0,-7.4131193E-4,2.4962644E-4,-0E0,1.6668442E-3,3.024379E-3,4.1745827E-3,1.1251892E-2,1.3977277E-2],"categories":[],"categories_nodes":[],"categories_segments":[],"categories_sizes":[],"default_left":[0,0,0,0,0,0,0,0,0,0,0,0,0,0,0,0,0,0,0,0,0,0,0,0,0,0,0],"id":23,"left_children":[1,3,5,7,9,11,13,15,17,19,21,23,-1,-1,25,-1,-1,-1,-1,-1,-1,-1,-1,-1,-1,-1,-1],"loss_changes":[2.0361464E2,1.1503437E1,2.1649445E1,3.3419037E-1,9.4434094E-1,1.74716E0,3.3877563E0,6.351471E-3,2.817142E-2,1.6582245E-1,2.2720575E-2,3.7312984E-2,0E0,0E0,4.681244E-1,0E0,0E0,0E0,0E0,0E0,0E0,0E0,0E0,0E0,0E0,0E0,0E0],"parents":[2147483647,0,0,1,1,2,2,3,3,4,4,5,5,6,6,7,7,8,8,9,9,10,10,11,11,14,14],"right_children":[2,4,6,8,10,12,14,16,18,20,22,24,-1,-1,26,-1,-1,-1,-1,-1,-1,-1,-1,-1,-1,-1,-1],"split_conditions":[5.4424176E0,5.198124E0,5.79584E0,5.0998664E0,5.32301E0,5.6013823E0,5.9939613E0,1E0,-7.376936E1,5.247024E0,-7.401145E1,5.529429E0,5.930894E-3,8.71345E-3,6.1923623E0,-2.6456905E-3,-0E0,-1.6679056E-3,-0E0,-7.4131193E-4,2.4962644E-4,-0E0,1.6668442E-3,3.024379E-3,4.1745827E-3,1.1251892E-2,1.3977277E-2],"split_indices":[17,17,17,17,17,17,17,229,3,17,3,17,0,0,17,0,0,0,0,0,0,0,0,0,0,0,0],"split_type":[0,0,0,0,0,0,0,0,0,0,0,0,0,0,0,0,0,0,0,0,0,0,0,0,0,0,0],"sum_hessian":[3.0469E4,2.3808E4,6.661E3,2.0683E4,3.125E3,3.279E3,3.382E3,1.9537E4,1.146E3,1.759E3,1.366E3,1.548E3,1.731E3,1.595E3,1.787E3,1.9532E4,5E0,1.122E3,2.4E1,6.51E2,1.108E3,2.8E1,1.338E3,9.87E2,5.61E2,1.244E3,5.43E2],"tree_param":{"num_deleted":"0","num_feature":"245","num_nodes":"27","size_leaf_vector":"1"}},{"base_weights":[3.9990162E-4,-3.8511895E-2,1.5551913E-1,-4.8139308E-2,2.6943682E-2,1.11186564E-1,2.1566606E-1,-4.9682446E-2,-1.8728023E-2,9.8463455E-3,4.384762E-2,8.509412E-2,1.3696265E-1,9.750987E-3,1.2653181E-2,-2.5084924E-3,-1.8350624E-3,-9.6656673E-4,-0E0,-0E0,7.108278E-4,1.5959813E-3,2.4762005E-3,3.4766987E-3,4.8306766E-3,5.844927E-3,7.3995995E-3],"categories":[],"categories_nodes":[],"categories_segments":[],"categories_sizes":[],"default_left":[0,0,0,0,0,0,0,0,0,0,0,0,0,0,0,0,0,0,0,0,0,0,0,0,0,0,0],"id":24,"left_children":[1,3,5,7,9,11,13,15,17,19,21,23,25,-1,-1,-1,-1,-1,-1,-1,-1,-1,-1,-1,-1,-1,-1],"loss_changes":[1.8259627E2,1.52524605E1,1.5781311E1,8.8552856E-1,8.371918E-1,2.1029968E0,1.3820343E0,3.4111023E-2,1.3397545E-2,6.282501E-2,1.6865492E-2,1.3113976E-1,6.847763E-2,0E0,0E0,0E0,0E0,0E0,0E0,0E0,0E0,0E0,0E0,0E0,0E0,0E0,0E0],"parents":[2147483647,0,0,1,1,2,2,3,3,4,4,5,5,6,6,7,7,8,8,9,9,10,10,11,11,12,12],"right_children":[2,4,6,8,10,12,14,16,18,20,22,24,26,-1,-1,-1,-1,-1,-1,-1,-1,-1,-1,-1,-1,-1,-1],"split_conditions":[5.5022273E0,5.241747E0,5.8975286E0,5.1532917E0,5.3614893E0,5.690731E0,6.126869E0,5.088281E0,-7.376936E1,5.2846746E0,5.411646E0,5.576782E0,5.7576423E0,9.750987E-3,1.2653181E-2,-2.5084924E-3,-1.8350624E-3,-9.6656673E-4,-0E0,-0E0,7.108278E-4,1.5959813E-3,2.4762005E-3,3.4766987E-3,4.8306766E-3,5.844927E-3,7.3995995E-3],"split_indices":[17,17,17,17,17,17,17,17,3,17,17,17,17,0,0,0,0,0,0,0,0,0,0,0,0,0,0],"split_type":[0,0,0,0,0,0,0,0,0,0,0,0,0,0,0,0,0,0,0,0,0,0,0,0,0,0,0],"sum_hessian":[3.0226E4,2.4161E4,6.065E3,2.1077E4,3.084E3,3.506E3,2.559E3,1.9992E4,1.085E3,1.565E3,1.519E3,1.768E3,1.738E3,1.678E3,8.81E2,1.9186E4,8.06E2,1.054E3,3.1E1,5.05E2,1.06E3,5.53E2,9.66E2,7.98E2,9.7E2,6.61E2,1.077E3],"tree_param":{"num_deleted":"0","num_feature":"245","num_nodes":"27","size_leaf_vector":"1"}},{"base_weights":[1.794876E-4,-3.9340902E-2,1.3904062E-1,-4.713698E-2,1.0561089E-2,9.271553E-2,1.9871716E-1,-4.7935884E-2,-3.0688649E-2,-3.7565995E-3,2.7343454E-2,6.464736E-2,1.1559372E-1,8.582227E-3,2.307412E-1,-2.39808E-3,-0E0,-1.5730761E-3,-0E0,-6.481057E-4,9.620937E-5,6.0837873E-4,1.5733553E-3,2.7288909E-3,3.8883537E-3,4.973396E-3,6.5079713E-3,1.0849727E-2,1.3794838E-2],"categories":[],"categories_nodes":[],"categories_segments":[],"categories_sizes":[],"default_left":[0,0,0,0,0,0,0,0,0,0,0,0,0,0,0,0,0,0,0,0,0,0,0,0,0,0,0,0,0],"id":25,"left_children":[1,3,5,7,9,11,13,15,17,19,21,23,25,-1,27,-1,-1,-1,-1,-1,-1,-1,-1,-1,-1,-1,-1,-1,-1],"loss_changes":[1.6552527E2,9.164944E0,1.8131363E1,1.8382645E-1,7.8199315E-1,2.2233772E0,2.000824E0,1.0799408E-2,2.6594162E-2,9.860157E-2,4.8148036E-2,8.254671E-2,2.1492195E-1,0E0,1.388092E-1,0E0,0E0,0E0,0E0,0E0,0E0,0E0,0E0,0E0,0E0,0E0,0E0,0E0,0E0],"parents":[2147483647,0,0,1,1,2,2,3,3,4,4,5,5,6,6,7,7,8,8,9,9,10,10,11,11,12,12,14,14],"right_children":[2,4,6,8,10,12,14,16,18,20,22,24,26,-1,28,-1,-1,-1,-1,-1,-1,-1,-1,-1,-1,-1,-1,-1,-1],"split_conditions":[5.4424176E0,5.187386E0,5.8607864E0,5.1033664E0,5.3082676E0,5.613128E0,6.0576863E0,1E0,-7.376936E1,5.247024E0,5.3471074E0,5.529429E0,5.7170277E0,8.582227E-3,6.234927E0,-2.39808E-3,-0E0,-1.5730761E-3,-0E0,-6.481057E-4,9.620937E-5,6.0837873E-4,1.5733553E-3,2.7288909E-3,3.8883537E-3,4.973396E-3,6.5079713E-3,1.0849727E-2,1.3794838E-2],"split_indices":[17,17,17,17,17,17,17,138,3,17,17,17,17,0,17,0,0,0,0,0,0,0,0,0,0,0,0,0,0],"split_type":[0,0,0,0,0,0,0,0,0,0,0,0,0,0,0,0,0,0,0,0,0,0,0,0,0,0,0,0,0],"sum_hessian":[3.0138E4,2.3457E4,6.681E3,2.0305E4,3.152E3,3.775E3,2.906E3,1.9301E4,1.004E3,1.67E3,1.482E3,1.72E3,2.055E3,1.602E3,1.304E3,1.9285E4,1.6E1,9.82E2,2.2E1,7.03E2,9.67E2,3.71E2,1.111E3,1.025E3,6.95E2,1.019E3,1.036E3,1.03E3,2.74E2],"tree_param":{"num_deleted":"0","num_feature":"245","num_nodes":"29","size_leaf_vector":"1"}},{"base_weights":[3.34455E-4,-3.7336174E-2,1.3258855E-1,-4.465527E-2,1.1580238E-2,8.181796E-2,1.811826E-1,-4.5527574E-2,-2.8394336E-2,-6.592778E-4,2.8548239E-2,5.615928E-2,9.9123515E-2,7.458303E-3,2.0876043E-1,-2.2769885E-3,-0E0,-0E0,-1.446805E-3,-4.9044885E-4,2.9556084E-4,1.4525045E-3,-0E0,2.8256502E-3,-0E0,4.965388E-3,-0E0,9.671399E-3,1.210654E-2],"categories":[],"categories_nodes":[],"categories_segments":[],"categories_sizes":[],"default_left":[0,0,0,0,0,0,0,0,0,0,0,0,0,0,0,0,0,0,0,0,0,0,0,0,0,0,0,0,0],"id":26,"left_children":[1,3,5,7,9,11,13,15,17,19,21,23,25,-1,27,-1,-1,-1,-1,-1,-1,-1,-1,-1,-1,-1,-1,-1,-1],"loss_changes":[1.5084837E2,8.464302E0,1.625695E1,2.1296692E-1,6.61162E-1,1.2928982E0,2.566574E0,9.098053E-3,1.689285E-2,1.0867711E-1,2.3578048E-2,3.180647E-2,1.1865616E-2,0E0,3.510437E-1,0E0,0E0,0E0,0E0,0E0,0E0,0E0,0E0,0E0,0E0,0E0,0E0,0E0,0E0],"parents":[2147483647,0,0,1,1,2,2,3,3,4,4,5,5,6,6,7,7,8,8,9,9,10,10,11,11,12,12,14,14],"right_children":[2,4,6,8,10,12,14,16,18,20,22,24,26,-1,28,-1,-1,-1,-1,-1,-1,-1,-1,-1,-1,-1,-1,-1,-1],"split_conditions":[5.4424176E0,5.198124E0,5.79584E0,5.1033664E0,5.327876E0,5.572154E0,5.9939613E0,1E0,2.4E1,5.2566485E0,6.7E1,1E0,1E0,7.458303E-3,6.1923623E0,-2.2769885E-3,-0E0,-0E0,-1.446805E-3,-4.9044885E-4,2.9556084E-4,1.4525045E-3,-0E0,2.8256502E-3,-0E0,4.965388E-3,-0E0,9.671399E-3,1.210654E-2],"split_indices":[17,17,17,17,17,17,17,134,9,17,10,58,187,0,17,0,0,0,0,0,0,0,0,0,0,0,0,0,0],"split_type":[0,0,0,0,0,0,0,0,0,0,0,0,0,0,0,0,0,0,0,0,0,0,0,0,0,0,0,0,0],"sum_hessian":[3.0253E4,2.3542E4,6.711E3,2.0496E4,3.046E3,3.296E3,3.415E3,1.9389E4,1.107E3,1.737E3,1.309E3,1.356E3,1.94E3,1.606E3,1.809E3,1.9383E4,6E0,2.1E1,1.086E3,7.89E2,9.48E2,1.292E3,1.7E1,1.349E3,7E0,1.934E3,6E0,1.274E3,5.35E2],"tree_param":{"num_deleted":"0","num_feature":"245","num_nodes":"29","size_leaf_vector":"1"}},{"base_weights":[3.4972306E-4,-3.4272183E-2,1.2924995E-1,-4.2175245E-2,1.3301526E-2,9.221388E-2,1.8597288E-1,-4.3097533E-2,-2.7152976E-2,-3.8190826E-3,2.8303795E-2,6.9258474E-2,1.1889257E-1,8.342583E-3,1.0717198E-2,-2.1590954E-3,-0E0,-1.6529454E-3,-1.8043337E-4,-5.311949E-4,5.1532703E-4,1.0657758E-3,2.2317043E-3,2.7799313E-3,4.051385E-3,5.061439E-3,6.446101E-3],"categories":[],"categories_nodes":[],"categories_segments":[],"categories_sizes":[],"default_left":[0,0,0,0,0,0,0,0,0,0,0,0,0,0,0,0,0,0,0,0,0,0,0,0,0,0,0],"id":27,"left_children":[1,3,5,7,9,11,13,15,17,19,21,23,25,-1,-1,-1,-1,-1,-1,-1,-1,-1,-1,-1,-1,-1,-1],"loss_changes":[1.3516066E2,8.998005E0,1.3144859E1,2.0988083E-1,8.934688E-1,2.173748E0,8.785858E-1,3.1757355E-2,1.3748348E-1,1.4973147E-1,1.4049351E-1,1.910038E-1,4.568672E-2,0E0,0E0,0E0,0E0,0E0,0E0,0E0,0E0,0E0,0E0,0E0,0E0,0E0,0E0],"parents":[2147483647,0,0,1,1,2,2,3,3,4,4,5,5,6,6,7,7,8,8,9,9,10,10,11,11,12,12],"right_children":[2,4,6,8,10,12,14,16,18,20,22,24,26,-1,-1,-1,-1,-1,-1,-1,-1,-1,-1,-1,-1,-1,-1],"split_conditions":[2.3E2,1.75E2,3.57E2,1.58E2,1.99E2,2.88E2,4.39E2,3.01E2,6.007147E-1,5.224547E-1,5.224547E-1,2.52E2,3.1E2,8.342583E-3,1.0717198E-2,-2.1590954E-3,-0E0,-1.6529454E-3,-1.8043337E-4,-5.311949E-4,5.1532703E-4,1.0657758E-3,2.2317043E-3,2.7799313E-3,4.051385E-3,5.061439E-3,6.446101E-3],"split_indices":[4,4,4,4,4,4,4,6,12,12,12,4,4,0,0,0,0,0,0,0,0,0,0,0,0,0,0],"split_type":[0,0,0,0,0,0,0,0,0,0,0,0,0,0,0,0,0,0,0,0,0,0,0,0,0,0,0],"sum_hessian":[3.0259E4,2.3848E4,6.411E3,2.0469E4,3.379E3,3.894E3,2.517E3,1.9217E4,1.252E3,1.548E3,1.831E3,2.119E3,1.775E3,1.537E3,9.8E2,1.9159E4,5.8E1,9.66E2,2.86E2,1.093E3,4.55E2,1.33E3,5.01E2,1.028E3,1.091E3,6.91E2,1.084E3],"tree_param":{"num_deleted":"0","num_feature":"245","num_nodes":"27","size_leaf_vector":"1"}},{"base_weights":[1.9804972E-4,-3.1149471E-2,1.2973478E-1,-3.9433468E-2,2.3132257E-2,9.498553E-2,1.8168816E-1,-4.0808238E-2,-1.3925871E-2,7.774678E-3,3.7991118E-2,7.5015016E-2,5.8617806E-3,8.382699E-3,1.0880546E-2,-2.0416477E-3,-0E0,-7.66049E-4,-0E0,1.0949335E-4,7.5150677E-4,1.9131008E-3,-0E0,3.0493266E-3,4.228133E-3],"categories":[],"categories_nodes":[],"categories_segments":[],"categories_sizes":[],"default_left":[0,0,0,0,0,0,0,0,1,0,0,0,0,0,0,0,0,0,0,0,0,0,0,0,0],"id":28,"left_children":[1,3,5,7,9,11,13,15,17,19,21,23,-1,-1,-1,-1,-1,-1,-1,-1,-1,-1,-1,-1,-1],"loss_changes":[1.2236486E2,1.0917681E1,1.027433E1,6.8154526E-1,6.824347E-1,1.3530178E0,6.844864E-1,1.8535614E-2,1.0407388E-2,4.7838002E-2,1.674056E-2,9.292793E-2,0E0,0E0,0E0,0E0,0E0,0E0,0E0,0E0,0E0,0E0,0E0,0E0,0E0],"parents":[2147483647,0,0,1,1,2,2,3,3,4,4,5,5,6,6,7,7,8,8,9,9,10,10,11,11],"right_children":[2,4,6,8,10,12,14,16,18,20,22,24,-1,-1,-1,-1,-1,-1,-1,-1,-1,-1,-1,-1,-1],"split_conditions":[5.521461E0,5.247024E0,5.926926E0,5.1532917E0,5.3752785E0,5.7124324E0,6.1717005E0,1E0,1.99E0,5.311937E0,1E0,5.602119E0,5.8617806E-3,8.382699E-3,1.0880546E-2,-2.0416477E-3,-0E0,-7.66049E-4,-0E0,1.0949335E-4,7.5150677E-4,1.9131008E-3,-0E0,3.0493266E-3,4.228133E-3],"split_indices":[17,17,17,17,17,17,17,138,7,17,133,17,0,0,0,0,0,0,0,0,0,0,0,0,0],"split_type":[0,0,0,0,0,0,0,0,0,0,0,0,0,0,0,0,0,0,0,0,0,0,0,0,0],"sum_hessian":[3.0104E4,2.4234E4,5.87E3,2.1042E4,3.192E3,3.534E3,2.336E3,1.9927E4,1.115E3,1.605E3,1.587E3,1.893E3,1.641E3,1.712E3,6.24E2,1.9914E4,1.3E1,9.65E2,1.5E2,9.87E2,6.18E2,1.576E3,1.1E1,8.18E2,1.075E3],"tree_param":{"num_deleted":"0","num_feature":"245","num_nodes":"25","size_leaf_vector":"1"}},{"base_weights":[2.766726E-4,-3.0184822E-2,1.2008097E-1,-3.726189E-2,2.0146154E-2,8.78712E-2,1.7181449E-1,-3.8515862E-2,-1.3624393E-2,7.4247587E-3,3.463417E-2,6.512717E-2,1.0871243E-1,7.900278E-3,1.03428345E-2,-1.929777E-3,-9.7142685E-5,-6.9903495E-4,-0E0,5.0946604E-4,-2.4566301E-5,1.7427605E-3,-0E0,2.5238073E-3,3.6671888E-3,4.689898E-3,5.9410827E-3],"categories":[],"categories_nodes":[],"categories_segments":[],"categories_sizes":[],"default_left":[0,0,0,0,0,0,0,0,0,0,0,0,0,0,0,0,0,0,0,0,0,0,0,0,0,0,0],"id":29,"left_children":[1,3,5,7,9,11,13,15,17,19,21,23,25,-1,-1,-1,-1,-1,-1,-1,-1,-1,-1,-1,-1,-1,-1],"loss_changes":[1.1041538E2,8.602261E0,9.917915E0,5.730095E-1,5.017991E-1,1.6056957E0,6.689148E-1,1.7625809E-2,9.158656E-3,4.503461E-2,1.0924816E-2,8.7418556E-2,4.8707962E-2,0E0,0E0,0E0,0E0,0E0,0E0,0E0,0E0,0E0,0E0,0E0,0E0,0E0,0E0],"parents":[2147483647,0,0,1,1,2,2,3,3,4,4,5,5,6,6,7,7,8,8,9,9,10,10,11,11,12,12],"right_children":[2,4,6,8,10,12,14,16,18,20,22,24,26,-1,-1,-1,-1,-1,-1,-1,-1,-1,-1,-1,-1,-1,-1],"split_conditions":[5.4901147E0,5.247024E0,5.926926E0,5.1532917E0,5.3752785E0,5.690731E0,6.1717005E0,3.01E2,1E0,1.89E2,6.7E1,5.5558143E0,5.7868023E0,7.900278E-3,1.03428345E-2,-1.929777E-3,-9.7142685E-5,-6.9903495E-4,-0E0,5.0946604E-4,-2.4566301E-5,1.7427605E-3,-0E0,2.5238073E-3,3.6671888E-3,4.689898E-3,5.9410827E-3],"split_indices":[17,17,17,17,17,17,17,6,238,19,10,17,17,0,0,0,0,0,0,0,0,0,0,0,0,0,0],"split_type":[0,0,0,0,0,0,0,0,0,0,0,0,0,0,0,0,0,0,0,0,0,0,0,0,0,0,0],"sum_hessian":[3.0225E4,2.4093E4,6.132E3,2.1141E4,2.952E3,3.796E3,2.336E3,2.0034E4,1.107E3,1.611E3,1.341E3,1.844E3,1.952E3,1.708E3,6.28E2,1.9963E4,7.1E1,1.098E3,9E0,1.287E3,3.24E2,1.333E3,8E0,7.14E2,1.13E3,8.41E2,1.111E3],"tree_param":{"num_deleted":"0","num_feature":"245","num_nodes":"27","size_leaf_vector":"1"}},{"base_weights":[3.6317584E-4,-2.919502E-2,1.10897854E-1,-3.602798E-2,1.11104455E-2,7.935957E-2,1.599598E-1,-3.673172E-2,-2.32907E-2,-5.9872884E-3,2.1434419E-2,5.708245E-2,9.95171E-2,7.1797906E-3,9.223214E-3,-1.8379409E-3,-0E0,-1.3885634E-3,-2.4059862E-4,-6.420123E-4,3.8473908E-4,7.640129E-4,1.8133806E-3,2.3054795E-3,3.447105E-3,4.220293E-3,5.424395E-3],"categories":[],"categories_nodes":[],"categories_segments":[],"categories_sizes":[],"default_left":[0,0,0,0,0,0,0,0,0,0,0,0,0,0,0,0,0,0,0,0,0,0,0,0,0,0,0],"id":30,"left_children":[1,3,5,7,9,11,13,15,17,19,21,23,25,-1,-1,-1,-1,-1,-1,-1,-1,-1,-1,-1,-1,-1,-1],"loss_changes":[9.892112E1,6.597849E0,9.610039E0,1.2049484E-1,6.2304914E-1,1.5812511E0,5.8893967E-1,1.9472122E-2,6.239587E-2,1.2367657E-1,1.4597535E-1,1.2097454E-1,5.401039E-2,0E0,0E0,0E0,0E0,0E0,0E0,0E0,0E0,0E0,0E0,0E0,0E0,0E0,0E0],"parents":[2147483647,0,0,1,1,2,2,3,3,4,4,5,5,6,6,7,7,8,8,9,9,10,10,11,11,12,12],"right_children":[2,4,6,8,10,12,14,16,18,20,22,24,26,-1,-1,-1,-1,-1,-1,-1,-1,-1,-1,-1,-1,-1,-1],"split_conditions":[2.3E2,1.74E2,3.57E2,1.58E2,1.93E2,2.79E2,4.39E2,1E0,6.007147E-1,5.224547E-1,5.7E-1,2.52E2,3.04E2,7.1797906E-3,9.223214E-3,-1.8379409E-3,-0E0,-1.3885634E-3,-2.4059862E-4,-6.420123E-4,3.8473908E-4,7.640129E-4,1.8133806E-3,2.3054795E-3,3.447105E-3,4.220293E-3,5.424395E-3],"split_indices":[4,4,4,4,4,4,4,138,12,12,13,4,4,0,0,0,0,0,0,0,0,0,0,0,0,0,0],"split_type":[0,0,0,0,0,0,0,0,0,0,0,0,0,0,0,0,0,0,0,0,0,0,0,0,0,0,0],"sum_hessian":[3.0246E4,2.3859E4,6.387E3,2.0422E4,3.437E3,3.905E3,2.482E3,1.9273E4,1.149E3,1.258E3,2.179E3,1.884E3,2.021E3,1.525E3,9.57E2,1.9259E4,1.4E1,8.8E2,2.69E2,8.87E2,3.71E2,1.592E3,5.87E2,1.03E3,8.54E2,8.06E2,1.215E3],"tree_param":{"num_deleted":"0","num_feature":"245","num_nodes":"27","size_leaf_vector":"1"}},{"base_weights":[2.2844694E-4,-2.780035E-2,1.0517511E-1,-3.3932213E-2,1.3612767E-2,7.078411E-2,1.4485678E-1,-3.4861192E-2,-1.6564438E-2,1.2895602E-3,2.668896E-2,5.176329E-2,8.61353E-2,6.0880687E-3,1.647593E-1,-1.7461985E-3,-0E0,-1.0956097E-3,-0E0,-1.3602209E-4,6.8951474E-4,1.0251346E-3,2.0154098E-3,2.2161657E-3,3.4206961E-3,4.316588E-3,-0E0,7.543947E-3,9.217136E-3],"categories":[],"categories_nodes":[],"categories_segments":[],"categories_sizes":[],"default_left":[0,0,0,0,0,0,0,0,0,0,0,0,0,0,0,0,0,0,0,0,0,0,0,0,0,0,0,0,0],"id":31,"left_children":[1,3,5,7,9,11,13,15,17,19,21,23,25,-1,27,-1,-1,-1,-1,-1,-1,-1,-1,-1,-1,-1,-1,-1,-1],"loss_changes":[8.931448E1,6.0997505E0,8.490356E0,2.8356552E-1,4.6629775E-1,8.5580635E-1,1.0120354E0,9.69696E-3,9.361422E-2,9.248997E-2,5.879128E-2,7.352495E-2,2.626133E-2,0E0,4.3029785E-3,0E0,0E0,0E0,0E0,0E0,0E0,0E0,0E0,0E0,0E0,0E0,0E0,0E0,0E0],"parents":[2147483647,0,0,1,1,2,2,3,3,4,4,5,5,6,6,7,7,8,8,9,9,10,10,11,11,12,12,14,14],"right_children":[2,4,6,8,10,12,14,16,18,20,22,24,26,-1,28,-1,-1,-1,-1,-1,-1,-1,-1,-1,-1,-1,-1,-1,-1],"split_conditions":[2.3E2,1.8E2,3.37E2,1.63E2,2.01E2,2.7E2,4E2,3.01E2,5.966667E-1,5.548933E-1,4.9734943E-2,9.7E-1,1E0,6.0880687E-3,4.65E2,-1.7461985E-3,-0E0,-1.0956097E-3,-0E0,-1.3602209E-4,6.8951474E-4,1.0251346E-3,2.0154098E-3,2.2161657E-3,3.4206961E-3,4.316588E-3,-0E0,7.543947E-3,9.217136E-3],"split_indices":[4,4,4,4,4,4,4,6,12,12,23,13,108,0,4,0,0,0,0,0,0,0,0,0,0,0,0,0,0],"split_type":[0,0,0,0,0,0,0,0,0,0,0,0,0,0,0,0,0,0,0,0,0,0,0,0,0,0,0,0,0],"sum_hessian":[3.0331E4,2.3932E4,6.399E3,2.0867E4,3.065E3,3.446E3,2.953E3,1.975E4,1.117E3,1.619E3,1.446E3,1.574E3,1.872E3,1.4E3,1.553E3,1.9687E4,6.3E1,8.32E2,2.85E2,1.167E3,4.52E2,1.05E3,3.96E2,1.137E3,4.37E2,1.867E3,5E0,9.54E2,5.99E2],"tree_param":{"num_deleted":"0","num_feature":"245","num_nodes":"29","size_leaf_vector":"1"}},{"base_weights":[2.1027497E-4,-2.6940737E-2,9.8824E-2,-3.244251E-2,8.315263E-3,6.274926E-2,1.3390914E-1,-3.2971192E-2,-1.766997E-2,-5.250926E-3,1.7974062E-2,4.426031E-2,7.507906E-2,5.6460816E-3,1.5589064E-1,-1.6500812E-3,-0E0,-1.1073746E-3,-0E0,-5.206586E-4,2.511094E-4,6.2743743E-4,1.5005369E-3,1.878294E-3,3.0276554E-3,3.7620307E-3,-0E0,7.1360073E-3,8.75181E-3],"categories":[],"categories_nodes":[],"categories_segments":[],"categories_sizes":[],"default_left":[0,0,0,0,0,0,0,0,0,0,0,0,0,0,0,0,0,0,0,0,0,0,0,0,0,0,0,0,0],"id":32,"left_children":[1,3,5,7,9,11,13,15,17,19,21,23,25,-1,27,-1,-1,-1,-1,-1,-1,-1,-1,-1,-1,-1,-1,-1,-1],"loss_changes":[8.148009E1,4.647835E0,8.09623E0,1.0881615E-1,4.31657E-1,6.1385727E-1,1.2077065E0,1.2645721E-2,4.9698487E-2,7.385352E-2,8.103895E-2,4.164815E-2,1.829338E-2,0E0,7.724762E-3,0E0,0E0,0E0,0E0,0E0,0E0,0E0,0E0,0E0,0E0,0E0,0E0,0E0,0E0],"parents":[2147483647,0,0,1,1,2,2,3,3,4,4,5,5,6,6,7,7,8,8,9,9,10,10,11,11,12,12,14,14],"right_children":[2,4,6,8,10,12,14,16,18,20,22,24,26,-1,28,-1,-1,-1,-1,-1,-1,-1,-1,-1,-1,-1,-1,-1,-1],"split_conditions":[2.27E2,1.75E2,3.2E2,1.63E2,1.95E2,2.56E2,4E2,1E0,5.907785E-1,5.224547E-1,5.7E-1,9.7E-1,1E0,5.6460816E-3,4.65E2,-1.6500812E-3,-0E0,-1.1073746E-3,-0E0,-5.206586E-4,2.511094E-4,6.2743743E-4,1.5005369E-3,1.878294E-3,3.0276554E-3,3.7620307E-3,-0E0,7.1360073E-3,8.75181E-3],"split_indices":[4,4,4,4,4,4,4,54,12,12,13,13,187,0,4,0,0,0,0,0,0,0,0,0,0,0,0,0,0],"split_type":[0,0,0,0,0,0,0,0,0,0,0,0,0,0,0,0,0,0,0,0,0,0,0,0,0,0,0,0,0],"sum_hessian":[3.0399E4,2.383E4,6.569E3,2.0638E4,3.192E3,3.257E3,3.312E3,1.9856E4,7.82E2,1.285E3,1.907E3,1.341E3,1.916E3,1.727E3,1.585E3,1.9831E4,2.5E1,5.98E2,1.84E2,9.2E2,3.65E2,1.376E3,5.31E2,1.001E3,3.4E2,1.911E3,5E0,9.85E2,6E2],"tree_param":{"num_deleted":"0","num_feature":"245","num_nodes":"29","size_leaf_vector":"1"}},{"base_weights":[2.3703073E-4,-2.5902098E-2,9.293974E-2,-3.0999077E-2,7.7893566E-3,6.682191E-2,1.407243E-1,-3.1368114E-2,-1.1289221E-2,-2.455039E-3,1.9923039E-2,4.6043172E-2,8.598715E-2,6.63241E-3,9.301341E-3,-1.5696891E-3,-0E0,-0E0,-6.8030914E-4,-2.9159605E-4,1.8069056E-4,-0E0,1.0774637E-3,1.776783E-3,2.708005E-3,3.7083533E-3,4.7428906E-3],"categories":[],"categories_nodes":[],"categories_segments":[],"categories_sizes":[],"default_left":[0,0,0,0,0,0,0,0,0,0,0,0,0,0,0,0,0,0,0,0,0,0,0,0,0,0,0],"id":33,"left_children":[1,3,5,7,9,11,13,15,17,19,21,23,25,-1,-1,-1,-1,-1,-1,-1,-1,-1,-1,-1,-1,-1,-1],"loss_changes":[7.345748E1,4.0795546E0,8.0886E0,1.0568237E-1,4.0046564E-1,1.5812225E0,4.637947E-1,1.3673782E-2,1.3995927E-2,3.5645228E-2,4.658538E-2,8.4489346E-2,4.31633E-2,0E0,0E0,0E0,0E0,0E0,0E0,0E0,0E0,0E0,0E0,0E0,0E0,0E0,0E0],"parents":[2147483647,0,0,1,1,2,2,3,3,4,4,5,5,6,6,7,7,8,8,9,9,10,10,11,11,12,12],"right_children":[2,4,6,8,10,12,14,16,18,20,22,24,26,-1,-1,-1,-1,-1,-1,-1,-1,-1,-1,-1,-1,-1,-1],"split_conditions":[5.4424176E0,5.198124E0,5.926926E0,5.154388E0,5.311937E0,5.655992E0,6.2245584E0,1E0,2.9181645E-3,1.95E2,-7.399802E1,5.529429E0,5.771441E0,6.63241E-3,9.301341E-3,-1.5696891E-3,-0E0,-0E0,-6.8030914E-4,-2.9159605E-4,1.8069056E-4,-0E0,1.0774637E-3,1.776783E-3,2.708005E-3,3.7083533E-3,4.7428906E-3],"split_indices":[17,17,17,17,17,17,17,187,25,4,3,17,17,0,0,0,0,0,0,0,0,0,0,0,0,0,0],"split_type":[0,0,0,0,0,0,0,0,0,0,0,0,0,0,0,0,0,0,0,0,0,0,0,0,0,0,0],"sum_hessian":[3.0281E4,2.3614E4,6.667E3,2.0537E4,3.077E3,4.329E3,2.338E3,2.0108E4,4.29E2,1.625E3,1.452E3,2.107E3,2.222E3,2.013E3,3.25E2,2.0089E4,1.9E1,5.9E1,3.7E2,1.15E3,4.75E2,1.11E2,1.341E3,9.79E2,1.128E3,1.013E3,1.209E3],"tree_param":{"num_deleted":"0","num_feature":"245","num_nodes":"27","size_leaf_vector":"1"}},{"base_weights":[-1.4900877E-4,-2.3492385E-2,9.4229124E-2,-2.9313158E-2,1.5796082E-2,6.9031805E-2,1.3347171E-1,-3.0529827E-2,-1.6254209E-2,6.147923E-3,2.809469E-2,5.1441662E-2,8.403377E-2,6.305627E-3,9.039386E-3,-1.5283697E-3,-0E0,-8.367736E-4,-0E0,-0E0,4.983639E-4,1.4199134E-3,-0E0,2.5851557E-3,-0E0,4.209347E-3,-0E0],"categories":[],"categories_nodes":[],"categories_segments":[],"categories_sizes":[],"default_left":[0,0,0,0,0,0,0,0,0,0,0,0,0,0,0,0,0,0,0,0,0,0,0,0,0,0,0],"id":34,"left_children":[1,3,5,7,9,11,13,15,17,19,21,23,25,-1,-1,-1,-1,-1,-1,-1,-1,-1,-1,-1,-1,-1,-1],"loss_changes":[6.6674545E1,5.571371E0,5.7017136E0,2.8832245E-1,3.3486187E-1,8.2134056E-1,4.349785E-1,2.2821426E-2,2.1197557E-2,3.756123E-2,1.13989115E-2,2.5267124E-2,5.7697296E-4,0E0,0E0,0E0,0E0,0E0,0E0,0E0,0E0,0E0,0E0,0E0,0E0,0E0,0E0],"parents":[2147483647,0,0,1,1,2,2,3,3,4,4,5,5,6,6,7,7,8,8,9,9,10,10,11,11,12,12],"right_children":[2,4,6,8,10,12,14,16,18,20,22,24,26,-1,-1,-1,-1,-1,-1,-1,-1,-1,-1,-1,-1,-1,-1],"split_conditions":[5.5022273E0,5.241747E0,5.926926E0,5.088281E0,5.3845387E0,5.690731E0,6.234927E0,3.56E2,-7.375756E1,5.3033047E0,3.01E2,1E0,1E0,6.305627E-3,9.039386E-3,-1.5283697E-3,-0E0,-8.367736E-4,-0E0,-0E0,4.983639E-4,1.4199134E-3,-0E0,2.5851557E-3,-0E0,4.209347E-3,-0E0],"split_indices":[17,17,17,17,17,17,17,6,3,17,6,106,88,0,0,0,0,0,0,0,0,0,0,0,0,0,0],"split_type":[0,0,0,0,0,0,0,0,0,0,0,0,0,0,0,0,0,0,0,0,0,0,0,0,0,0,0],"sum_hessian":[3.029E4,2.4294E4,5.996E3,2.1182E4,3.112E3,3.672E3,2.324E3,1.9303E4,1.879E3,1.792E3,1.32E3,1.727E3,1.945E3,2.039E3,2.85E2,1.928E4,2.3E1,1.848E3,3.1E1,7.34E2,1.058E3,1.306E3,1.4E1,1.719E3,8E0,1.938E3,7E0],"tree_param":{"num_deleted":"0","num_feature":"245","num_nodes":"27","size_leaf_vector":"1"}},{"base_weights":[1.2961603E-4,-2.3473855E-2,8.393745E-2,-2.8113917E-2,6.531172E-3,5.378141E-2,1.1745534E-1,-2.8713439E-2,-1.628459E-2,-2.953314E-4,1.853161E-2,3.8786516E-2,6.724654E-2,1.01598695E-1,1.4100932E-1,-1.4363604E-3,-0E0,-0E0,-8.8427606E-4,-3.4463085E-4,1.5422798E-4,9.766573E-4,-0E0,1.9496102E-3,-0E0,3.3713279E-3,-0E0,5.096094E-3,-0E0,6.529075E-3,8.606113E-3],"categories":[],"categories_nodes":[],"categories_segments":[],"categories_sizes":[],"default_left":[0,0,0,0,0,0,0,0,0,0,0,0,0,0,0,0,0,0,0,0,0,0,0,0,0,0,0,0,0,0,0],"id":35,"left_children":[1,3,5,7,9,11,13,15,17,19,21,23,25,27,29,-1,-1,-1,-1,-1,-1,-1,-1,-1,-1,-1,-1,-1,-1,-1,-1],"loss_changes":[5.95693E1,3.2887735E0,6.501087E0,9.792137E-2,2.7351862E-1,5.940323E-1,8.7857056E-1,1.1124611E-2,2.115959E-2,4.7040973E-2,2.297017E-2,1.657033E-2,1.6551971E-2,1.0641098E-2,2.6008606E-2,0E0,0E0,0E0,0E0,0E0,0E0,0E0,0E0,0E0,0E0,0E0,0E0,0E0,0E0,0E0,0E0],"parents":[2147483647,0,0,1,1,2,2,3,3,4,4,5,5,6,6,7,7,8,8,9,9,10,10,11,11,12,12,13,13,14,14],"right_children":[2,4,6,8,10,12,14,16,18,20,22,24,26,28,30,-1,-1,-1,-1,-1,-1,-1,-1,-1,-1,-1,-1,-1,-1,-1,-1],"split_conditions":[5.4424176E0,5.192957E0,5.8261623E0,5.1033664E0,5.3375382E0,5.613128E0,6.0684257E0,1E0,8.7E1,5.2522736E0,2.15E2,1E0,1E0,1E0,6.234927E0,-1.4363604E-3,-0E0,-0E0,-8.8427606E-4,-3.4463085E-4,1.5422798E-4,9.766573E-4,-0E0,1.9496102E-3,-0E0,3.3713279E-3,-0E0,5.096094E-3,-0E0,6.529075E-3,8.606113E-3],"split_indices":[17,17,17,17,17,17,17,210,9,17,8,106,208,114,17,0,0,0,0,0,0,0,0,0,0,0,0,0,0,0,0],"split_type":[0,0,0,0,0,0,0,0,0,0,0,0,0,0,0,0,0,0,0,0,0,0,0,0,0,0,0,0,0,0,0],"sum_hessian":[3.0077E4,2.346E4,6.617E3,2.0347E4,3.113E3,3.503E3,3.114E3,1.9281E4,1.066E3,1.933E3,1.18E3,1.698E3,1.805E3,1.896E3,1.218E3,1.9276E4,5E0,9.5E1,9.71E2,7.54E2,1.179E3,1.122E3,5.8E1,1.691E3,7E0,1.799E3,6E0,1.885E3,1.1E1,9.48E2,2.7E2],"tree_param":{"num_deleted":"0","num_feature":"245","num_nodes":"31","size_leaf_vector":"1"}},{"base_weights":[-1.1887872E-4,-2.559821E-2,3.0742047E-2,-2.6881069E-2,-2.749879E-4,2.5925407E-2,4.2008692E-3,-2.6987078E-2,-0E0,-4.949619E-3,6.147857E-2,3.353773E-2,8.726776E-3,-1.3542352E-3,-0E0,-5.081463E-4,6.2580657E-4,3.3441323E-3,-0E0,1.5674381E-3,2.7752738E-3,-2.0575566E-5,1.7046832E-3],"categories":[],"categories_nodes":[],"categories_segments":[],"categories_sizes":[],"default_left":[0,0,0,1,0,0,0,0,0,1,0,0,1,0,0,0,0,0,0,0,0,0,0],"id":36,"left_children":[1,3,5,7,9,11,-1,13,-1,15,17,19,21,-1,-1,-1,-1,-1,-1,-1,-1,-1,-1],"loss_changes":[2.3649593E1,5.0871277E-1,3.370057E0,7.0508E-2,1.8571633E-1,1.5910206E0,0E0,6.5672874E-2,0E0,7.041658E-2,8.155197E-3,3.220005E-1,9.317558E-1,0E0,0E0,0E0,0E0,0E0,0E0,0E0,0E0,0E0,0E0],"parents":[2147483647,0,0,1,1,2,2,3,3,4,4,5,5,7,7,9,9,10,10,11,11,12,12],"right_children":[2,4,6,8,10,12,-1,14,-1,16,18,20,22,-1,-1,-1,-1,-1,-1,-1,-1,-1,-1],"split_conditions":[3.2E1,1E0,1.148E3,3.66E0,1.148E3,1E0,4.2008692E-3,3.31E2,-0E0,1.33E0,1E0,1E0,1.54E0,-1.3542352E-3,-0E0,-5.081463E-4,6.2580657E-4,3.3441323E-3,-0E0,1.5674381E-3,2.7752738E-3,-2.0575566E-5,1.7046832E-3],"split_indices":[9,9,8,7,8,243,0,8,0,7,102,153,7,0,0,0,0,0,0,0,0,0,0],"split_type":[0,0,0,0,0,0,0,0,0,0,0,0,0,0,0,0,0,0,0,0,0,0,0],"sum_hessian":[3.0077E4,1.6493E4,1.3584E4,1.566E4,8.33E2,1.2479E4,1.105E3,1.5634E4,2.6E1,7.92E2,4.1E1,8.608E3,3.871E3,1.5611E4,2.3E1,6.55E2,1.37E2,3.6E1,5E0,7.876E3,7.32E2,2.819E3,1.052E3],"tree_param":{"num_deleted":"0","num_feature":"245","num_nodes":"23","size_leaf_vector":"1"}},{"base_weights":[6.533926E-4,-2.0500276E-2,8.169758E-2,-2.5131265E-2,1.2955372E-2,5.817121E-2,1.1728681E-1,-2.594269E-2,-9.739211E-3,2.0507555E-3,2.1033807E-2,3.8993403E-2,7.03542E-2,5.439962E-3,7.5874897E-3,-1.2999777E-3,-0E0,-5.96689E-4,-2.6249807E-5,2.546693E-4,-1.6812448E-4,1.0909432E-3,-0E0,1.9674774E-3,-0E0,2.985558E-3,3.9185197E-3],"categories":[],"categories_nodes":[],"categories_segments":[],"categories_sizes":[],"default_left":[0,0,0,0,0,0,0,0,0,0,0,0,0,0,0,0,0,0,0,0,0,0,0,0,0,0,0],"id":37,"left_children":[1,3,5,7,9,11,13,15,17,19,21,23,25,-1,-1,-1,-1,-1,-1,-1,-1,-1,-1,-1,-1,-1,-1],"loss_changes":[5.198628E1,3.732933E0,5.06139E0,2.2730255E-1,2.3181304E-1,7.709675E-1,4.150467E-1,1.2414932E-2,1.025109E-2,2.2996292E-2,2.2267103E-2,1.5975952E-2,4.3254852E-2,0E0,0E0,0E0,0E0,0E0,0E0,0E0,0E0,0E0,0E0,0E0,0E0,0E0,0E0],"parents":[2147483647,0,0,1,1,2,2,3,3,4,4,5,5,6,6,7,7,8,8,9,9,10,10,11,11,12,12],"right_children":[2,4,6,8,10,12,14,16,18,20,22,24,26,-1,-1,-1,-1,-1,-1,-1,-1,-1,-1,-1,-1,-1,-1],"split_conditions":[5.484797E0,5.247024E0,5.9117203E0,5.1532917E0,5.3423343E0,5.638355E0,6.206576E0,3.01E2,9.424658E-1,7E0,2.15E2,1E0,5.754151E0,5.439962E-3,7.5874897E-3,-1.2999777E-3,-0E0,-5.96689E-4,-2.6249807E-5,2.546693E-4,-1.6812448E-4,1.0909432E-3,-0E0,1.9674774E-3,-0E0,2.985558E-3,3.9185197E-3],"split_indices":[17,17,17,17,17,17,17,6,16,8,8,103,17,0,0,0,0,0,0,0,0,0,0,0,0,0,0],"split_type":[0,0,0,0,0,0,0,0,0,0,0,0,0,0,0,0,0,0,0,0,0,0,0,0,0,0,0],"sum_hessian":[3.0282E4,2.4006E4,6.276E3,2.1114E4,2.892E3,3.8E3,2.476E3,1.9993E4,1.121E3,1.285E3,1.607E3,1.513E3,2.287E3,2.02E3,4.56E2,1.9924E4,6.9E1,8.17E2,3.04E2,9.41E2,3.44E2,1.54E3,6.7E1,1.496E3,1.7E1,1.047E3,1.24E3],"tree_param":{"num_deleted":"0","num_feature":"245","num_nodes":"27","size_leaf_vector":"1"}},{"base_weights":[-4.2492313E-5,-1.9676164E-2,7.847615E-2,-2.4409395E-2,1.23797E-2,5.82369E-2,1.14135414E-1,-2.5110304E-2,-1.1125361E-2,4.799859E-3,2.239971E-2,4.5013826E-2,7.323519E-2,5.3943945E-3,7.60268E-3,-1.2566348E-3,-0E0,-6.4968446E-4,-2.621823E-6,3.398725E-4,-2.1164944E-5,1.142909E-3,-0E0,1.6378807E-3,2.515802E-3,3.677604E-3,-0E0],"categories":[],"categories_nodes":[],"categories_segments":[],"categories_sizes":[],"default_left":[0,0,0,0,0,0,0,0,0,0,0,0,0,0,0,0,0,0,0,0,0,0,0,0,0,0,0],"id":38,"left_children":[1,3,5,7,9,11,13,15,17,19,21,23,25,-1,-1,-1,-1,-1,-1,-1,-1,-1,-1,-1,-1,-1,-1],"loss_changes":[4.6507057E1,3.6808033E0,4.161083E0,1.5931225E-1,2.0678386E-1,6.397705E-1,2.0324898E-1,1.1717796E-2,1.0411873E-2,2.5340866E-2,1.4355123E-2,4.8514843E-2,1.2188911E-2,0E0,0E0,0E0,0E0,0E0,0E0,0E0,0E0,0E0,0E0,0E0,0E0,0E0,0E0],"parents":[2147483647,0,0,1,1,2,2,3,3,4,4,5,5,6,6,7,7,8,8,9,9,10,10,11,11,12,12],"right_children":[2,4,6,8,10,12,14,16,18,20,22,24,26,-1,-1,-1,-1,-1,-1,-1,-1,-1,-1,-1,-1,-1,-1],"split_conditions":[5.5022273E0,5.247024E0,5.9414706E0,5.1532917E0,5.389072E0,5.7170277E0,6.234927E0,1E0,6.04714E-1,1.89E2,2.73E2,5.5645204E0,1E0,5.3943945E-3,7.60268E-3,-1.2566348E-3,-0E0,-6.4968446E-4,-2.621823E-6,3.398725E-4,-2.1164944E-5,1.142909E-3,-0E0,1.6378807E-3,2.515802E-3,3.677604E-3,-0E0],"split_indices":[17,17,17,17,17,17,17,187,12,19,6,17,47,0,0,0,0,0,0,0,0,0,0,0,0,0,0],"split_type":[0,0,0,0,0,0,0,0,0,0,0,0,0,0,0,0,0,0,0,0,0,0,0,0,0,0,0],"sum_hessian":[3.02E4,2.4171E4,6.029E3,2.1089E4,3.082E3,3.869E3,2.16E3,1.9958E4,1.131E3,1.814E3,1.268E3,2.098E3,1.771E3,1.887E3,2.73E2,1.9941E4,1.7E1,8.9E2,2.41E2,1.45E3,3.64E2,1.245E3,2.3E1,6.97E2,1.401E3,1.758E3,1.3E1],"tree_param":{"num_deleted":"0","num_feature":"245","num_nodes":"27","size_leaf_vector":"1"}},{"base_weights":[1.0173923E-4,-1.7802523E-2,7.831741E-2,-2.266367E-2,1.5089487E-2,5.932125E-2,1.1119136E-1,-2.3581242E-2,-8.230757E-3,4.3248236E-3,2.2769276E-2,4.627894E-2,7.276026E-2,5.243031E-3,7.2908844E-3,-1.1809182E-3,-0E0,-4.6285955E-4,-0E0,3.2388925E-4,-4.0893483E-5,1.1534634E-3,-0E0,2.3215215E-3,-0E0,3.648464E-3,-0E0],"categories":[],"categories_nodes":[],"categories_segments":[],"categories_sizes":[],"default_left":[0,0,0,0,0,0,0,0,0,0,0,0,0,0,0,0,0,0,0,0,0,0,0,0,0,0,0],"id":39,"left_children":[1,3,5,7,9,11,13,15,17,19,21,23,25,-1,-1,-1,-1,-1,-1,-1,-1,-1,-1,-1,-1,-1,-1],"loss_changes":[4.2429417E1,3.9434028E0,3.3355103E0,2.5191307E-1,2.32526E-1,5.0255203E-1,1.517334E-1,1.2375832E-2,1.4003195E-2,2.0811256E-2,1.7026484E-2,6.9322586E-3,1.5486717E-2,0E0,0E0,0E0,0E0,0E0,0E0,0E0,0E0,0E0,0E0,0E0,0E0,0E0,0E0],"parents":[2147483647,0,0,1,1,2,2,3,3,4,4,5,5,6,6,7,7,8,8,9,9,10,10,11,11,12,12],"right_children":[2,4,6,8,10,12,14,16,18,20,22,24,26,-1,-1,-1,-1,-1,-1,-1,-1,-1,-1,-1,-1,-1,-1],"split_conditions":[5.529429E0,5.273E0,5.963579E0,5.154388E0,5.379897E0,5.7400613E0,6.234927E0,1E0,2.07E2,1.89E2,1E0,1E0,2.18E2,5.243031E-3,7.2908844E-3,-1.1809182E-3,-0E0,-4.6285955E-4,-0E0,3.2388925E-4,-4.0893483E-5,1.1534634E-3,-0E0,2.3215215E-3,-0E0,3.648464E-3,-0E0],"split_indices":[17,17,17,17,17,17,17,211,19,19,58,219,19,0,0,0,0,0,0,0,0,0,0,0,0,0,0],"split_type":[0,0,0,0,0,0,0,0,0,0,0,0,0,0,0,0,0,0,0,0,0,0,0,0,0,0,0],"sum_hessian":[3.0249E4,2.4606E4,5.643E3,2.1465E4,3.141E3,3.601E3,2.042E3,2.0115E4,1.35E3,1.364E3,1.777E3,1.872E3,1.729E3,1.761E3,2.81E2,2.0074E4,4.1E1,1.23E3,1.2E2,1.098E3,2.66E2,1.763E3,1.4E1,1.863E3,9E0,1.722E3,7E0],"tree_param":{"num_deleted":"0","num_feature":"245","num_nodes":"27","size_leaf_vector":"1"}},{"base_weights":[5.486546E-5,-1.7109906E-2,7.275989E-2,-2.1447876E-2,1.3923612E-2,5.23731E-2,9.900122E-2,-2.2311645E-2,-8.060594E-3,5.6091133E-3,2.2132473E-2,3.962925E-2,6.2919445E-2,8.803174E-2,5.7529295E-3,-1.1172176E-3,-0E0,-5.521463E-4,1.1194944E-5,6.210087E-5,7.069632E-4,8.78407E-4,1.7573776E-3,1.9940527E-3,-0E0,3.1564943E-3,-0E0,4.4493433E-3,-0E0],"categories":[],"categories_nodes":[],"categories_segments":[],"categories_sizes":[],"default_left":[0,0,0,0,0,0,0,0,0,0,0,0,0,0,0,0,0,0,0,0,0,0,0,0,0,0,0,0,0],"id":40,"left_children":[1,3,5,7,9,11,13,15,17,19,21,23,25,27,-1,-1,-1,-1,-1,-1,-1,-1,-1,-1,-1,-1,-1,-1,-1],"loss_changes":[3.793887E1,3.3129988E0,2.9407501E0,2.1846676E-1,1.755516E-1,3.3309174E-1,2.0951653E-1,1.4505386E-2,4.497166E-2,4.219485E-2,3.0975282E-2,1.3416529E-2,2.2666454E-2,7.1003914E-2,0E0,0E0,0E0,0E0,0E0,0E0,0E0,0E0,0E0,0E0,0E0,0E0,0E0,0E0,0E0],"parents":[2147483647,0,0,1,1,2,2,3,3,4,4,5,5,6,6,7,7,8,8,9,9,10,10,11,11,12,12,13,13],"right_children":[2,4,6,8,10,12,14,16,18,20,22,24,26,28,-1,-1,-1,-1,-1,-1,-1,-1,-1,-1,-1,-1,-1,-1,-1],"split_conditions":[2.45E2,1.89E2,3.57E2,1.7E2,2.13E2,2.88E2,4.39E2,1E0,6.26771E-2,4.776306E-2,5.841412E-1,1E0,1E0,1E0,5.7529295E-3,-1.1172176E-3,-0E0,-5.521463E-4,1.1194944E-5,6.210087E-5,7.069632E-4,8.78407E-4,1.7573776E-3,1.9940527E-3,-0E0,3.1564943E-3,-0E0,4.4493433E-3,-0E0],"split_indices":[4,4,4,4,4,4,4,51,25,12,12,205,54,69,0,0,0,0,0,0,0,0,0,0,0,0,0,0,0],"split_type":[0,0,0,0,0,0,0,0,0,0,0,0,0,0,0,0,0,0,0,0,0,0,0,0,0,0,0,0,0],"sum_hessian":[3.035E4,2.4544E4,5.806E3,2.1563E4,2.981E3,3.294E3,2.512E3,2.0184E4,1.379E3,1.544E3,1.437E3,1.541E3,1.753E3,1.541E3,9.71E2,2.0154E4,3E1,1.102E3,2.77E2,1.101E3,4.43E2,1.126E3,3.11E2,1.53E3,1.1E1,1.747E3,6E0,1.517E3,2.4E1],"tree_param":{"num_deleted":"0","num_feature":"245","num_nodes":"29","size_leaf_vector":"1"}},{"base_weights":[2.555503E-4,-1.745128E-2,6.4367466E-2,-2.0361144E-2,9.619471E-3,4.2782575E-2,9.025713E-2,-2.109866E-2,-6.567473E-3,5.313057E-3,1.9494167E-2,2.85393E-2,5.203492E-2,7.472652E-2,5.1605464E-3,-1.056346E-3,-0E0,-4.8782592E-4,-0E0,-9.5968295E-5,4.262622E-4,1.0141468E-3,-0E0,1.0492214E-3,1.8193679E-3,2.610945E-3,-0E0,3.7506607E-3,-0E0],"categories":[],"categories_nodes":[],"categories_segments":[],"categories_sizes":[],"default_left":[0,0,0,0,0,0,0,0,0,0,0,0,0,0,0,0,0,0,0,0,0,0,0,0,0,0,0,0,0],"id":41,"left_children":[1,3,5,7,9,11,13,15,17,19,21,23,25,27,-1,-1,-1,-1,-1,-1,-1,-1,-1,-1,-1,-1,-1,-1,-1],"loss_changes":[3.443039E1,1.8798847E0,3.5251865E0,1.901617E-1,7.145524E-2,3.904457E-1,3.9481926E-1,1.216507E-2,2.6223063E-2,4.5126982E-2,1.5275776E-2,2.7495265E-2,2.4704456E-2,3.5305023E-3,0E0,0E0,0E0,0E0,0E0,0E0,0E0,0E0,0E0,0E0,0E0,0E0,0E0,0E0,0E0],"parents":[2147483647,0,0,1,1,2,2,3,3,4,4,5,5,6,6,7,7,8,8,9,9,10,10,11,11,12,12,13,13],"right_children":[2,4,6,8,10,12,14,16,18,20,22,24,26,28,-1,-1,-1,-1,-1,-1,-1,-1,-1,-1,-1,-1,-1,-1,-1],"split_conditions":[2.27E2,1.89E2,3.37E2,1.71E2,5.548933E-1,2.59E2,4E2,1E0,5.224547E-1,1.99E2,5.1E1,3.3453163E-2,1E0,1E0,5.1605464E-3,-1.056346E-3,-0E0,-4.8782592E-4,-0E0,-9.5968295E-5,4.262622E-4,1.0141468E-3,-0E0,1.0492214E-3,1.8193679E-3,2.610945E-3,-0E0,3.7506607E-3,-0E0],"split_indices":[4,4,4,4,12,4,4,195,12,4,10,25,108,114,0,0,0,0,0,0,0,0,0,0,0,0,0,0,0],"split_type":[0,0,0,0,0,0,0,0,0,0,0,0,0,0,0,0,0,0,0,0,0,0,0,0,0,0,0,0,0],"sum_hessian":[3.0282E4,2.3718E4,6.564E3,2.145E4,2.268E3,3.605E3,2.959E3,2.0291E4,1.159E3,1.653E3,6.15E2,1.467E3,2.138E3,1.39E3,1.569E3,2.0264E4,2.7E1,7.99E2,3.6E2,4.13E2,1.24E3,6.05E2,1E1,8.18E2,6.49E2,2.132E3,6E0,1.38E3,1E1],"tree_param":{"num_deleted":"0","num_feature":"245","num_nodes":"29","size_leaf_vector":"1"}},{"base_weights":[2.609908E-4,-1.5028646E-2,6.753308E-2,-1.9425722E-2,1.1994431E-2,5.123598E-2,9.514553E-2,-2.0014185E-2,-8.7824715E-3,4.1911653E-3,1.9966802E-2,3.989241E-2,6.286028E-2,8.970802E-2,1.2656984E-1,-1.0054776E-3,-9.179115E-6,-5.55594E-4,-0E0,3.3343013E-4,-2.227094E-5,1.0463992E-3,-0E0,-0E0,2.0028572E-3,3.1560285E-3,-0E0,4.500113E-3,-0E0,6.4056427E-3,-0E0],"categories":[],"categories_nodes":[],"categories_segments":[],"categories_sizes":[],"default_left":[0,0,0,0,0,0,0,0,0,0,0,0,0,0,0,0,0,0,0,0,0,0,0,0,0,0,0,0,0,0,0],"id":42,"left_children":[1,3,5,7,9,11,13,15,17,19,21,23,25,27,29,-1,-1,-1,-1,-1,-1,-1,-1,-1,-1,-1,-1,-1,-1,-1,-1],"loss_changes":[3.1160412E1,2.9348478E0,2.3648586E0,1.03562355E-1,1.8816432E-1,3.5901737E-1,1.0113907E-1,1.7544746E-2,1.6747318E-2,2.6839498E-2,3.0189335E-2,9.963751E-3,1.2213707E-2,2.179718E-2,2.3646832E-2,0E0,0E0,0E0,0E0,0E0,0E0,0E0,0E0,0E0,0E0,0E0,0E0,0E0,0E0,0E0,0E0],"parents":[2147483647,0,0,1,1,2,2,3,3,4,4,5,5,6,6,7,7,8,8,9,9,10,10,11,11,12,12,13,13,14,14],"right_children":[2,4,6,8,10,12,14,16,18,20,22,24,26,28,30,-1,-1,-1,-1,-1,-1,-1,-1,-1,-1,-1,-1,-1,-1,-1,-1],"split_conditions":[5.5333896E0,5.2522736E0,5.9558372E0,5.1532917E0,5.3952174E0,5.7400613E0,6.234927E0,1E0,4E0,8E0,-7.382743E1,-7.407929E1,1E0,1E0,6.9E1,-1.0054776E-3,-9.179115E-6,-5.55594E-4,-0E0,3.3343013E-4,-2.227094E-5,1.0463992E-3,-0E0,-0E0,2.0028572E-3,3.1560285E-3,-0E0,4.500113E-3,-0E0,6.4056427E-3,-0E0],"split_indices":[17,17,17,17,17,17,17,214,10,8,3,3,219,89,10,0,0,0,0,0,0,0,0,0,0,0,0,0,0,0,0],"split_type":[0,0,0,0,0,0,0,0,0,0,0,0,0,0,0,0,0,0,0,0,0,0,0,0,0,0,0,0,0,0,0],"sum_hessian":[3.0238E4,2.4628E4,5.61E3,2.1214E4,3.414E3,3.556E3,2.054E3,2.0011E4,1.203E3,1.791E3,1.623E3,1.85E3,1.706E3,1.788E3,2.66E2,1.9865E4,1.46E2,8.86E2,3.17E2,1.307E3,4.84E2,1.546E3,7.7E1,9E0,1.841E3,1.695E3,1.1E1,1.779E3,9E0,2.61E2,5E0],"tree_param":{"num_deleted":"0","num_feature":"245","num_nodes":"31","size_leaf_vector":"1"}},{"base_weights":[1.479282E-4,-1.5788779E-2,5.8671612E-2,-1.8799834E-2,7.466359E-3,3.742284E-2,8.0552675E-2,-1.9315658E-2,-8.584188E-3,-0E0,1.2984291E-2,2.80377E-2,4.7283735E-2,6.585067E-2,9.480208E-2,-9.704657E-4,-0E0,-5.260808E-4,-0E0,9.703751E-5,-2.3854636E-4,7.5816445E-4,3.5008554E-5,1.4462215E-3,-0E0,2.3746178E-3,-0E0,3.299191E-3,-0E0,4.4120294E-3,6.0719326E-3],"categories":[],"categories_nodes":[],"categories_segments":[],"categories_sizes":[],"default_left":[0,0,0,0,0,0,0,0,0,0,0,0,0,0,0,0,0,0,0,0,0,0,0,0,0,0,0,0,0,0,0],"id":43,"left_children":[1,3,5,7,9,11,13,15,17,19,21,23,25,27,29,-1,-1,-1,-1,-1,-1,-1,-1,-1,-1,-1,-1,-1,-1,-1,-1],"loss_changes":[2.8348614E1,1.6810904E0,2.899313E0,8.303118E-2,1.0894586E-1,2.2897196E-1,4.870224E-1,1.9164562E-2,8.061655E-3,1.0314498E-2,2.5272429E-2,2.9800296E-2,1.7469406E-2,6.492138E-3,3.3270836E-2,0E0,0E0,0E0,0E0,0E0,0E0,0E0,0E0,0E0,0E0,0E0,0E0,0E0,0E0,0E0,0E0],"parents":[2147483647,0,0,1,1,2,2,3,3,4,4,5,5,6,6,7,7,8,8,9,9,10,10,11,11,12,12,13,13,14,14],"right_children":[2,4,6,8,10,12,14,16,18,20,22,24,26,28,30,-1,-1,-1,-1,-1,-1,-1,-1,-1,-1,-1,-1,-1,-1,-1,-1],"split_conditions":[5.4595857E0,5.247024E0,5.8261623E0,5.1532917E0,5.327876E0,5.638355E0,6.0186615E0,1E0,3.44E2,7E0,4E1,-7.385073E1,1E0,1.81E2,6.234927E0,-9.704657E-4,-0E0,-5.260808E-4,-0E0,9.703751E-5,-2.3854636E-4,7.5816445E-4,3.5008554E-5,1.4462215E-3,-0E0,2.3746178E-3,-0E0,3.299191E-3,-0E0,4.4120294E-3,6.0719326E-3],"split_indices":[17,17,17,17,17,17,17,214,9,8,8,3,208,5,17,0,0,0,0,0,0,0,0,0,0,0,0,0,0,0,0],"split_type":[0,0,0,0,0,0,0,0,0,0,0,0,0,0,0,0,0,0,0,0,0,0,0,0,0,0,0,0,0,0,0],"sum_hessian":[3.0343E4,2.3837E4,6.506E3,2.1143E4,2.694E3,3.328E3,3.178E3,2.0031E4,1.112E3,1.159E3,1.535E3,1.763E3,1.565E3,1.607E3,1.571E3,1.9889E4,1.42E2,8.12E2,3E2,8.5E2,3.09E2,1.234E3,3.01E2,1.692E3,7.1E1,1.559E3,6E0,1.602E3,5E0,1.301E3,2.7E2],"tree_param":{"num_deleted":"0","num_feature":"245","num_nodes":"31","size_leaf_vector":"1"}},{"base_weights":[1.543496E-4,-1.5547027E-2,5.3857855E-2,-1.7922673E-2,5.791259E-3,3.3874065E-2,7.689051E-2,-1.8384451E-2,-8.3479965E-3,7.408699E-4,1.1389895E-2,2.3012616E-2,4.2812258E-2,6.1516564E-2,8.856728E-2,-9.214814E-4,-0E0,-1.0120906E-4,-6.068429E-4,1.5334079E-4,-1.6995946E-4,-0E0,6.3075736E-4,-0E0,1.1756119E-3,-0E0,2.1482639E-3,3.1107576E-3,-0E0,4.106998E-3,5.689574E-3],"categories":[],"categories_nodes":[],"categories_segments":[],"categories_sizes":[],"default_left":[0,0,0,0,0,0,0,0,0,0,0,0,0,0,0,0,0,0,0,0,0,0,0,0,0,0,0,0,0,0,0],"id":44,"left_children":[1,3,5,7,9,11,13,15,17,19,21,23,25,27,29,-1,-1,-1,-1,-1,-1,-1,-1,-1,-1,-1,-1,-1,-1,-1,-1],"loss_changes":[2.5583614E1,1.2000093E0,3.0426254E0,6.61993E-2,5.3075008E-2,2.9100466E-1,4.0174484E-1,1.1607647E-2,1.1570245E-2,1.2313616E-2,1.7476588E-2,1.9759059E-2,1.4899731E-2,3.6979675E-2,6.055641E-2,0E0,0E0,0E0,0E0,0E0,0E0,0E0,0E0,0E0,0E0,0E0,0E0,0E0,0E0,0E0,0E0],"parents":[2147483647,0,0,1,1,2,2,3,3,4,4,5,5,6,6,7,7,8,8,9,9,10,10,11,11,12,12,13,13,14,14],"right_children":[2,4,6,8,10,12,14,16,18,20,22,24,26,28,30,-1,-1,-1,-1,-1,-1,-1,-1,-1,-1,-1,-1,-1,-1,-1,-1],"split_conditions":[5.4293456E0,5.241747E0,5.8261623E0,5.1532917E0,5.3423343E0,5.6013823E0,5.9939613E0,3.01E2,-7.396E1,8E0,-7.399581E1,-7.401409E1,1.30804E5,1E0,6.2245584E0,-9.214814E-4,-0E0,-1.0120906E-4,-6.068429E-4,1.5334079E-4,-1.6995946E-4,-0E0,6.3075736E-4,-0E0,1.1756119E-3,-0E0,2.1482639E-3,3.1107576E-3,-0E0,4.106998E-3,5.689574E-3],"split_indices":[17,17,17,17,17,17,17,6,3,8,3,3,1,69,17,0,0,0,0,0,0,0,0,0,0,0,0,0,0,0,0],"split_type":[0,0,0,0,0,0,0,0,0,0,0,0,0,0,0,0,0,0,0,0,0,0,0,0,0,0,0,0,0,0,0],"sum_hessian":[3.0289E4,2.3424E4,6.865E3,2.112E4,2.304E3,3.703E3,3.162E3,2.0046E4,1.074E3,1.307E3,9.97E2,1.727E3,1.976E3,1.41E3,1.752E3,1.9982E4,6.4E1,5.03E2,5.71E2,9.92E2,3.15E2,7.5E1,9.22E2,3.7E1,1.69E3,6E0,1.97E3,1.388E3,2.2E1,1.438E3,3.14E2],"tree_param":{"num_deleted":"0","num_feature":"245","num_nodes":"31","size_leaf_vector":"1"}},{"base_weights":[2.0252393E-5,-1.3470015E-2,5.6486115E-2,-1.7037494E-2,9.336127E-3,4.2590994E-2,8.099605E-2,-1.735476E-2,-5.386176E-3,2.6975053E-3,1.6484022E-2,3.1790897E-2,5.299549E-2,7.392547E-2,1.03125155E-1,-0E0,-8.7062264E-4,-3.971476E-4,-0E0,3.1166288E-4,-6.125502E-5,1.1674026E-4,9.272759E-4,-0E0,1.6062809E-3,2.6560007E-3,-0E0,3.725207E-3,-0E0,5.1872935E-3,-0E0],"categories":[],"categories_nodes":[],"categories_segments":[],"categories_sizes":[],"default_left":[0,0,0,0,0,0,0,0,0,0,0,0,0,0,0,0,0,0,0,0,0,0,0,0,0,0,0,0,0,0,0],"id":45,"left_children":[1,3,5,7,9,11,13,15,17,19,21,23,25,27,29,-1,-1,-1,-1,-1,-1,-1,-1,-1,-1,-1,-1,-1,-1,-1,-1],"loss_changes":[2.311458E1,1.996059E0,1.8600922E0,5.5222988E-2,1.358062E-1,3.3368063E-1,1.2693596E-1,1.7511845E-2,1.0950644E-2,2.9593712E-2,2.2771746E-2,2.1125555E-2,1.0573864E-2,1.2160301E-2,5.7649612E-3,0E0,0E0,0E0,0E0,0E0,0E0,0E0,0E0,0E0,0E0,0E0,0E0,0E0,0E0,0E0,0E0],"parents":[2147483647,0,0,1,1,2,2,3,3,4,4,5,5,6,6,7,7,8,8,9,9,10,10,11,11,12,12,13,13,14,14],"right_children":[2,4,6,8,10,12,14,16,18,20,22,24,26,28,30,-1,-1,-1,-1,-1,-1,-1,-1,-1,-1,-1,-1,-1,-1,-1,-1],"split_conditions":[5.521461E0,5.247024E0,5.9506426E0,5.198124E0,5.3845387E0,5.7170277E0,6.206576E0,1.5E2,3.41E2,3E0,5.4134065E-3,-7.402951E1,1E0,1E0,1E2,-0E0,-8.7062264E-4,-3.971476E-4,-0E0,3.1166288E-4,-6.125502E-5,1.1674026E-4,9.272759E-4,-0E0,1.6062809E-3,2.6560007E-3,-0E0,3.725207E-3,-0E0,5.1872935E-3,-0E0],"split_indices":[17,17,17,17,17,17,17,4,9,8,25,3,208,69,10,0,0,0,0,0,0,0,0,0,0,0,0,0,0,0,0],"split_type":[0,0,0,0,0,0,0,0,0,0,0,0,0,0,0,0,0,0,0,0,0,0,0,0,0,0,0,0,0,0,0],"sum_hessian":[3.0282E4,2.443E4,5.852E3,2.1164E4,3.266E3,3.766E3,2.086E3,2.0518E4,6.46E2,1.768E3,1.498E3,1.901E3,1.865E3,1.625E3,4.61E2,7.8E1,2.044E4,4.69E2,1.77E2,1.063E3,7.05E2,2.53E2,1.245E3,1.9E1,1.882E3,1.86E3,5E0,1.602E3,2.3E1,4.56E2,5E0],"tree_param":{"num_deleted":"0","num_feature":"245","num_nodes":"31","size_leaf_vector":"1"}},{"base_weights":[1.5266788E-4,-1.2229648E-2,5.4981433E-2,-1.5776051E-2,9.898657E-3,4.224951E-2,7.988479E-2,-1.6461482E-2,-7.244871E-3,3.4893954E-3,1.7153801E-2,3.245603E-2,5.143356E-2,7.298605E-2,9.849645E-2,-8.290073E-4,-9.1505055E-5,-4.6805802E-4,-0E0,-0E0,3.0688173E-4,9.143427E-4,-0E0,1.6339226E-3,-0E0,2.5803256E-3,-0E0,3.663264E-3,-0E0,-0E0,4.9533593E-3],"categories":[],"categories_nodes":[],"categories_segments":[],"categories_sizes":[],"default_left":[0,0,0,0,0,0,0,0,0,0,0,0,0,0,0,0,0,0,0,0,0,0,0,0,0,0,0,0,0,0,0],"id":46,"left_children":[1,3,5,7,9,11,13,15,17,19,21,23,25,27,29,-1,-1,-1,-1,-1,-1,-1,-1,-1,-1,-1,-1,-1,-1,-1,-1],"loss_changes":[2.0727674E1,1.9556866E0,1.6521988E0,1.0135937E-1,1.3699862E-1,2.49022E-1,4.7566414E-2,1.5776634E-2,2.0976104E-2,1.648726E-2,3.2532305E-2,1.0135651E-2,1.7541409E-2,3.1067371E-2,2.6831627E-3,0E0,0E0,0E0,0E0,0E0,0E0,0E0,0E0,0E0,0E0,0E0,0E0,0E0,0E0,0E0,0E0],"parents":[2147483647,0,0,1,1,2,2,3,3,4,4,5,5,6,6,7,7,8,8,9,9,10,10,11,11,12,12,13,13,14,14],"right_children":[2,4,6,8,10,12,14,16,18,20,22,24,26,28,30,-1,-1,-1,-1,-1,-1,-1,-1,-1,-1,-1,-1,-1,-1,-1,-1],"split_conditions":[5.5333896E0,5.2566485E0,5.9782104E0,5.1151457E0,5.4026775E0,5.7400613E0,6.206576E0,1.8E2,5.784269E-1,5.311937E0,-7.384164E1,1E0,2.18E2,1E0,4E0,-8.290073E-4,-9.1505055E-5,-4.6805802E-4,-0E0,-0E0,3.0688173E-4,9.143427E-4,-0E0,1.6339226E-3,-0E0,2.5803256E-3,-0E0,3.663264E-3,-0E0,-0E0,4.9533593E-3],"split_indices":[17,17,17,17,17,17,17,6,12,17,3,89,19,89,9,0,0,0,0,0,0,0,0,0,0,0,0,0,0,0,0],"split_type":[0,0,0,0,0,0,0,0,0,0,0,0,0,0,0,0,0,0,0,0,0,0,0,0,0,0,0,0,0,0,0],"sum_hessian":[3.0462E4,2.4837E4,5.625E3,2.1446E4,3.391E3,3.754E3,1.871E3,1.974E4,1.706E3,1.876E3,1.515E3,1.876E3,1.878E3,1.415E3,4.56E2,1.9513E4,2.27E2,1.26E3,4.46E2,8.34E2,1.042E3,1.43E3,8.5E1,1.86E3,1.6E1,1.872E3,6E0,1.41E3,5E0,5E0,4.51E2],"tree_param":{"num_deleted":"0",