{"learner":{"attributes":{"best_iteration":"138","best_score":"0.04964080504754633"},"feature_names":["id","host_id","latitude","longitude","price","minimum_nights","number_of_reviews","reviews_per_month","calculated_host_listings_count","availability_365","number_of_reviews_ltm","event_count","avg_influence","total_influence","event_density","influence_score","availability_ratio","log_price","city_encoded","area_encoded","month","day_of_week","is_weekend","event_x_influence","city_freq","area_freq","neighbourhood_group_Brooklyn","neighbourhood_group_Manhattan","neighbourhood_group_Queens","neighbourhood_group_Staten Island","area_Arden Heights","area_Arrochar","area_Arverne","area_Astoria","area_Bath Beach","area_Battery Park City","area_Bay Ridge","area_Bay Terrace","area_Baychester","area_Bayside","area_Bayswater","area_Bedford-Stuyvesant","area_Belle Harbor","area_Bellerose","area_Belmont","area_Bensonhurst","area_Bergen Beach","area_Boerum Hill","area_Borough Park","area_Breezy Point","area_Briarwood","area_Brighton Beach","area_Bronxdale","area_Brooklyn Heights","area_Brownsville","area_Bull's Head","area_Bushwick","area_Cambria Heights","area_Canarsie","area_Carroll Gardens","area_Castle Hill","area_Castleton Corners","area_Chelsea","area_Chinatown","area_City Island","area_Civic Center","area_Claremont Village","area_Clason Point","area_Clifton","area_Clinton Hill","area_Co-op City","area_Cobble Hill","area_College Point","area_Columbia St","area_Concord","area_Concourse","area_Concourse Village","area_Coney Island","area_Corona","area_Country Club","area_Crown Heights","area_Cypress Hills","area_DUMBO","area_Ditmars Steinway","area_Dongan Hills","area_Douglaston","area_Downtown Brooklyn","area_Dyker Heights","area_East Elmhurst","area_East Flatbush","area_East Harlem","area_East Morrisania","area_East New York","area_East Village","area_Eastchester","area_Edenwald","area_Edgemere","area_Elmhurst","area_Eltingville","area_Emerson Hill","area_Far Rockaway","area_Fieldston","area_Financial District","area_Flatbush","area_Flatiron District","area_Flatlands","area_Flushing","area_Fordham","area_Forest Hills","area_Fort Greene","area_Fort Hamilton","area_Fresh Meadows","area_Gerritsen Beach","area_Glendale","area_Gowanus","area_Gramercy","area_Grant City","area_Gravesend","area_Great Kills","area_Greenpoint","area_Greenwich Village","area_Grymes Hill","area_Harlem","area_Hell's Kitchen","area_Highbridge","area_Hollis","area_Hollis Hills","area_Holliswood","area_Howard Beach","area_Huguenot","area_Hunts Point","area_Inwood","area_Jackson Heights","area_Jamaica","area_Jamaica Estates","area_Jamaica Hills","area_Kensington","area_Kew Gardens","area_Kew Gardens Hills","area_Kingsbridge","area_Kips Bay","area_Laurelton","area_Little Italy","area_Long Island City","area_Longwood","area_Lower East Side","area_Manhattan Beach","area_Marble Hill","area_Mariners Harbor","area_Maspeth","area_Melrose","area_Middle Village","area_Midland Beach","area_Midtown","area_Midwood","area_Mill Basin","area_Morningside Heights","area_Morris Heights","area_Morris Park","area_Morrisania","area_Mott Haven","area_Mount Hope","area_Murray Hill","area_Navy Yard","area_Neponsit","area_New Brighton","area_New Dorp","area_New Dorp Beach","area_New Springville","area_NoHo","area_Nolita","area_North Riverdale","area_Norwood","area_Oakwood","area_Olinville","area_Ozone Park","area_Park Slope","area_Parkchester","area_Pelham Bay","area_Pelham Gardens","area_Port Morris","area_Port Richmond","area_Prince's Bay","area_Prospect Heights","area_Prospect-Lefferts Gardens","area_Queens Village","area_Randall Manor","area_Red Hook","area_Rego Park","area_Richmond Hill","area_Ridgewood","area_Riverdale","area_Rockaway Beach","area_Roosevelt Island","area_Rosebank","area_Rosedale","area_Rossville","area_Schuylerville","area_Sea Gate","area_Sheepshead Bay","area_Shore Acres","area_Silver Lake","area_SoHo","area_Soundview","area_South Ozone Park","area_South Slope","area_Springfield Gardens","area_Spuyten Duyvil","area_St. Albans","area_St. George","area_Stapleton","area_Stuyvesant Town","area_Sunnyside","area_Sunset Park","area_Theater District","area_Throgs Neck","area_Tompkinsville","area_Tottenville","area_Tremont","area_Tribeca","area_Two Bridges","area_Unionport","area_University Heights","area_Upper East Side","area_Upper West Side","area_Van Nest","area_Vinegar Hill","area_Wakefield","area_Washington Heights","area_West Brighton","area_West Farms","area_West Village","area_Westchester Square","area_Westerleigh","area_Whitestone","area_Williamsbridge","area_Williamsburg","area_Willowbrook","area_Windsor Terrace","area_Woodhaven","area_Woodlawn","area_Woodside","room_type_Hotel room","room_type_Private room","room_type_Shared room"],"feature_types":["int","int","float","float","float","int","int","float","int","int","int","float","float","float","float","float","float","float","int","int","int","int","int","float","float","float","i","i","i","i","i","i","i","i","i","i","i","i","i","i","i","i","i","i","i","i","i","i","i","i","i","i","i","i","i","i","i","i","i","i","i","i","i","i","i","i","i","i","i","i","i","i","i","i","i","i","i","i","i","i","i","i","i","i","i","i","i","i","i","i","i","i","i","i","i","i","i","i","i","i","i","i","i","i","i","i","i","i","i","i","i","i","i","i","i","i","i","i","i","i","i","i","i","i","i","i","i","i","i","i","i","i","i","i","i","i","i","i","i","i","i","i","i","i","i","i","i","i","i","i","i","i","i","i","i","i","i","i","i","i","i","i","i","i","i","i","i","i","i","i","i","i","i","i","i","i","i","i","i","i","i","i","i","i","i","i","i","i","i","i","i","i","i","i","i","i","i","i","i","i","i","i","i","i","i","i","i","i","i","i","i","i","i","i","i","i","i","i","i","i","i","i","i","i","i","i","i","i","i","i","i","i","i","i","i","i","i","i","i","i","i","i","i","i","i"],"gradient_booster":{"model":{"cats":{"enc":[],"feature_segments":[],"sorted_idx":[]},"gbtree_model_param":{"num_parallel_tree":"1","num_trees":"189"},"iteration_indptr":[0,1,2,3,4,5,6,7,8,9,10,11,12,13,14,15,16,17,18,19,20,21,22,23,24,25,26,27,28,29,30,31,32,33,34,35,36,37,38,39,40,41,42,43,44,45,46,47,48,49,50,51,52,53,54,55,56,57,58,59,60,61,62,63,64,65,66,67,68,69,70,71,72,73,74,75,76,77,78,79,80,81,82,83,84,85,86,87,88,89,90,91,92,93,94,95,96,97,98,99,100,101,102,103,104,105,106,107,108,109,110,111,112,113,114,115,116,117,118,119,120,121,122,123,124,125,126,127,128,129,130,131,132,133,134,135,136,137,138,139,140,141,142,143,144,145,146,147,148,149,150,151,152,153,154,155,156,157,158,159,160,161,162,163,164,165,166,167,168,169,170,171,172,173,174,175,176,177,178,179,180,181,182,183,184,185,186,187,188,189],"tree_info":[0,0,0,0,0,0,0,0,0,0,0,0,0,0,0,0,0,0,0,0,0,0,0,0,0,0,0,0,0,0,0,0,0,0,0,0,0,0,0,0,0,0,0,0,0,0,0,0,0,0,0,0,0,0,0,0,0,0,0,0,0,0,0,0,0,0,0,0,0,0,0,0,0,0,0,0,0,0,0,0,0,0,0,0,0,0,0,0,0,0,0,0,0,0,0,0,0,0,0,0,0,0,0,0,0,0,0,0,0,0,0,0,0,0,0,0,0,0,0,0,0,0,0,0,0,0,0,0,0,0,0,0,0,0,0,0,0,0,0,0,0,0,0,0,0,0,0,0,0,0,0,0,0,0,0,0,0,0,0,0,0,0,0,0,0,0,0,0,0,0,0,0,0,0,0,0,0,0,0,0,0,0,0,0,0,0,0,0,0],"trees":[{"base_weights":[4.5310918E-4,-1.3797626E-1,5.104044E-1,-1.681941E-1,6.130716E-2,3.3092964E-1,6.8920094E-1,-8.63427E-3,-8.9079894E-2,8.996844E-3,1.2276754E-1,2.551413E-1,2.0775523E-2,2.9736936E-2,4.006606E-2,-5.233111E-3,-3.229548E-3,-1.0630196E-3,1.6502825E-3,4.180671E-3,7.027324E-3,1.0796286E-2,1.458064E-2],"categories":[],"categories_nodes":[],"categories_segments":[],"categories_sizes":[],"default_left":[0,0,0,0,0,0,0,0,0,0,0,0,0,0,0,0,0,0,0,0,0,0,0],"id":0,"left_children":[1,3,5,7,9,11,13,-1,15,17,19,21,-1,-1,-1,-1,-1,-1,-1,-1,-1,-1,-1],"loss_changes":[1.0694915E3,7.1858826E1,1.0210504E2,3.3686218E0,4.8996305E0,9.415131E0,1.4278931E1,0E0,2.9501438E-2,6.371361E-1,2.3552513E-1,5.4787827E-1,0E0,0E0,0E0,0E0,0E0,0E0,0E0,0E0,0E0,0E0,0E0],"parents":[2147483647,0,0,1,1,2,2,3,3,4,4,5,5,6,6,8,8,9,9,10,10,11,11],"right_children":[2,4,6,8,10,12,14,-1,16,18,20,22,-1,-1,-1,-1,-1,-1,-1,-1,-1,-1,-1],"split_conditions":[5.4672213E0,5.205536E0,5.8318825E0,5.117994E0,5.3423343E0,5.641084E0,6.0473723E0,-8.63427E-3,5.1730742E0,5.273E0,5.3899183E0,5.543884E0,2.0775523E-2,2.9736936E-2,4.006606E-2,-5.233111E-3,-3.229548E-3,-1.0630196E-3,1.6502825E-3,4.180671E-3,7.027324E-3,1.0796286E-2,1.458064E-2],"split_indices":[17,17,17,17,17,17,17,0,17,17,17,17,0,0,0,0,0,0,0,0,0,0,0],"split_type":[0,0,0,0,0,0,0,0,0,0,0,0,0,0,0,0,0,0,0,0,0,0,0],"sum_hessian":[1.5139E4,1.1907E4,3.232E3,1.0344E4,1.563E3,1.62E3,1.612E3,9.773E3,5.71E2,8.55E2,7.08E2,8.67E2,7.53E2,8.9E2,7.22E2,3.18E2,2.53E2,3.6E2,4.95E2,2.44E2,4.64E2,4.41E2,4.26E2],"tree_param":{"num_deleted":"0","num_feature":"245","num_nodes":"23","size_leaf_vector":"1"}},{"base_weights":[4.952027E-4,-1.2910259E-1,4.926995E-1,-1.589277E-1,6.822381E-2,3.257763E-1,6.588958E-1,-8.177E-3,-8.050948E-2,1.827563E-2,1.270277E-1,2.5212952E-1,2.0106839E-2,2.8284708E-2,3.7808936E-2,-4.787433E-3,-2.7491346E-3,-6.392211E-4,1.9113303E-3,5.244169E-3,7.902439E-3,1.0436567E-2,1.4230408E-2],"categories":[],"categories_nodes":[],"categories_segments":[],"categories_sizes":[],"default_left":[0,0,0,0,0,0,0,0,0,0,0,0,0,0,0,0,0,0,0,0,0,0,0],"id":1,"left_children":[1,3,5,7,9,11,13,-1,15,17,19,21,-1,-1,-1,-1,-1,-1,-1,-1,-1,-1,-1],"loss_changes":[9.636345E2,7.046408E1,8.573096E1,3.4736938E0,4.4502416E0,7.9270325E0,1.1648071E1,0E0,6.493449E-2,5.598317E-1,1.7506695E-1,4.8283386E-1,0E0,0E0,0E0,0E0,0E0,0E0,0E0,0E0,0E0,0E0,0E0],"parents":[2147483647,0,0,1,1,2,2,3,3,4,4,5,5,6,6,8,8,9,9,10,10,11,11],"right_children":[2,4,6,8,10,12,14,-1,16,18,20,22,-1,-1,-1,-1,-1,-1,-1,-1,-1,-1,-1],"split_conditions":[5.484797E0,5.2232437E0,5.835765E0,5.123964E0,5.3563457E0,5.652489E0,6.0330863E0,-8.177E-3,5.1817837E0,5.278115E0,5.433722E0,5.5529594E0,2.0106839E-2,2.8284708E-2,3.7808936E-2,-4.787433E-3,-2.7491346E-3,-6.392211E-4,1.9113303E-3,5.244169E-3,7.902439E-3,1.0436567E-2,1.4230408E-2],"split_indices":[17,17,17,17,17,17,17,0,17,17,17,17,0,0,0,0,0,0,0,0,0,0,0],"split_type":[0,0,0,0,0,0,0,0,0,0,0,0,0,0,0,0,0,0,0,0,0,0,0],"sum_hessian":[1.5095E4,1.1949E4,3.146E3,1.0385E4,1.564E3,1.577E3,1.569E3,9.793E3,5.92E2,8.57E2,7.07E2,8.16E2,7.61E2,8.17E2,7.52E2,3.41E2,2.51E2,3.16E2,5.41E2,4.39E2,2.68E2,3.72E2,4.44E2],"tree_param":{"num_deleted":"0","num_feature":"245","num_nodes":"23","size_leaf_vector":"1"}},{"base_weights":[1.2249604E-3,-1.2256119E-1,4.6904612E-1,-1.512785E-1,6.112592E-2,3.2586884E-1,6.464584E-1,-7.780257E-3,-8.5644536E-2,1.368831E-2,1.1888826E-1,2.3778476E-1,4.0272182E-1,2.864742E-2,3.7293147E-2,-5.051878E-3,-2.8218185E-3,-9.2311477E-4,1.7020283E-3,4.6481797E-3,7.0128106E-3,9.936708E-3,1.3459823E-2,1.7812755E-2,2.263656E-2],"categories":[],"categories_nodes":[],"categories_segments":[],"categories_sizes":[],"default_left":[0,0,0,0,0,0,0,0,0,0,0,0,0,0,0,0,0,0,0,0,0,0,0,0,0],"id":2,"left_children":[1,3,5,7,9,11,13,-1,15,17,19,21,23,-1,-1,-1,-1,-1,-1,-1,-1,-1,-1,-1,-1],"loss_changes":[8.750145E2,6.3111923E1,7.8714966E1,2.6530762E0,4.2795944E0,1.0979813E1,7.6730957E0,0E0,1.221571E-1,6.0505855E-1,1.2485027E-1,3.9336777E-1,8.659363E-1,0E0,0E0,0E0,0E0,0E0,0E0,0E0,0E0,0E0,0E0,0E0,0E0],"parents":[2147483647,0,0,1,1,2,2,3,3,4,4,5,5,6,6,8,8,9,9,10,10,11,11,12,12],"right_children":[2,4,6,8,10,12,14,-1,16,18,20,22,24,-1,-1,-1,-1,-1,-1,-1,-1,-1,-1,-1,-1],"split_conditions":[5.480639E0,5.2123837E0,5.875905E0,5.109047E0,5.3563457E0,5.652489E0,6.0835953E0,-7.780257E-3,5.1730742E0,5.273E0,5.420535E0,5.5529594E0,5.7714877E0,2.864742E-2,3.7293147E-2,-5.051878E-3,-2.8218185E-3,-9.2311477E-4,1.7020283E-3,4.6481797E-3,7.0128106E-3,9.936708E-3,1.3459823E-2,1.7812755E-2,2.263656E-2],"split_indices":[17,17,17,17,17,17,17,0,17,17,17,17,17,0,0,0,0,0,0,0,0,0,0,0,0],"split_type":[0,0,0,0,0,0,0,0,0,0,0,0,0,0,0,0,0,0,0,0,0,0,0,0,0],"sum_hessian":[1.5098E4,1.1939E4,3.159E3,1.033E4,1.609E3,1.756E3,1.403E3,9.673E3,6.57E2,8.95E2,7.14E2,8.3E2,9.26E2,8.24E2,5.79E2,4.03E2,2.54E2,3.28E2,5.67E2,3.51E2,3.63E2,3.94E2,4.36E2,5.03E2,4.23E2],"tree_param":{"num_deleted":"0","num_feature":"245","num_nodes":"25","size_leaf_vector":"1"}},{"base_weights":[-7.800498E-4,-1.17660746E-1,4.401609E-1,-1.4319347E-1,6.0994294E-2,2.9055318E-1,5.9777707E-1,-7.3713646E-3,-7.526154E-2,7.5521637E-3,1.038695E-1,2.2367185E-1,3.6368158E-1,5.254909E-1,3.5150286E-2,-4.4424306E-3,-2.6008098E-3,-8.5510354E-4,1.1244727E-3,3.5898767E-3,6.1494294E-3,9.050368E-3,1.2436085E-2,1.580375E-2,1.974439E-2,2.345016E-2,2.8193358E-2],"categories":[],"categories_nodes":[],"categories_segments":[],"categories_sizes":[],"default_left":[0,0,0,0,0,0,0,0,0,0,0,0,0,0,0,0,0,0,0,0,0,0,0,0,0,0,0],"id":3,"left_children":[1,3,5,7,9,11,13,-1,15,17,19,21,23,25,-1,-1,-1,-1,-1,-1,-1,-1,-1,-1,-1,-1,-1],"loss_changes":[7.815534E2,5.4819626E1,7.3506165E1,2.7639465E0,3.3163643E0,7.1848297E0,9.384949E0,0E0,4.61421E-2,2.5696307E-1,2.815361E-1,3.6608124E-1,6.0012817E-2,1.9198608E-1,0E0,0E0,0E0,0E0,0E0,0E0,0E0,0E0,0E0,0E0,0E0,0E0,0E0],"parents":[2147483647,0,0,1,1,2,2,3,3,4,4,5,5,6,6,8,8,9,9,10,10,11,11,12,12,13,13],"right_children":[2,4,6,8,10,12,14,-1,16,18,20,22,24,26,-1,-1,-1,-1,-1,-1,-1,-1,-1,-1,-1,-1,-1],"split_conditions":[5.475329E0,5.2232437E0,5.8406415E0,5.117994E0,5.332719E0,5.652489E0,6.0776424E0,-7.3713646E-3,5.1817837E0,5.26269E0,5.3936276E0,5.5333896E0,5.7268257E0,5.9375362E0,3.5150286E-2,-4.4424306E-3,-2.6008098E-3,-8.5510354E-4,1.1244727E-3,3.5898767E-3,6.1494294E-3,9.050368E-3,1.2436085E-2,1.580375E-2,1.974439E-2,2.345016E-2,2.8193358E-2],"split_indices":[17,17,17,17,17,17,17,0,17,17,17,17,17,17,0,0,0,0,0,0,0,0,0,0,0,0,0],"split_type":[0,0,0,0,0,0,0,0,0,0,0,0,0,0,0,0,0,0,0,0,0,0,0,0,0,0,0],"sum_hessian":[1.5165E4,1.1991E4,3.174E3,1.0497E4,1.494E3,1.636E3,1.538E3,9.864E3,6.33E2,6.77E2,8.17E2,8.68E2,7.68E2,9.28E2,6.1E2,3.67E2,2.66E2,2.3E2,4.47E2,3.3E2,4.87E2,3.45E2,5.23E2,3.3E2,4.38E2,4.02E2,5.26E2],"tree_param":{"num_deleted":"0","num_feature":"245","num_nodes":"27","size_leaf_vector":"1"}},{"base_weights":[5.2157533E-4,-1.1417108E-1,4.112176E-1,-1.365651E-1,4.6776418E-2,2.5549623E-1,5.538173E-1,-7.035579E-3,-7.512255E-2,4.9998E-3,9.134859E-2,9.529821E-3,3.1307173E-1,2.3104249E-2,6.3734114E-1,-4.6280897E-3,-2.8233088E-3,-1.1290982E-3,9.907818E-4,2.7125897E-3,5.1060906E-3,1.3726585E-2,1.7121432E-2,2.9397134E-2,3.5352673E-2],"categories":[],"categories_nodes":[],"categories_segments":[],"categories_sizes":[],"default_left":[0,0,0,0,0,0,0,0,0,0,0,0,0,0,0,0,0,0,0,0,0,0,0,0,0],"id":4,"left_children":[1,3,5,7,9,11,13,-1,15,17,19,-1,21,-1,23,-1,-1,-1,-1,-1,-1,-1,-1,-1,-1],"loss_changes":[7.104337E2,4.2577972E1,7.188989E1,2.3893127E0,2.5762208E0,5.2324142E0,1.1141846E1,0E0,5.5231094E-2,3.075132E-1,9.996748E-2,0E0,3.5568237E-2,0E0,4.9868774E-1,0E0,0E0,0E0,0E0,0E0,0E0,0E0,0E0,0E0,0E0],"parents":[2147483647,0,0,1,1,2,2,3,3,4,4,5,5,6,6,8,8,9,9,10,10,12,12,14,14],"right_children":[2,4,6,8,10,12,14,-1,16,18,20,-1,22,-1,24,-1,-1,-1,-1,-1,-1,-1,-1,-1,-1],"split_conditions":[5.4510384E0,5.2123837E0,5.7991686E0,5.109047E0,5.332719E0,5.609472E0,5.996452E0,-7.035579E-3,5.1607003E0,5.2574954E0,5.3700156E0,9.529821E-3,5.6970935E0,2.3104249E-2,6.164377E0,-4.6280897E-3,-2.8233088E-3,-1.1290982E-3,9.907818E-4,2.7125897E-3,5.1060906E-3,1.3726585E-2,1.7121432E-2,2.9397134E-2,3.5352673E-2],"split_indices":[17,17,17,17,17,17,17,0,17,17,17,0,17,0,17,0,0,0,0,0,0,0,0,0,0],"split_type":[0,0,0,0,0,0,0,0,0,0,0,0,0,0,0,0,0,0,0,0,0,0,0,0,0],"sum_hessian":[1.507E4,1.178E4,3.29E3,1.0347E4,1.433E3,1.58E3,1.71E3,9.674E3,6.73E2,7.53E2,6.8E2,7.57E2,8.23E2,8.3E2,8.8E2,3.14E2,3.59E2,2.39E2,5.14E2,1.78E2,5.02E2,3.84E2,4.39E2,5.4E2,3.4E2],"tree_param":{"num_deleted":"0","num_feature":"245","num_nodes":"25","size_leaf_vector":"1"}},{"base_weights":[6.6552585E-4,-1.0716503E-1,3.9394614E-1,-1.3105159E-1,4.000206E-2,2.7577004E-1,5.5699426E-1,-6.691966E-3,-8.340751E-2,-0E0,8.91114E-2,2.0711467E-1,3.5293028E-1,2.4597669E-2,3.1827107E-2,-4.191627E-3,-0E0,-1.188868E-3,1.1331463E-3,3.1659023E-3,5.278043E-3,8.610035E-3,1.2180342E-2,1.5492997E-2,1.9513214E-2],"categories":[],"categories_nodes":[],"categories_segments":[],"categories_sizes":[],"default_left":[0,0,0,0,0,0,0,0,0,0,0,0,0,0,0,0,0,0,0,0,0,0,0,0,0],"id":5,"left_children":[1,3,5,7,9,11,13,-1,15,17,19,21,23,-1,-1,-1,-1,-1,-1,-1,-1,-1,-1,-1,-1],"loss_changes":[6.421687E2,4.185817E1,6.1502106E1,1.1073456E0,3.323241E0,9.280563E0,4.9840393E0,0E0,7.0114136E-3,4.9072868E-1,1.3013315E-1,7.566414E-1,3.5694885E-1,0E0,0E0,0E0,0E0,0E0,0E0,0E0,0E0,0E0,0E0,0E0,0E0],"parents":[2147483647,0,0,1,1,2,2,3,3,4,4,5,5,6,6,8,8,9,9,10,10,11,11,12,12],"right_children":[2,4,6,8,10,12,14,-1,16,18,20,22,24,-1,-1,-1,-1,-1,-1,-1,-1,-1,-1,-1,-1],"split_conditions":[5.4672213E0,5.198497E0,5.88816E0,5.0998664E0,5.332719E0,5.6801724E0,6.0835953E0,-6.691966E-3,4.087778E1,5.273E0,5.3936276E0,5.5683446E0,5.7807436E0,2.4597669E-2,3.1827107E-2,-4.191627E-3,-0E0,-1.188868E-3,1.1331463E-3,3.1659023E-3,5.278043E-3,8.610035E-3,1.2180342E-2,1.5492997E-2,1.9513214E-2],"split_indices":[17,17,17,17,17,17,17,0,2,17,17,17,17,0,0,0,0,0,0,0,0,0,0,0,0],"split_type":[0,0,0,0,0,0,0,0,0,0,0,0,0,0,0,0,0,0,0,0,0,0,0,0,0],"sum_hessian":[1.513E4,1.1874E4,3.256E3,1.0222E4,1.652E3,1.896E3,1.36E3,9.632E3,5.9E2,9.03E2,7.49E2,1.016E3,8.8E2,7.67E2,5.93E2,5.85E2,5E0,4.58E2,4.45E2,3.21E2,4.28E2,5.42E2,4.74E2,4.34E2,4.46E2],"tree_param":{"num_deleted":"0","num_feature":"245","num_nodes":"25","size_leaf_vector":"1"}},{"base_weights":[-0E0,-1.0221286E-1,3.728284E-1,-1.2287493E-1,4.7057867E-2,2.3109242E-1,5.0042015E-1,-6.3206227E-3,-6.0168833E-2,3.6359783E-3,8.056122E-2,1.761676E-1,1.4374721E-2,2.115427E-2,2.9173592E-2,-3.4215357E-3,-1.7438956E-3,-5.1957526E-4,9.020705E-4,2.6581218E-3,4.860754E-3,7.574007E-3,1.0036402E-2],"categories":[],"categories_nodes":[],"categories_segments":[],"categories_sizes":[],"default_left":[0,0,0,0,0,0,0,0,0,0,0,0,0,0,0,0,0,0,0,0,0,0,0],"id":6,"left_children":[1,3,5,7,9,11,13,-1,15,17,19,21,-1,-1,-1,-1,-1,-1,-1,-1,-1,-1,-1],"loss_changes":[5.7526733E2,3.6638344E1,5.7659515E1,2.1009216E0,2.0054414E0,4.179901E0,9.190857E0,0E0,1.0095835E-2,1.3794251E-1,1.9824171E-1,4.2245865E-2,0E0,0E0,0E0,0E0,0E0,0E0,0E0,0E0,0E0,0E0,0E0],"parents":[2147483647,0,0,1,1,2,2,3,3,4,4,5,5,6,6,8,8,9,9,10,10,11,11],"right_children":[2,4,6,8,10,12,14,-1,16,18,20,22,-1,-1,-1,-1,-1,-1,-1,-1,-1,-1,-1],"split_conditions":[5.4553213E0,5.2232437E0,5.7991686E0,5.1298985E0,5.31812E0,5.6174526E0,6.0210233E0,-6.3206227E-3,5.198497E0,5.273E0,5.3812146E0,5.529429E0,1.4374721E-2,2.115427E-2,2.9173592E-2,-3.4215357E-3,-1.7438956E-3,-5.1957526E-4,9.020705E-4,2.6581218E-3,4.860754E-3,7.574007E-3,1.0036402E-2],"split_indices":[17,17,17,17,17,17,17,0,17,17,17,17,0,0,0,0,0,0,0,0,0,0,0],"split_type":[0,0,0,0,0,0,0,0,0,0,0,0,0,0,0,0,0,0,0,0,0,0,0],"sum_hessian":[1.5091E4,1.1846E4,3.245E3,1.0412E4,1.434E3,1.545E3,1.7E3,9.838E3,5.74E2,6.39E2,7.95E2,7.98E2,7.47E2,8.96E2,8.04E2,3.99E2,1.75E2,2.89E2,3.5E2,3.28E2,4.67E2,4.29E2,3.69E2],"tree_param":{"num_deleted":"0","num_feature":"245","num_nodes":"23","size_leaf_vector":"1"}},{"base_weights":[8.6575415E-4,-9.249429E-2,3.7186846E-1,-1.165365E-1,5.3567424E-2,2.4358897E-1,4.8220047E-1,-5.992048E-3,-5.4266404E-2,1.2659975E-2,1.0285154E-1,1.9633761E-1,1.4845515E-2,2.0983215E-2,2.8391918E-2,-3.5153602E-3,-4.342808E-4,-3.0420235E-5,2.4653687E-3,4.2588157E-3,7.228974E-3,8.729986E-3,1.1805418E-2],"categories":[],"categories_nodes":[],"categories_segments":[],"categories_sizes":[],"default_left":[0,0,0,0,0,0,0,0,0,0,0,0,0,0,0,0,0,0,0,0,0,0,0],"id":7,"left_children":[1,3,5,7,9,11,13,-1,15,17,19,21,-1,-1,-1,-1,-1,-1,-1,-1,-1,-1,-1],"loss_changes":[5.2329474E2,4.243918E1,4.1919647E1,1.9389801E0,3.3099475E0,2.8969727E0,7.005554E0,0E0,3.1619096E-1,5.078104E-1,2.9383755E-1,1.3044357E-1,0E0,0E0,0E0,0E0,0E0,0E0,0E0,0E0,0E0,0E0,0E0],"parents":[2147483647,0,0,1,1,2,2,3,3,4,4,5,5,6,6,8,8,9,9,10,10,11,11],"right_children":[2,4,6,8,10,12,14,-1,16,18,20,22,-1,-1,-1,-1,-1,-1,-1,-1,-1,-1,-1],"split_conditions":[2.4E2,1.8E2,3.29E2,1.64E2,2.07E2,2.8E2,4.17E2,-5.992048E-3,5.7E-1,5.7E-1,5.7E-1,5.7E-1,1.4845515E-2,2.0983215E-2,2.8391918E-2,-3.5153602E-3,-4.342808E-4,-3.0420235E-5,2.4653687E-3,4.2588157E-3,7.228974E-3,8.729986E-3,1.1805418E-2],"split_indices":[4,4,4,4,4,4,4,0,12,12,12,12,0,0,0,0,0,0,0,0,0,0,0],"split_type":[0,0,0,0,0,0,0,0,0,0,0,0,0,0,0,0,0,0,0,0,0,0,0],"sum_hessian":[1.5094E4,1.2059E4,3.035E3,1.0361E4,1.698E3,1.412E3,1.623E3,9.821E3,5.4E2,9.41E2,7.57E2,7.66E2,6.46E2,9.55E2,6.68E2,3.82E2,1.58E2,6.73E2,2.68E2,5.55E2,2.02E2,5.22E2,2.44E2],"tree_param":{"num_deleted":"0","num_feature":"245","num_nodes":"23","size_leaf_vector":"1"}},{"base_weights":[-0E0,-9.034671E-2,3.4191847E-1,-1.1119161E-1,4.6500962E-2,2.2056101E-1,4.527201E-1,-5.7221167E-3,-4.9861062E-2,7.7913753E-3,8.469522E-2,1.7485255E-1,1.3585018E-2,1.9266935E-2,2.621968E-2,-3.2352235E-3,-4.3443587E-4,-1.6490949E-4,2.130187E-3,3.4001574E-3,6.1635463E-3,7.7996547E-3,1.0580724E-2],"categories":[],"categories_nodes":[],"categories_segments":[],"categories_sizes":[],"default_left":[0,0,0,0,0,0,0,0,0,0,0,0,0,0,0,0,0,0,0,0,0,0,0],"id":8,"left_children":[1,3,5,7,9,11,13,-1,15,17,19,21,-1,-1,-1,-1,-1,-1,-1,-1,-1,-1,-1],"loss_changes":[4.691395E2,3.435389E1,4.1706696E1,1.8988037E0,2.2474527E0,2.9756165E0,6.4623413E0,0E0,2.5860155E-1,3.4972835E-1,2.884016E-1,1.046505E-1,0E0,0E0,0E0,0E0,0E0,0E0,0E0,0E0,0E0,0E0,0E0],"parents":[2147483647,0,0,1,1,2,2,3,3,4,4,5,5,6,6,8,8,9,9,10,10,11,11],"right_children":[2,4,6,8,10,12,14,-1,16,18,20,22,-1,-1,-1,-1,-1,-1,-1,-1,-1,-1,-1],"split_conditions":[2.33E2,1.8E2,3.24E2,1.64E2,2.02E2,2.75E2,4E2,-5.7221167E-3,1E0,5.966667E-1,1E0,1E0,1.3585018E-2,1.9266935E-2,2.621968E-2,-3.2352235E-3,-4.3443587E-4,-1.6490949E-4,2.130187E-3,3.4001574E-3,6.1635463E-3,7.7996547E-3,1.0580724E-2],"split_indices":[4,4,4,4,4,4,4,0,11,12,11,11,0,0,0,0,0,0,0,0,0,0,0],"split_type":[0,0,0,0,0,0,0,0,0,0,0,0,0,0,0,0,0,0,0,0,0,0,0],"sum_hessian":[1.5183E4,1.2012E4,3.171E3,1.0431E4,1.581E3,1.522E3,1.649E3,9.888E3,5.43E2,8E2,7.81E2,8.21E2,7.01E2,8.67E2,7.82E2,3.8E2,1.63E2,5.87E2,2.13E2,5.69E2,2.12E2,5.71E2,2.5E2],"tree_param":{"num_deleted":"0","num_feature":"245","num_nodes":"23","size_leaf_vector":"1"}},{"base_weights":[-7.9812366E-4,-8.763192E-2,3.1903192E-1,-1.05243914E-1,3.983667E-2,2.2310255E-1,4.5607588E-1,-5.4328865E-3,-5.713042E-2,1.0367265E-2,7.682769E-2,1.6627435E-1,2.885443E-1,2.0410711E-2,2.6640147E-2,-3.4097899E-3,-1.9557269E-3,-1.321905E-4,1.5171051E-3,2.5703178E-3,4.396595E-3,6.59663E-3,9.619298E-3,1.2365928E-2,1.5692534E-2],"categories":[],"categories_nodes":[],"categories_segments":[],"categories_sizes":[],"default_left":[0,0,0,0,0,0,0,0,0,0,0,0,0,0,0,0,0,0,0,0,0,0,0,0,0],"id":9,"left_children":[1,3,5,7,9,11,13,-1,15,17,19,21,23,-1,-1,-1,-1,-1,-1,-1,-1,-1,-1,-1,-1],"loss_changes":[4.1993262E2,2.6795456E1,4.1452606E1,1.5343094E0,1.4801645E0,6.5006943E0,3.261261E0,0E0,2.8021812E-2,2.4105212E-1,2.2963762E-2,5.294304E-1,1.1883545E-1,0E0,0E0,0E0,0E0,0E0,0E0,0E0,0E0,0E0,0E0,0E0,0E0],"parents":[2147483647,0,0,1,1,2,2,3,3,4,4,5,5,6,6,8,8,9,9,10,10,11,11,12,12],"right_children":[2,4,6,8,10,12,14,-1,16,18,20,22,24,-1,-1,-1,-1,-1,-1,-1,-1,-1,-1,-1,-1],"split_conditions":[5.4553213E0,5.2232437E0,5.888878E0,5.109047E0,5.351858E0,5.6801724E0,6.1114674E0,-5.4328865E-3,5.1730742E0,5.3033047E0,5.3936276E0,5.543884E0,5.7589016E0,2.0410711E-2,2.6640147E-2,-3.4097899E-3,-1.9557269E-3,-1.321905E-4,1.5171051E-3,2.5703178E-3,4.396595E-3,6.59663E-3,9.619298E-3,1.2365928E-2,1.5692534E-2],"split_indices":[17,17,17,17,17,17,17,0,17,17,17,17,17,0,0,0,0,0,0,0,0,0,0,0,0],"split_type":[0,0,0,0,0,0,0,0,0,0,0,0,0,0,0,0,0,0,0,0,0,0,0,0,0],"sum_hessian":[1.5123E4,1.1898E4,3.225E3,1.0461E4,1.437E3,1.906E3,1.319E3,9.745E3,7.16E2,8.17E2,6.2E2,1.034E3,8.72E2,8.32E2,4.87E2,4.04E2,3.12E2,4.66E2,3.51E2,2.21E2,3.99E2,4.71E2,5.63E2,3.59E2,5.13E2],"tree_param":{"num_deleted":"0","num_feature":"245","num_nodes":"25","size_leaf_vector":"1"}},{"base_weights":[-9.0992555E-4,-8.0377206E-2,3.1391755E-1,-1.00305036E-1,4.4591945E-2,2.2260016E-1,4.3488404E-1,-5.1431186E-3,-4.8458472E-2,8.230367E-3,8.184987E-2,1.714848E-1,1.3943455E-2,1.9441659E-2,2.5291026E-2,-0E0,-2.4439713E-3,-5.569875E-4,1.1219123E-3,2.7253309E-3,4.7428175E-3,6.920004E-3,9.7326E-3],"categories":[],"categories_nodes":[],"categories_segments":[],"categories_sizes":[],"default_left":[0,0,0,0,0,0,0,0,0,0,0,0,0,0,0,0,0,0,0,0,0,0,0],"id":10,"left_children":[1,3,5,7,9,11,13,-1,15,17,19,21,-1,-1,-1,-1,-1,-1,-1,-1,-1,-1,-1],"loss_changes":[3.780716E2,3.0142776E1,3.26882E1,1.2156906E0,2.1513765E0,4.4280396E0,2.7685242E0,0E0,6.7259073E-3,2.4735141E-1,1.21059895E-1,3.0048943E-1,0E0,0E0,0E0,0E0,0E0,0E0,0E0,0E0,0E0,0E0,0E0],"parents":[2147483647,0,0,1,1,2,2,3,3,4,4,5,5,6,6,8,8,9,9,10,10,11,11],"right_children":[2,4,6,8,10,12,14,-1,16,18,20,22,-1,-1,-1,-1,-1,-1,-1,-1,-1,-1,-1],"split_conditions":[5.4912205E0,5.2123837E0,5.888878E0,5.1357985E0,5.351858E0,5.6970935E0,6.1114674E0,-5.1431186E-3,2.87348E5,5.273E0,5.39852E0,5.57337E0,1.3943455E-2,1.9441659E-2,2.5291026E-2,-0E0,-2.4439713E-3,-5.569875E-4,1.1219123E-3,2.7253309E-3,4.7428175E-3,6.920004E-3,9.7326E-3],"split_indices":[17,17,17,17,17,17,17,0,1,17,17,17,0,0,0,0,0,0,0,0,0,0,0],"split_type":[0,0,0,0,0,0,0,0,0,0,0,0,0,0,0,0,0,0,0,0,0,0,0],"sum_hessian":[1.5115E4,1.2073E4,3.042E3,1.042E4,1.653E3,1.743E3,1.299E3,9.909E3,5.11E2,8.52E2,8.01E2,9.29E2,8.14E2,8.08E2,4.91E2,6E0,5.05E2,3.31E2,5.21E2,2.88E2,5.13E2,4.09E2,5.2E2],"tree_param":{"num_deleted":"0","num_feature":"245","num_nodes":"23","size_leaf_vector":"1"}},{"base_weights":[6.704569E-5,-7.956304E-2,2.9070723E-1,-9.574127E-2,3.1758502E-2,1.8630798E-1,3.9523947E-1,-9.842297E-2,-5.5329632E-2,-5.220401E-4,6.2122084E-2,6.616533E-3,2.2731188E-1,3.4581232E-1,2.3466198E-2,-4.9225306E-3,-0E0,-2.7911877E-3,-0E0,-8.360324E-4,5.762176E-4,2.1849002E-3,3.8651943E-3,1.010461E-2,1.2988383E-2,1.5238196E-2,1.8694315E-2],"categories":[],"categories_nodes":[],"categories_segments":[],"categories_sizes":[],"default_left":[0,0,0,0,0,0,0,0,0,0,0,0,0,0,0,0,0,0,0,0,0,0,0,0,0,0,0],"id":11,"left_children":[1,3,5,7,9,11,13,15,17,19,21,-1,23,25,-1,-1,-1,-1,-1,-1,-1,-1,-1,-1,-1,-1,-1],"loss_changes":[3.5106964E2,2.1499428E1,3.4806976E1,9.5654297E-1,1.5358474E0,3.1865387E0,4.6410522E0,4.4403076E-3,1.5369177E-2,1.4549087E-1,9.011531E-2,0E0,1.3287354E-1,1.238327E-1,0E0,0E0,0E0,0E0,0E0,0E0,0E0,0E0,0E0,0E0,0E0,0E0,0E0],"parents":[2147483647,0,0,1,1,2,2,3,3,4,4,5,5,6,6,7,7,8,8,9,9,10,10,12,12,13,13],"right_children":[2,4,6,8,10,12,14,16,18,20,22,-1,24,26,-1,-1,-1,-1,-1,-1,-1,-1,-1,-1,-1,-1,-1],"split_conditions":[5.4553213E0,5.2040067E0,5.8261623E0,5.1033664E0,5.31812E0,5.609472E0,6.0684257E0,1E0,1E0,5.267858E0,5.3936276E0,6.616533E-3,5.730392E0,5.9295893E0,2.3466198E-2,-4.9225306E-3,-0E0,-2.7911877E-3,-0E0,-8.360324E-4,5.762176E-4,2.1849002E-3,3.8651943E-3,1.010461E-2,1.2988383E-2,1.5238196E-2,1.8694315E-2],"split_indices":[17,17,17,17,17,17,17,40,176,17,17,0,17,17,0,0,0,0,0,0,0,0,0,0,0,0,0],"split_type":[0,0,0,0,0,0,0,0,0,0,0,0,0,0,0,0,0,0,0,0,0,0,0,0,0,0,0],"sum_hessian":[1.5154E4,1.1894E4,3.26E3,1.0393E4,1.501E3,1.64E3,1.62E3,9.719E3,6.74E2,7.13E2,7.88E2,7.24E2,9.16E2,9.9E2,6.3E2,9.714E3,5E0,6.67E2,7E0,3.39E2,3.74E2,3.91E2,3.97E2,5.45E2,3.71E2,4.31E2,5.59E2],"tree_param":{"num_deleted":"0","num_feature":"245","num_nodes":"27","size_leaf_vector":"1"}},{"base_weights":[-1.7523678E-4,-7.2542824E-2,2.8894103E-1,-9.076821E-2,4.5493923E-2,2.0787993E-1,3.975673E-1,-4.689548E-3,-4.845013E-2,8.823838E-3,7.337328E-2,1.6587557E-1,1.3307745E-2,1.8166928E-2,2.3621868E-2,-3.0414271E-3,-1.7543099E-3,-0E0,1.1769531E-3,2.8239132E-3,4.733285E-3,6.7632147E-3,9.41568E-3],"categories":[],"categories_nodes":[],"categories_segments":[],"categories_sizes":[],"default_left":[0,0,0,0,0,0,0,0,0,0,0,0,0,0,0,0,0,0,0,0,0,0,0],"id":12,"left_children":[1,3,5,7,9,11,13,-1,15,17,19,21,-1,-1,-1,-1,-1,-1,-1,-1,-1,-1,-1],"loss_changes":[3.1642706E2,2.6103039E1,2.5800415E1,1.1867447E0,1.5659149E0,3.7069397E0,1.9423523E0,0E0,1.8111467E-2,1.11032456E-1,1.5693855E-1,3.088417E-1,0E0,0E0,0E0,0E0,0E0,0E0,0E0,0E0,0E0,0E0,0E0],"parents":[2147483647,0,0,1,1,2,2,3,3,4,4,5,5,6,6,8,8,9,9,10,10,11,11],"right_children":[2,4,6,8,10,12,14,-1,16,18,20,22,-1,-1,-1,-1,-1,-1,-1,-1,-1,-1,-1],"split_conditions":[5.505238E0,5.2278304E0,5.908083E0,5.109047E0,5.3423343E0,5.7268257E0,6.1484685E0,-4.689548E-3,5.170484E0,5.3033047E0,5.433722E0,5.602119E0,1.3307745E-2,1.8166928E-2,2.3621868E-2,-3.0414271E-3,-1.7543099E-3,-0E0,1.1769531E-3,2.8239132E-3,4.733285E-3,6.7632147E-3,9.41568E-3],"split_indices":[17,17,17,17,17,17,17,0,17,17,17,17,0,0,0,0,0,0,0,0,0,0,0],"split_type":[0,0,0,0,0,0,0,0,0,0,0,0,0,0,0,0,0,0,0,0,0,0,0],"sum_hessian":[1.5128E4,1.2104E4,3.024E3,1.0493E4,1.611E3,1.742E3,1.282E3,9.768E3,7.25E2,7.13E2,8.98E2,1.029E3,7.13E2,9.01E2,3.81E2,3.32E2,3.93E2,4.15E2,2.98E2,5.33E2,3.65E2,4.63E2,5.66E2],"tree_param":{"num_deleted":"0","num_feature":"245","num_nodes":"23","size_leaf_vector":"1"}},{"base_weights":[-0E0,-7.045989E-2,2.6443732E-1,-8.60251E-2,3.542136E-2,1.7568329E-1,3.613855E-1,-4.4169286E-3,-4.201539E-2,1.0383441E-2,6.88111E-2,1.3398896E-1,1.0968015E-2,1.5716521E-2,2.1248693E-2,-2.1286728E-3,-0E0,-8.752316E-5,1.3207075E-3,3.4552438E-3,-0E0,5.488544E-3,7.628613E-3],"categories":[],"categories_nodes":[],"categories_segments":[],"categories_sizes":[],"default_left":[0,0,0,0,0,0,0,0,0,0,0,0,0,0,0,0,0,0,0,0,0,0,0],"id":13,"left_children":[1,3,5,7,9,11,13,-1,15,17,19,21,-1,-1,-1,-1,-1,-1,-1,-1,-1,-1,-1],"loss_changes":[2.8409985E2,1.9902428E1,2.6875824E1,9.281845E-1,1.2036088E0,2.6288223E0,3.422989E0,0E0,6.1202645E-3,1.9967145E-1,2.0933151E-3,8.436012E-2,0E0,0E0,0E0,0E0,0E0,0E0,0E0,0E0,0E0,0E0,0E0],"parents":[2147483647,0,0,1,1,2,2,3,3,4,4,5,5,6,6,8,8,9,9,10,10,11,11],"right_children":[2,4,6,8,10,12,14,-1,16,18,20,22,-1,-1,-1,-1,-1,-1,-1,-1,-1,-1,-1],"split_conditions":[5.4672213E0,5.2232437E0,5.8509746E0,5.1357985E0,5.3612924E0,5.652489E0,6.0684257E0,-4.4169286E-3,3.2E1,5.3033047E0,1E0,5.543884E0,1.0968015E-2,1.5716521E-2,2.1248693E-2,-2.1286728E-3,-0E0,-8.752316E-5,1.3207075E-3,3.4552438E-3,-0E0,5.488544E-3,7.628613E-3],"split_indices":[17,17,17,17,17,17,17,0,5,17,133,17,0,0,0,0,0,0,0,0,0,0,0],"split_type":[0,0,0,0,0,0,0,0,0,0,0,0,0,0,0,0,0,0,0,0,0,0,0],"sum_hessian":[1.5242E4,1.2037E4,3.205E3,1.0503E4,1.534E3,1.683E3,1.522E3,9.954E3,5.49E2,8.96E2,6.38E2,8.79E2,8.04E2,8.94E2,6.28E2,5.38E2,1.1E1,4.76E2,4.2E2,6.33E2,5E0,4.14E2,4.65E2],"tree_param":{"num_deleted":"0","num_feature":"245","num_nodes":"23","size_leaf_vector":"1"}},{"base_weights":[9.641646E-4,-6.5833874E-2,2.564369E-1,-8.152588E-2,3.6781553E-2,1.8008047E-1,3.5581452E-1,-8.4278345E-2,-4.6257347E-2,8.960953E-3,6.716199E-2,1.4013684E-1,1.1534578E-2,3.24564E-1,2.1717604E-2,-4.2155455E-3,-0E0,-2.8766452E-3,-1.61769E-3,-4.2058215E-5,1.1676456E-3,2.5884265E-3,4.0140334E-3,5.513552E-3,7.9004625E-3,1.3901529E-2,1.7215941E-2],"categories":[],"categories_nodes":[],"categories_segments":[],"categories_sizes":[],"default_left":[0,0,0,0,0,0,0,0,0,0,0,0,0,0,0,0,0,0,0,0,0,0,0,0,0,0,0],"id":14,"left_children":[1,3,5,7,9,11,13,15,17,19,21,23,-1,25,-1,-1,-1,-1,-1,-1,-1,-1,-1,-1,-1,-1,-1],"loss_changes":[2.5853827E2,1.9373417E1,2.310617E1,8.6891174E-1,1.2617166E0,3.1467896E0,2.146225E0,3.1280518E-3,2.7907252E-2,1.4219943E-1,4.9197674E-3,2.2283173E-1,0E0,1.4419556E-3,0E0,0E0,0E0,0E0,0E0,0E0,0E0,0E0,0E0,0E0,0E0,0E0,0E0],"parents":[2147483647,0,0,1,1,2,2,3,3,4,4,5,5,6,6,7,7,8,8,9,9,10,10,11,11,13,13],"right_children":[2,4,6,8,10,12,14,16,18,20,22,24,-1,26,-1,-1,-1,-1,-1,-1,-1,-1,-1,-1,-1,-1,-1],"split_conditions":[5.486704E0,5.2232437E0,5.888878E0,5.0998664E0,5.3612924E0,5.7071104E0,6.156979E0,1E0,5.164786E0,5.3033047E0,5.424644E0,5.5683446E0,1.1534578E-2,5.963579E0,2.1717604E-2,-4.2155455E-3,-0E0,-2.8766452E-3,-1.61769E-3,-4.2058215E-5,1.1676456E-3,2.5884265E-3,4.0140334E-3,5.513552E-3,7.9004625E-3,1.3901529E-2,1.7215941E-2],"split_indices":[17,17,17,17,17,17,17,195,17,17,17,17,0,17,0,0,0,0,0,0,0,0,0,0,0,0,0],"split_type":[0,0,0,0,0,0,0,0,0,0,0,0,0,0,0,0,0,0,0,0,0,0,0,0,0,0,0],"sum_hessian":[1.5133E4,1.1995E4,3.138E3,1.0413E4,1.582E3,1.785E3,1.353E3,9.629E3,7.84E2,8.45E2,7.37E2,1.015E3,7.7E2,9.88E2,3.65E2,9.622E3,7E0,3.88E2,3.96E2,4.63E2,3.82E2,3.81E2,3.56E2,4.09E2,6.06E2,3.23E2,6.65E2],"tree_param":{"num_deleted":"0","num_feature":"245","num_nodes":"27","size_leaf_vector":"1"}},{"base_weights":[1.0080821E-3,-6.2928796E-2,2.4052793E-1,-7.723525E-2,3.5737284E-2,1.6948453E-1,3.3627442E-1,-7.992002E-2,-4.041013E-2,1.0284043E-2,6.4659745E-2,1.3007832E-1,1.08051365E-2,1.5483744E-2,2.0667726E-2,-3.997337E-3,-0E0,-2.4190766E-3,-1.219765E-3,-0E0,1.1427983E-3,-0E0,3.2472995E-3,5.013576E-3,7.2672437E-3],"categories":[],"categories_nodes":[],"categories_segments":[],"categories_sizes":[],"default_left":[0,0,0,0,0,0,0,0,0,0,0,0,0,0,0,0,0,0,0,0,0,0,0,0,0],"id":15,"left_children":[1,3,5,7,9,11,13,15,17,19,21,23,-1,-1,-1,-1,-1,-1,-1,-1,-1,-1,-1,-1,-1],"loss_changes":[2.3201799E2,1.6912296E1,2.1042526E1,9.0244675E-1,1.0317339E0,2.9588356E0,1.6629181E0,9.506226E-3,1.8278718E-2,1.276627E-1,4.3599606E-3,1.7435455E-1,0E0,0E0,0E0,0E0,0E0,0E0,0E0,0E0,0E0,0E0,0E0,0E0,0E0],"parents":[2147483647,0,0,1,1,2,2,3,3,4,4,5,5,6,6,7,7,8,8,9,9,10,10,11,11],"right_children":[2,4,6,8,10,12,14,16,18,20,22,24,-1,-1,-1,-1,-1,-1,-1,-1,-1,-1,-1,-1,-1],"split_conditions":[5.480639E0,5.2278304E0,5.888878E0,5.109047E0,5.3612924E0,5.6970935E0,6.164377E0,1E0,5.1817837E0,5.3033047E0,4.0585E1,5.543884E0,1.08051365E-2,1.5483744E-2,2.0667726E-2,-3.997337E-3,-0E0,-2.4190766E-3,-1.219765E-3,-0E0,1.1427983E-3,-0E0,3.2472995E-3,5.013576E-3,7.2672437E-3],"split_indices":[17,17,17,17,17,17,17,40,17,17,2,17,0,0,0,0,0,0,0,0,0,0,0,0,0],"split_type":[0,0,0,0,0,0,0,0,0,0,0,0,0,0,0,0,0,0,0,0,0,0,0,0,0],"sum_hessian":[1.5133E4,1.1943E4,3.19E3,1.044E4,1.503E3,1.842E3,1.348E3,9.702E3,7.38E2,8.2E2,6.83E2,1.016E3,8.26E2,1.023E3,3.25E2,9.697E3,5E0,4.47E2,2.91E2,4.12E2,4.08E2,5E0,6.78E2,3.74E2,6.42E2],"tree_param":{"num_deleted":"0","num_feature":"245","num_nodes":"25","size_leaf_vector":"1"}},{"base_weights":[-1.0401508E-4,-6.1051406E-2,2.2643545E-1,-7.4435174E-2,2.666649E-2,1.4572746E-1,3.0674914E-1,-7.606966E-2,-3.7901483E-2,-3.9328902E-4,4.8527107E-2,1.13916665E-1,9.156682E-3,1.2834045E-2,1.7651716E-2,-3.8062439E-3,-0E0,-2.3458053E-3,-3.0380982E-4,-5.600806E-4,1.1250781E-3,1.4299502E-3,3.2476594E-3,5.034508E-3,7.0951353E-3],"categories":[],"categories_nodes":[],"categories_segments":[],"categories_sizes":[],"default_left":[0,0,0,0,0,0,0,0,0,0,0,0,0,0,0,0,0,0,0,0,0,0,0,0,0],"id":16,"left_children":[1,3,5,7,9,11,13,15,17,19,21,23,-1,-1,-1,-1,-1,-1,-1,-1,-1,-1,-1,-1,-1],"loss_changes":[2.0885866E2,1.4063015E1,2.019458E1,4.9625397E-1,9.780973E-1,1.5573235E0,2.8216553E0,1.991272E-3,8.2713604E-2,1.5896285E-1,1.9220805E-1,4.5093536E-2,0E0,0E0,0E0,0E0,0E0,0E0,0E0,0E0,0E0,0E0,0E0,0E0,0E0],"parents":[2147483647,0,0,1,1,2,2,3,3,4,4,5,5,6,6,7,7,8,8,9,9,10,10,11,11],"right_children":[2,4,6,8,10,12,14,16,18,20,22,24,-1,-1,-1,-1,-1,-1,-1,-1,-1,-1,-1,-1,-1],"split_conditions":[2.3E2,1.77E2,3.29E2,1.64E2,2E2,2.75E2,4E2,3.58E2,5.966667E-1,5.966667E-1,2.12E2,5.966667E-1,9.156682E-3,1.2834045E-2,1.7651716E-2,-3.8062439E-3,-0E0,-2.3458053E-3,-3.0380982E-4,-5.600806E-4,1.1250781E-3,1.4299502E-3,3.2476594E-3,5.034508E-3,7.0951353E-3],"split_indices":[4,4,4,4,4,4,4,6,12,12,4,12,0,0,0,0,0,0,0,0,0,0,0,0,0],"split_type":[0,0,0,0,0,0,0,0,0,0,0,0,0,0,0,0,0,0,0,0,0,0,0,0,0],"sum_hessian":[1.5133E4,1.193E4,3.203E3,1.0361E4,1.569E3,1.608E3,1.595E3,9.888E3,4.73E2,6.82E2,8.87E2,8.9E2,7.18E2,7.86E2,8.09E2,9.874E3,1.4E1,3.43E2,1.3E2,4.94E2,1.88E2,4.32E2,4.55E2,6.38E2,2.52E2],"tree_param":{"num_deleted":"0","num_feature":"245","num_nodes":"25","size_leaf_vector":"1"}},{"base_weights":[-4.1839256E-4,-5.626031E-2,2.2133704E-1,-6.973768E-2,3.7011966E-2,1.6256689E-1,3.1670123E-1,-7.202954E-2,-2.7087204E-2,1.4959475E-2,3.0462032E-3,1.2770359E-1,1.0533749E-2,1.4426454E-2,1.8933915E-2,-3.6330149E-3,-2.4800056E-3,-1.3871052E-3,-0E0,2.3444773E-5,1.1570638E-3,5.1875585E-3,7.163644E-3],"categories":[],"categories_nodes":[],"categories_segments":[],"categories_sizes":[],"default_left":[0,0,0,0,0,0,0,0,0,0,0,0,0,0,0,0,0,0,0,0,0,0,0],"id":17,"left_children":[1,3,5,7,9,11,13,15,17,19,-1,21,-1,-1,-1,-1,-1,-1,-1,-1,-1,-1,-1],"loss_changes":[1.8744135E2,1.52584915E1,1.642659E1,9.299965E-1,7.234378E-1,2.760891E0,1.0147018E0,8.743286E-3,7.276058E-3,7.322E-2,0E0,1.2568092E-1,0E0,0E0,0E0,0E0,0E0,0E0,0E0,0E0,0E0,0E0,0E0],"parents":[2147483647,0,0,1,1,2,2,3,3,4,4,5,5,6,6,7,7,8,8,9,9,11,11],"right_children":[2,4,6,8,10,12,14,16,18,20,-1,22,-1,-1,-1,-1,-1,-1,-1,-1,-1,-1,-1],"split_conditions":[5.497168E0,5.247024E0,5.9295893E0,5.147794E0,5.376123E0,5.730392E0,6.164377E0,5.0998664E0,1.84E2,5.3033047E0,3.0462032E-3,5.590987E0,1.0533749E-2,1.4426454E-2,1.8933915E-2,-3.6330149E-3,-2.4800056E-3,-1.3871052E-3,-0E0,2.3444773E-5,1.1570638E-3,5.1875585E-3,7.163644E-3],"split_indices":[17,17,17,17,17,17,17,17,8,17,0,17,0,0,0,0,0,0,0,0,0,0,0],"split_type":[0,0,0,0,0,0,0,0,0,0,0,0,0,0,0,0,0,0,0,0,0,0,0],"sum_hessian":[1.5144E4,1.2103E4,3.041E3,1.0585E4,1.518E3,1.893E3,1.148E3,1.0021E4,5.64E2,8.14E2,7.04E2,1.116E3,7.77E2,8.12E2,3.36E2,9.697E3,3.24E2,5.47E2,1.7E1,3.39E2,4.75E2,4.74E2,6.42E2],"tree_param":{"num_deleted":"0","num_feature":"245","num_nodes":"23","size_leaf_vector":"1"}},{"base_weights":[3.9792652E-4,-5.4513503E-2,2.081405E-1,-6.665177E-2,3.0001007E-2,1.4187866E-1,2.892486E-1,-6.8504065E-2,-2.956112E-2,5.20045E-3,4.918441E-2,1.14456825E-1,9.426763E-3,2.642121E-1,1.8050272E-2,-3.4262612E-3,-0E0,-1.5033956E-3,-0E0,-2.9004525E-4,5.9038243E-4,1.4764358E-3,2.9206527E-3,4.374336E-3,6.426853E-3,1.1177248E-2,1.4146409E-2],"categories":[],"categories_nodes":[],"categories_segments":[],"categories_sizes":[],"default_left":[0,0,0,0,0,0,0,0,0,0,0,0,0,0,0,0,0,0,0,0,0,0,0,0,0,0,0],"id":18,"left_children":[1,3,5,7,9,11,13,15,17,19,21,23,-1,25,-1,-1,-1,-1,-1,-1,-1,-1,-1,-1,-1,-1,-1],"loss_changes":[1.7307887E2,1.2338604E1,1.6498642E1,6.166878E-1,6.570592E-1,1.8827515E0,1.6343384E0,7.209778E-4,1.1495948E-2,5.5567477E-2,5.580938E-2,1.7897224E-1,0E0,1.1971283E-1,0E0,0E0,0E0,0E0,0E0,0E0,0E0,0E0,0E0,0E0,0E0,0E0,0E0],"parents":[2147483647,0,0,1,1,2,2,3,3,4,4,5,5,6,6,7,7,8,8,9,9,10,10,11,11,13,13],"right_children":[2,4,6,8,10,12,14,16,18,20,22,24,-1,26,-1,-1,-1,-1,-1,-1,-1,-1,-1,-1,-1,-1,-1],"split_conditions":[5.480639E0,5.2278304E0,5.875905E0,5.1474943E0,5.332719E0,5.710427E0,6.164377E0,1E0,6.809916E8,5.26269E0,5.3899183E0,5.556828E0,9.426763E-3,5.963579E0,1.8050272E-2,-3.4262612E-3,-0E0,-1.5033956E-3,-0E0,-2.9004525E-4,5.9038243E-4,1.4764358E-3,2.9206527E-3,4.374336E-3,6.426853E-3,1.1177248E-2,1.4146409E-2],"split_indices":[17,17,17,17,17,17,17,76,1,17,17,17,0,17,0,0,0,0,0,0,0,0,0,0,0,0,0],"split_type":[0,0,0,0,0,0,0,0,0,0,0,0,0,0,0,0,0,0,0,0,0,0,0,0,0,0,0],"sum_hessian":[1.5153E4,1.1983E4,3.17E3,1.0489E4,1.494E3,1.756E3,1.414E3,9.962E3,5.27E2,6.76E2,8.18E2,1.126E3,6.3E2,1.069E3,3.45E2,9.956E3,6E0,5.22E2,5E0,1.97E2,4.79E2,3E2,5.18E2,4.18E2,7.08E2,3.66E2,7.03E2],"tree_param":{"num_deleted":"0","num_feature":"245","num_nodes":"27","size_leaf_vector":"1"}},{"base_weights":[-1.8345758E-4,-5.2924436E-2,1.9157632E-1,-6.378807E-2,2.152366E-2,1.21051535E-1,2.626534E-1,-6.565888E-2,-3.6451403E-2,-0E0,4.100016E-2,4.540227E-3,7.547997E-3,1.0778255E-2,3.0174103E-1,-3.284684E-3,-0E0,-0E0,-1.8779872E-3,-5.5792567E-4,4.5519834E-4,2.0806515E-3,-0E0,1.368292E-2,1.7183002E-2],"categories":[],"categories_nodes":[],"categories_segments":[],"categories_sizes":[],"default_left":[0,0,0,0,0,0,0,0,0,0,0,0,0,0,0,0,0,0,0,0,0,0,0,0,0],"id":19,"left_children":[1,3,5,7,9,11,13,15,17,19,21,-1,-1,-1,23,-1,-1,-1,-1,-1,-1,-1,-1,-1,-1],"loss_changes":[1.5327461E2,9.671635E0,1.5902412E1,4.2248154E-1,6.0342264E-1,1.2124805E0,2.2655945E0,9.7846985E-3,2.1315992E-2,7.357287E-2,1.32136345E-2,0E0,0E0,0E0,1.1882019E-1,0E0,0E0,0E0,0E0,0E0,0E0,0E0,0E0,0E0,0E0],"parents":[2147483647,0,0,1,1,2,2,3,3,4,4,5,5,6,6,7,7,8,8,9,9,10,10,14,14],"right_children":[2,4,6,8,10,12,14,16,18,20,22,-1,-1,-1,24,-1,-1,-1,-1,-1,-1,-1,-1,-1,-1],"split_conditions":[5.4553213E0,5.2040067E0,5.820083E0,5.0998664E0,5.31812E0,5.623644E0,5.996452E0,1E0,5E-2,5.2574954E0,1E0,4.540227E-3,7.547997E-3,1.0778255E-2,6.1732225E0,-3.284684E-3,-0E0,-0E0,-1.8779872E-3,-5.5792567E-4,4.5519834E-4,2.0806515E-3,-0E0,1.368292E-2,1.7183002E-2],"split_indices":[17,17,17,17,17,17,17,195,7,17,80,0,0,0,17,0,0,0,0,0,0,0,0,0,0],"split_type":[0,0,0,0,0,0,0,0,0,0,0,0,0,0,0,0,0,0,0,0,0,0,0,0,0],"sum_hessian":[1.5163E4,1.1898E4,3.265E3,1.0395E4,1.503E3,1.65E3,1.615E3,9.691E3,7.04E2,7.32E2,7.71E2,8.43E2,8.07E2,7.53E2,8.62E2,9.683E3,8E0,2.6E1,6.78E2,2.95E2,4.37E2,7.56E2,1.5E1,5.44E2,3.18E2],"tree_param":{"num_deleted":"0","num_feature":"245","num_nodes":"25","size_leaf_vector":"1"}},{"base_weights":[4.4172534E-4,-5.1457167E-2,1.79188E-1,-5.996298E-2,1.9197386E-2,1.06169716E-1,2.4324319E-1,-6.216949E-2,-3.309541E-2,3.1388565E-3,3.509833E-2,3.6771519E-3,6.2444406E-3,1.004525E-2,2.8729564E-1,-3.1102097E-3,-0E0,-1.6800029E-3,-0E0,-2.0826071E-4,4.5061344E-4,1.8017612E-3,-0E0,1.3205751E-2,1.6599907E-2],"categories":[],"categories_nodes":[],"categories_segments":[],"categories_sizes":[],"default_left":[0,0,0,0,0,0,0,0,0,0,0,0,0,0,0,0,0,0,0,0,0,0,0,0,0],"id":20,"left_children":[1,3,5,7,9,11,13,15,17,19,21,-1,-1,-1,23,-1,-1,-1,-1,-1,-1,-1,-1,-1,-1],"loss_changes":[1.406979E2,7.099058E0,1.5541069E1,5.205078E-1,2.8086987E-1,7.5608635E-1,2.7126083E0,1.0723114E-2,1.5752912E-2,3.314485E-2,1.5114784E-2,0E0,0E0,0E0,4.0275574E-2,0E0,0E0,0E0,0E0,0E0,0E0,0E0,0E0,0E0,0E0],"parents":[2147483647,0,0,1,1,2,2,3,3,4,4,5,5,6,6,7,7,8,8,9,9,10,10,14,14],"right_children":[2,4,6,8,10,12,14,16,18,20,22,-1,-1,-1,24,-1,-1,-1,-1,-1,-1,-1,-1,-1,-1],"split_conditions":[5.4380794E0,5.2278304E0,5.7807436E0,5.0998664E0,5.332719E0,5.543884E0,5.996452E0,1E0,6.609042E8,5.267858E0,-7.378868E1,3.6771519E-3,6.2444406E-3,1.004525E-2,6.1941004E0,-3.1102097E-3,-0E0,-1.6800029E-3,-0E0,-2.0826071E-4,4.5061344E-4,1.8017612E-3,-0E0,1.3205751E-2,1.6599907E-2],"split_indices":[17,17,17,17,17,17,17,175,1,17,3,0,0,0,17,0,0,0,0,0,0,0,0,0,0],"split_type":[0,0,0,0,0,0,0,0,0,0,0,0,0,0,0,0,0,0,0,0,0,0,0,0,0],"sum_hessian":[1.5147E4,1.1736E4,3.411E3,1.0488E4,1.248E3,1.605E3,1.806E3,9.654E3,8.34E2,6.54E2,5.94E2,6.1E2,9.95E2,9.41E2,8.65E2,9.646E3,8E0,8.23E2,1.1E1,2.16E2,4.38E2,5.75E2,1.9E1,5.98E2,2.67E2],"tree_param":{"num_deleted":"0","num_feature":"245","num_nodes":"25","size_leaf_vector":"1"}},{"base_weights":[7.649525E-4,-4.847033E-2,1.7086494E-1,-5.7779208E-2,1.3724368E-2,1.0102771E-1,2.31747E-1,-2.9267843E-3,-2.4418062E-2,-7.5582936E-3,2.7277222E-2,3.669376E-3,6.1054733E-3,9.464786E-3,1.3565135E-2,-1.260446E-3,-0E0,-6.401965E-4,-0E0,7.718163E-4,1.876927E-3],"categories":[],"categories_nodes":[],"categories_segments":[],"categories_sizes":[],"default_left":[0,0,0,0,0,0,0,0,0,0,0,0,0,0,0,0,0,0,0,0,0],"id":21,"left_children":[1,3,5,7,9,11,13,-1,15,17,19,-1,-1,-1,-1,-1,-1,-1,-1,-1,-1],"loss_changes":[1.257208E2,6.7774563E0,1.3929916E1,1.6833496E-1,4.5357552E-1,7.000389E-1,2.3927612E0,0E0,6.3522756E-3,3.337105E-2,6.03503E-2,0E0,0E0,0E0,0E0,0E0,0E0,0E0,0E0,0E0,0E0],"parents":[2147483647,0,0,1,1,2,2,3,3,4,4,5,5,6,6,8,8,9,9,10,10],"right_children":[2,4,6,8,10,12,14,-1,16,18,20,-1,-1,-1,-1,-1,-1,-1,-1,-1,-1],"split_conditions":[5.4380794E0,5.198497E0,5.7807436E0,5.147794E0,5.293305E0,5.57337E0,5.9939613E0,-2.9267843E-3,4.082707E1,5.2574954E0,5.3612924E0,3.669376E-3,6.1054733E-3,9.464786E-3,1.3565135E-2,-1.260446E-3,-0E0,-6.401965E-4,-0E0,7.718163E-4,1.876927E-3],"split_indices":[17,17,17,17,17,17,17,0,2,17,17,0,0,0,0,0,0,0,0,0,0],"split_type":[0,0,0,0,0,0,0,0,0,0,0,0,0,0,0,0,0,0,0,0,0],"sum_hessian":[1.4991E4,1.1623E4,3.368E3,1.0124E4,1.499E3,1.58E3,1.788E3,9.868E3,2.56E2,5.55E2,9.44E2,7.1E2,8.7E2,8.83E2,9.05E2,2.5E2,6E0,3.95E2,1.6E2,4.87E2,4.57E2],"tree_param":{"num_deleted":"0","num_feature":"245","num_nodes":"21","size_leaf_vector":"1"}},{"base_weights":[7.53625E-4,-4.5286678E-2,1.65141E-1,-5.4095063E-2,2.0094804E-2,1.1785519E-1,2.4395229E-1,-5.5860072E-2,-3.0352531E-2,2.6070515E-3,3.6548305E-2,9.0368785E-2,7.9312315E-3,1.1159474E-2,1.4895446E-2,-2.794367E-3,-0E0,-1.5337735E-3,-0E0,-1.8434685E-4,4.34804E-4,1.8669E-3,-0E0,3.3619942E-3,5.213286E-3],"categories":[],"categories_nodes":[],"categories_segments":[],"categories_sizes":[],"default_left":[0,0,0,0,0,0,0,0,0,0,0,0,0,0,0,0,0,0,0,0,0,0,0,0,0],"id":22,"left_children":[1,3,5,7,9,11,13,15,17,19,21,23,-1,-1,-1,-1,-1,-1,-1,-1,-1,-1,-1,-1,-1],"loss_changes":[1.14592316E2,6.8392773E0,1.1902069E1,3.454857E-1,3.6079782E-1,2.044464E0,6.596298E-1,1.0692596E-2,9.470403E-3,3.2200594E-2,9.414017E-3,2.147026E-1,0E0,0E0,0E0,0E0,0E0,0E0,0E0,0E0,0E0,0E0,0E0,0E0,0E0],"parents":[2147483647,0,0,1,1,2,2,3,3,4,4,5,5,6,6,7,7,8,8,9,9,10,10,11,11],"right_children":[2,4,6,8,10,12,14,16,18,20,22,24,-1,-1,-1,-1,-1,-1,-1,-1,-1,-1,-1,-1,-1],"split_conditions":[5.4510384E0,5.2232437E0,5.920559E0,5.0998664E0,5.332719E0,5.710427E0,6.1732225E0,1E0,4.087778E1,5.273E0,-7.378868E1,5.543884E0,7.9312315E-3,1.1159474E-2,1.4895446E-2,-2.794367E-3,-0E0,-1.5337735E-3,-0E0,-1.8434685E-4,4.34804E-4,1.8669E-3,-0E0,3.3619942E-3,5.213286E-3],"split_indices":[17,17,17,17,17,17,17,40,2,17,3,17,0,0,0,0,0,0,0,0,0,0,0,0,0],"split_type":[0,0,0,0,0,0,0,0,0,0,0,0,0,0,0,0,0,0,0,0,0,0,0,0,0],"sum_hessian":[1.5119E4,1.1808E4,3.311E3,1.042E4,1.388E3,2.082E3,1.229E3,9.656E3,7.64E2,7.04E2,6.84E2,1.264E3,8.18E2,9.12E2,3.17E2,9.65E3,6E0,7.58E2,6E0,2.66E2,4.38E2,6.62E2,2.2E1,5.08E2,7.56E2],"tree_param":{"num_deleted":"0","num_feature":"245","num_nodes":"25","size_leaf_vector":"1"}},{"base_weights":[6.498727E-4,-4.1294962E-2,1.6341074E-1,-5.139113E-2,2.5485205E-2,1.1818563E-1,2.3342055E-1,-5.2802037E-2,-1.9613508E-2,6.582964E-3,4.1428026E-2,8.984163E-2,7.515459E-3,1.0491232E-2,1.3969943E-2,-2.641317E-3,-0E0,-1.0124908E-3,-0E0,-0E0,7.484515E-4,2.1199638E-3,-0E0,3.7031563E-3,5.1500793E-3],"categories":[],"categories_nodes":[],"categories_segments":[],"categories_sizes":[],"default_left":[0,0,0,0,0,0,0,0,0,0,0,0,0,0,0,0,0,0,0,0,0,0,0,0,0],"id":23,"left_children":[1,3,5,7,9,11,13,15,17,19,21,23,-1,-1,-1,-1,-1,-1,-1,-1,-1,-1,-1,-1,-1],"loss_changes":[1.04444916E2,8.218281E0,9.494843E0,3.9811897E-1,4.2851722E-1,1.467516E0,6.573944E-1,3.5572052E-3,6.5360516E-3,4.382766E-2,1.9038558E-2,1.6830444E-2,0E0,0E0,0E0,0E0,0E0,0E0,0E0,0E0,0E0,0E0,0E0,0E0,0E0],"parents":[2147483647,0,0,1,1,2,2,3,3,4,4,5,5,6,6,7,7,8,8,9,9,10,10,11,11],"right_children":[2,4,6,8,10,12,14,16,18,20,22,24,-1,-1,-1,-1,-1,-1,-1,-1,-1,-1,-1,-1,-1],"split_conditions":[5.4912205E0,5.2278304E0,5.924256E0,5.147794E0,5.3471074E0,5.710427E0,6.1484685E0,1E0,3.2E1,5.3033047E0,-7.378868E1,5.602119E0,7.515459E-3,1.0491232E-2,1.3969943E-2,-2.641317E-3,-0E0,-1.0124908E-3,-0E0,-0E0,7.484515E-4,2.1199638E-3,-0E0,3.7031563E-3,5.1500793E-3],"split_indices":[17,17,17,17,17,17,17,195,5,17,3,17,0,0,0,0,0,0,0,0,0,0,0,0,0],"split_type":[0,0,0,0,0,0,0,0,0,0,0,0,0,0,0,0,0,0,0,0,0,0,0,0,0],"sum_hessian":[1.5275E4,1.2142E4,3.133E3,1.0561E4,1.581E3,1.917E3,1.216E3,1.008E4,4.81E2,7.54E2,8.27E2,1.041E3,8.76E2,8.29E2,3.87E2,1.0072E4,8E0,4.67E2,1.4E1,4.15E2,3.39E2,8E2,2.7E1,5.17E2,5.24E2],"tree_param":{"num_deleted":"0","num_feature":"245","num_nodes":"25","size_leaf_vector":"1"}},{"base_weights":[2.2194297E-4,-4.1347746E-2,1.452728E-1,-4.8603036E-2,1.4656472E-2,8.56005E-2,1.9819339E-1,-5.0251804E-2,-2.6572695E-2,-2.3824272E-3,2.5027549E-2,6.08849E-2,5.1405462E-3,8.2809795E-3,1.18724955E-2,-2.5150457E-3,-0E0,-1.3438717E-3,-0E0,-4.365247E-4,-0E0,1.2830255E-3,-0E0,3.0564168E-3,-0E0],"categories":[],"categories_nodes":[],"categories_segments":[],"categories_sizes":[],"default_left":[0,0,0,0,0,0,0,0,0,0,0,0,0,0,0,0,0,0,0,0,0,0,0,0,0],"id":24,"left_children":[1,3,5,7,9,11,13,15,17,19,21,23,-1,-1,-1,-1,-1,-1,-1,-1,-1,-1,-1,-1,-1],"loss_changes":[9.1291306E1,4.8100166E0,1.0320038E1,2.9758072E-1,2.5855747E-1,4.9811077E-1,1.7512589E0,9.687424E-3,8.272767E-3,1.5010016E-2,1.46151185E-2,1.7514229E-3,0E0,0E0,0E0,0E0,0E0,0E0,0E0,0E0,0E0,0E0,0E0,0E0,0E0],"parents":[2147483647,0,0,1,1,2,2,3,3,4,4,5,5,6,6,7,7,8,8,9,9,10,10,11,11],"right_children":[2,4,6,8,10,12,14,16,18,20,22,24,-1,-1,-1,-1,-1,-1,-1,-1,-1,-1,-1,-1,-1],"split_conditions":[5.4380794E0,5.2232437E0,5.7807436E0,5.0998664E0,5.3033047E0,5.5683446E0,6.0210233E0,3.58E2,4.087778E1,5.2574954E0,5.2E1,1E0,5.1405462E-3,8.2809795E-3,1.18724955E-2,-2.5150457E-3,-0E0,-1.3438717E-3,-0E0,-4.365247E-4,-0E0,1.2830255E-3,-0E0,3.0564168E-3,-0E0],"split_indices":[17,17,17,17,17,17,17,6,2,17,5,187,0,0,0,0,0,0,0,0,0,0,0,0,0],"split_type":[0,0,0,0,0,0,0,0,0,0,0,0,0,0,0,0,0,0,0,0,0,0,0,0,0],"sum_hessian":[1.5117E4,1.1746E4,3.371E3,1.0415E4,1.331E3,1.597E3,1.774E3,9.644E3,7.71E2,4.68E2,8.63E2,6.85E2,9.12E2,9.92E2,7.82E2,9.629E3,1.5E1,7.65E2,6E0,2.29E2,2.39E2,8.43E2,2E1,6.8E2,5E0],"tree_param":{"num_deleted":"0","num_feature":"245","num_nodes":"25","size_leaf_vector":"1"}},{"base_weights":[1.1951274E-3,-3.606165E-2,1.5145141E-1,-4.6084847E-2,2.6205665E-2,1.120784E-1,2.1321309E-1,-4.7456216E-2,-1.6303347E-2,9.644625E-3,4.414759E-2,8.745723E-2,7.0708483E-3,9.690953E-3,1.2708462E-2,-2.374864E-3,-0E0,-0E0,-8.505202E-4,-9.5731804E-5,7.150741E-4,2.2210723E-3,-0E0,3.660144E-3,5.058078E-3],"categories":[],"categories_nodes":[],"categories_segments":[],"categories_sizes":[],"default_left":[0,0,0,0,0,0,0,0,0,0,0,0,0,0,0,0,0,0,0,0,0,0,0,0,0],"id":25,"left_children":[1,3,5,7,9,11,13,15,17,19,21,23,-1,-1,-1,-1,-1,-1,-1,-1,-1,-1,-1,-1,-1],"loss_changes":[8.4293076E1,7.5403757E0,6.881218E0,3.5822105E-1,4.3758345E-1,1.0660362E0,3.1925964E-1,1.37729645E-2,8.453131E-3,6.0646683E-2,8.713007E-3,4.4317245E-3,0E0,0E0,0E0,0E0,0E0,0E0,0E0,0E0,0E0,0E0,0E0,0E0,0E0],"parents":[2147483647,0,0,1,1,2,2,3,3,4,4,5,5,6,6,7,7,8,8,9,9,10,10,11,11],"right_children":[2,4,6,8,10,12,14,16,18,20,22,24,-1,-1,-1,-1,-1,-1,-1,-1,-1,-1,-1,-1,-1],"split_conditions":[5.5174527E0,5.236442E0,5.9375362E0,5.1607003E0,5.3812146E0,5.7365723E0,6.164377E0,1E0,-7.400711E1,5.273E0,1E0,5.623644E0,7.0708483E-3,9.690953E-3,1.2708462E-2,-2.374864E-3,-0E0,-0E0,-8.505202E-4,-9.5731804E-5,7.150741E-4,2.2210723E-3,-0E0,3.660144E-3,5.058078E-3],"split_indices":[17,17,17,17,17,17,17,32,3,17,206,17,0,0,0,0,0,0,0,0,0,0,0,0,0],"split_type":[0,0,0,0,0,0,0,0,0,0,0,0,0,0,0,0,0,0,0,0,0,0,0,0,0],"sum_hessian":[1.5031E4,1.2041E4,2.99E3,1.0386E4,1.655E3,1.841E3,1.149E3,9.895E3,4.91E2,8.92E2,7.63E2,1.026E3,8.15E2,8.08E2,3.41E2,9.884E3,1.1E1,1.1E1,4.8E2,1.95E2,6.97E2,7.58E2,5E0,5.48E2,4.78E2],"tree_param":{"num_deleted":"0","num_feature":"245","num_nodes":"25","size_leaf_vector":"1"}},{"base_weights":[3.8784987E-5,-3.699028E-2,1.3465491E-1,-4.4976916E-2,1.0990029E-2,8.162635E-2,1.8038516E-1,-4.5934316E-2,-2.793323E-2,-2.6976163E-3,2.7931336E-2,3.2118727E-3,5.0904006E-3,7.319791E-3,2.1050945E-1,-2.2992934E-3,-0E0,-1.4153775E-3,-0E0,-5.3344556E-4,1.8117098E-4,6.0851563E-4,1.6427219E-3,9.615029E-3,1.238864E-2],"categories":[],"categories_nodes":[],"categories_segments":[],"categories_sizes":[],"default_left":[0,0,0,0,0,0,0,0,0,0,0,0,0,0,0,0,0,0,0,0,0,0,0,0,0],"id":26,"left_children":[1,3,5,7,9,11,13,15,17,19,21,-1,-1,-1,23,-1,-1,-1,-1,-1,-1,-1,-1,-1,-1],"loss_changes":[7.538172E1,4.5721893E0,7.609043E0,8.820152E-2,4.1363797E-1,3.5021496E-1,1.3322372E0,2.2071838E-2,8.708805E-3,5.2308068E-2,1.4375925E-2,0E0,0E0,0E0,2.7656555E-2,0E0,0E0,0E0,0E0,0E0,0E0,0E0,0E0,0E0,0E0],"parents":[2147483647,0,0,1,1,2,2,3,3,4,4,5,5,6,6,7,7,8,8,9,9,10,10,14,14],"right_children":[2,4,6,8,10,12,14,16,18,20,22,-1,-1,-1,24,-1,-1,-1,-1,-1,-1,-1,-1,-1,-1],"split_conditions":[5.4510384E0,5.1817837E0,5.790142E0,5.0875964E0,5.31812E0,5.623644E0,5.9939613E0,3.58E2,4.087778E1,5.2574954E0,5.3612924E0,3.2118727E-3,5.0904006E-3,7.319791E-3,6.1941004E0,-2.2992934E-3,-0E0,-1.4153775E-3,-0E0,-5.3344556E-4,1.8117098E-4,6.0851563E-4,1.6427219E-3,9.615029E-3,1.238864E-2],"split_indices":[17,17,17,17,17,17,17,6,2,17,17,0,0,0,17,0,0,0,0,0,0,0,0,0,0],"split_type":[0,0,0,0,0,0,0,0,0,0,0,0,0,0,0,0,0,0,0,0,0,0,0,0,0],"sum_hessian":[1.5097E4,1.1836E4,3.261E3,1.0165E4,1.671E3,1.524E3,1.737E3,9.564E3,6.01E2,8.93E2,7.78E2,8.52E2,6.72E2,8.4E2,8.97E2,9.553E3,1.1E1,5.96E2,5E0,4.64E2,4.29E2,2.36E2,5.42E2,6.33E2,2.64E2],"tree_param":{"num_deleted":"0","num_feature":"245","num_nodes":"25","size_leaf_vector":"1"}},{"base_weights":[9.171273E-5,-3.4631155E-2,1.2728214E-1,-4.2067494E-2,1.4216719E-2,9.0559125E-2,1.8688211E-1,-4.2968277E-2,-2.089958E-2,-2.2880886E-4,2.6283601E-2,6.641544E-2,5.8253994E-3,8.156269E-3,1.094459E-2,-2.1503174E-3,-0E0,-1.2829673E-3,-0E0,-3.4663684E-4,5.234473E-4,9.1700366E-4,2.1314349E-3,2.703078E-3,3.966622E-3],"categories":[],"categories_nodes":[],"categories_segments":[],"categories_sizes":[],"default_left":[0,0,0,0,0,0,0,0,0,0,0,0,0,0,0,0,0,0,0,0,0,0,0,0,0],"id":27,"left_children":[1,3,5,7,9,11,13,15,17,19,21,23,-1,-1,-1,-1,-1,-1,-1,-1,-1,-1,-1,-1,-1],"loss_changes":[6.695717E1,4.3475895E0,6.791603E0,1.305008E-1,2.9712877E-1,1.065033E0,4.4392395E-1,1.3795853E-2,2.7788296E-2,4.494705E-2,5.159217E-2,2.5761127E-2,0E0,0E0,0E0,0E0,0E0,0E0,0E0,0E0,0E0,0E0,0E0,0E0,0E0],"parents":[2147483647,0,0,1,1,2,2,3,3,4,4,5,5,6,6,7,7,8,8,9,9,10,10,11,11],"right_children":[2,4,6,8,10,12,14,16,18,20,22,24,-1,-1,-1,-1,-1,-1,-1,-1,-1,-1,-1,-1,-1],"split_conditions":[2.28E2,1.77E2,3.58E2,1.64E2,1.99E2,2.85E2,4.39E2,1E0,6.0333335E-1,1E0,1E0,2.53E2,5.8253994E-3,8.156269E-3,1.094459E-2,-2.1503174E-3,-0E0,-1.2829673E-3,-0E0,-3.4663684E-4,5.234473E-4,9.1700366E-4,2.1314349E-3,2.703078E-3,3.966622E-3],"split_indices":[4,4,4,4,4,4,4,32,12,11,11,4,0,0,0,0,0,0,0,0,0,0,0,0,0],"split_type":[0,0,0,0,0,0,0,0,0,0,0,0,0,0,0,0,0,0,0,0,0,0,0,0,0],"sum_hessian":[1.5134E4,1.1884E4,3.25E3,1.0332E4,1.552E3,2.026E3,1.224E3,9.862E3,4.7E2,6.7E2,8.82E2,1.075E3,9.51E2,7.31E2,4.93E2,9.852E3,1E1,3.53E2,1.17E2,4.7E2,2E2,6.39E2,2.43E2,5.97E2,4.78E2],"tree_param":{"num_deleted":"0","num_feature":"245","num_nodes":"25","size_leaf_vector":"1"}},{"base_weights":[-9.560531E-5,-3.159634E-2,1.2926652E-1,-3.9638687E-2,2.160563E-2,9.509386E-2,1.8245901E-1,-4.089366E-2,-1.6155856E-2,7.545403E-3,3.639889E-2,7.4741095E-2,6.0197045E-3,8.292778E-3,1.0985835E-2,-2.0466761E-3,-0E0,-0E0,-8.472356E-4,-0E0,6.1027386E-4,1.861712E-3,-0E0,3.7500472E-3,-0E0],"categories":[],"categories_nodes":[],"categories_segments":[],"categories_sizes":[],"default_left":[0,0,0,0,0,0,0,0,0,0,0,0,0,0,0,0,0,0,0,0,0,0,0,0,0],"id":28,"left_children":[1,3,5,7,9,11,13,15,17,19,21,23,-1,-1,-1,-1,-1,-1,-1,-1,-1,-1,-1,-1,-1],"loss_changes":[6.135746E1,5.2123604E0,5.0272408E0,2.5211525E-1,2.836585E-1,7.1092224E-1,2.0907974E-1,5.744934E-3,7.992789E-3,2.590961E-2,1.6033411E-2,1.2106895E-2,0E0,0E0,0E0,0E0,0E0,0E0,0E0,0E0,0E0,0E0,0E0,0E0,0E0],"parents":[2147483647,0,0,1,1,2,2,3,3,4,4,5,5,6,6,7,7,8,8,9,9,10,10,11,11],"right_children":[2,4,6,8,10,12,14,16,18,20,22,24,-1,-1,-1,-1,-1,-1,-1,-1,-1,-1,-1,-1,-1],"split_conditions":[5.5174527E0,5.241747E0,5.9295893E0,5.1474943E0,5.3812146E0,5.7365723E0,6.164377E0,3.58E2,6E-2,5.3033047E0,-7.378868E1,1E0,6.0197045E-3,8.292778E-3,1.0985835E-2,-2.0466761E-3,-0E0,-0E0,-8.472356E-4,-0E0,6.1027386E-4,1.861712E-3,-0E0,3.7500472E-3,-0E0],"split_indices":[17,17,17,17,17,17,17,6,7,17,3,59,0,0,0,0,0,0,0,0,0,0,0,0,0],"split_type":[0,0,0,0,0,0,0,0,0,0,0,0,0,0,0,0,0,0,0,0,0,0,0,0,0],"sum_hessian":[1.5075E4,1.2131E4,2.944E3,1.0555E4,1.576E3,1.809E3,1.135E3,9.977E3,5.78E2,8.45E2,7.31E2,1.031E3,7.78E2,8.15E2,3.2E2,9.961E3,1.6E1,2.5E1,5.53E2,3.5E2,4.95E2,7.1E2,2.1E1,1.026E3,5E0],"tree_param":{"num_deleted":"0","num_feature":"245","num_nodes":"25","size_leaf_vector":"1"}},{"base_weights":[8.0605166E-4,-3.1271994E-2,1.17304586E-1,-3.7551384E-2,1.3968206E-2,7.086058E-2,1.5604885E-1,-3.8793664E-2,-2.0700404E-2,2.2705398E-3,2.5805164E-2,5.703429E-2,4.4735027E-3,6.803665E-3,9.783329E-3,-1.9421531E-3,-0E0,-1.0571483E-3,-0E0,-1.6183118E-4,3.0184104E-4,1.3526281E-3,-0E0,2.8643846E-3,-0E0],"categories":[],"categories_nodes":[],"categories_segments":[],"categories_sizes":[],"default_left":[0,0,0,0,0,0,0,0,0,0,0,0,0,0,0,0,0,0,0,0,0,0,0,0,0],"id":29,"left_children":[1,3,5,7,9,11,13,15,17,19,21,23,-1,-1,-1,-1,-1,-1,-1,-1,-1,-1,-1,-1,-1],"loss_changes":[5.6552578E1,3.388958E0,5.622284E0,1.561842E-1,1.6919929E-1,2.2516584E-1,9.8755646E-1,1.736927E-2,5.448222E-3,1.8684598E-2,1.6102523E-2,9.720564E-3,0E0,0E0,0E0,0E0,0E0,0E0,0E0,0E0,0E0,0E0,0E0,0E0,0E0],"parents":[2147483647,0,0,1,1,2,2,3,3,4,4,5,5,6,6,7,7,8,8,9,9,10,10,11,11],"right_children":[2,4,6,8,10,12,14,16,18,20,22,24,-1,-1,-1,-1,-1,-1,-1,-1,-1,-1,-1,-1,-1],"split_conditions":[5.4553213E0,5.2257466E0,5.790142E0,5.0998664E0,5.3423343E0,5.641084E0,6.088584E0,3.58E2,3.2E1,5.2574954E0,1E0,1E0,4.4735027E-3,6.803665E-3,9.783329E-3,-1.9421531E-3,-0E0,-1.0571483E-3,-0E0,-1.6183118E-4,3.0184104E-4,1.3526281E-3,-0E0,2.8643846E-3,-0E0],"split_indices":[17,17,17,17,17,17,17,6,5,17,123,187,0,0,0,0,0,0,0,0,0,0,0,0,0],"split_type":[0,0,0,0,0,0,0,0,0,0,0,0,0,0,0,0,0,0,0,0,0,0,0,0,0],"sum_hessian":[1.5104E4,1.1838E4,3.266E3,1.0415E4,1.423E3,1.501E3,1.765E3,9.641E3,7.74E2,7.6E2,6.63E2,8.99E2,6.02E2,1.199E3,5.66E2,9.628E3,1.3E1,7.54E2,2E1,2.01E2,5.59E2,6.25E2,3.8E1,8.94E2,5E0],"tree_param":{"num_deleted":"0","num_feature":"245","num_nodes":"25","size_leaf_vector":"1"}},{"base_weights":[5.4869556E-4,-2.84877E-2,1.1777983E-1,-3.6025446E-2,1.6248796E-2,8.574773E-2,1.6574036E-1,-3.7172582E-2,-1.6213892E-2,2.5226565E-3,3.410986E-2,6.5376595E-2,5.2856677E-3,7.5655854E-3,1.0016726E-2,-1.8596732E-3,-0E0,-8.8712544E-4,-0E0,-1.7375371E-4,4.734244E-4,1.7185798E-3,-0E0,-0E0,3.283177E-3],"categories":[],"categories_nodes":[],"categories_segments":[],"categories_sizes":[],"default_left":[0,0,0,0,0,0,0,0,0,0,0,0,0,0,0,0,0,0,0,0,0,0,0,0,0],"id":30,"left_children":[1,3,5,7,9,11,13,15,17,19,21,23,-1,-1,-1,-1,-1,-1,-1,-1,-1,-1,-1,-1,-1],"loss_changes":[5.151632E1,4.102477E0,4.323921E0,1.8063927E-1,3.867518E-1,5.4881763E-1,1.5039825E-1,4.0864944E-3,2.0586357E-2,4.8251264E-2,6.9803E-3,1.356101E-2,0E0,0E0,0E0,0E0,0E0,0E0,0E0,0E0,0E0,0E0,0E0,0E0,0E0],"parents":[2147483647,0,0,1,1,2,2,3,3,4,4,5,5,6,6,7,7,8,8,9,9,10,10,11,11],"right_children":[2,4,6,8,10,12,14,16,18,20,22,24,-1,-1,-1,-1,-1,-1,-1,-1,-1,-1,-1,-1,-1],"split_conditions":[2.4E2,1.8E2,3.63E2,1.62E2,2.1E2,2.95E2,4.65E2,1E0,1E0,1.94E2,1E0,6.0278E4,5.2856677E-3,7.5655854E-3,1.0016726E-2,-1.8596732E-3,-0E0,-8.8712544E-4,-0E0,-1.7375371E-4,4.734244E-4,1.7185798E-3,-0E0,-0E0,3.283177E-3],"split_indices":[4,4,4,4,4,4,4,32,123,4,184,1,0,0,0,0,0,0,0,0,0,0,0,0,0],"split_type":[0,0,0,0,0,0,0,0,0,0,0,0,0,0,0,0,0,0,0,0,0,0,0,0,0],"sum_hessian":[1.5102E4,1.2099E4,3.003E3,1.0374E4,1.725E3,1.818E3,1.185E3,9.756E3,6.18E2,1.009E3,7.16E2,9.31E2,8.87E2,8.68E2,3.17E2,9.748E3,8E0,5.81E2,3.7E1,4.65E2,5.44E2,7.11E2,5E0,5E0,9.26E2],"tree_param":{"num_deleted":"0","num_feature":"245","num_nodes":"25","size_leaf_vector":"1"}},{"base_weights":[2.6939617E-4,-2.8600076E-2,1.04252145E-1,-3.4634966E-2,1.1318724E-2,7.474803E-2,1.551006E-1,-3.5267267E-2,-1.47236865E-2,-0E0,2.1011386E-2,5.4540157E-2,4.7561415E-3,6.986521E-3,8.989851E-3,-1.7648056E-3,-0E0,-1.0119444E-3,-0E0,-2.6928922E-4,5.6124985E-4,7.1411225E-4,1.7235201E-3,2.2893127E-3,3.620565E-3],"categories":[],"categories_nodes":[],"categories_segments":[],"categories_sizes":[],"default_left":[0,0,0,0,0,0,0,0,0,0,0,0,0,0,0,0,0,0,0,0,0,0,0,0,0],"id":31,"left_children":[1,3,5,7,9,11,13,15,17,19,21,23,-1,-1,-1,-1,-1,-1,-1,-1,-1,-1,-1,-1,-1],"loss_changes":[4.550375E1,2.876092E0,4.6801567E0,7.81908E-2,1.7771934E-1,7.010555E-1,5.87101E-2,9.012222E-3,2.1975182E-2,3.9306413E-2,2.657178E-2,4.2065144E-2,0E0,0E0,0E0,0E0,0E0,0E0,0E0,0E0,0E0,0E0,0E0,0E0,0E0],"parents":[2147483647,0,0,1,1,2,2,3,3,4,4,5,5,6,6,7,7,8,8,9,9,10,10,11,11],"right_children":[2,4,6,8,10,12,14,16,18,20,22,24,-1,-1,-1,-1,-1,-1,-1,-1,-1,-1,-1,-1,-1],"split_conditions":[2.28E2,1.77E2,3.63E2,1.67E2,2E2,2.85E2,4.5E2,1E0,5.7E-1,5.7E-1,5.7E-1,5.7E-1,4.7561415E-3,6.986521E-3,8.989851E-3,-1.7648056E-3,-0E0,-1.0119444E-3,-0E0,-2.6928922E-4,5.6124985E-4,7.1411225E-4,1.7235201E-3,2.2893127E-3,3.620565E-3],"split_indices":[4,4,4,4,4,4,4,32,12,12,12,12,0,0,0,0,0,0,0,0,0,0,0,0,0],"split_type":[0,0,0,0,0,0,0,0,0,0,0,0,0,0,0,0,0,0,0,0,0,0,0,0,0],"sum_hessian":[1.5127E4,1.1834E4,3.293E3,1.0302E4,1.532E3,2.101E3,1.192E3,9.934E3,3.68E2,6.87E2,8.45E2,1.085E3,1.016E3,7.72E2,4.2E2,9.925E3,9E0,2.47E2,1.21E2,4.92E2,1.95E2,6.17E2,2.28E2,7.73E2,3.12E2],"tree_param":{"num_deleted":"0","num_feature":"245","num_nodes":"25","size_leaf_vector":"1"}},{"base_weights":[-0E0,-2.5847036E-2,1.0509039E-1,-3.28469E-2,1.4808401E-2,7.636326E-2,1.4930835E-1,-3.3655062E-2,-1.6066272E-2,-4.746692E-4,2.538013E-2,6.167033E-2,4.877634E-3,6.2938663E-3,8.242702E-3,-1.6838197E-3,-0E0,-8.6926343E-4,-0E0,-2.66009E-4,3.7248887E-4,6.0637755E-4,1.5278325E-3,2.5517873E-3,4.0243147E-3],"categories":[],"categories_nodes":[],"categories_segments":[],"categories_sizes":[],"default_left":[0,0,0,0,0,0,0,0,0,0,0,0,0,0,0,0,0,0,0,0,0,0,0,0,0],"id":32,"left_children":[1,3,5,7,9,11,13,15,17,19,21,23,-1,-1,-1,-1,-1,-1,-1,-1,-1,-1,-1,-1,-1],"loss_changes":[4.1279427E1,3.4854279E0,3.5521622E0,8.985901E-2,3.1091788E-1,3.952713E-1,7.1367264E-2,5.109787E-3,1.2687087E-2,2.4407126E-2,3.0637443E-2,8.0667496E-2,0E0,0E0,0E0,0E0,0E0,0E0,0E0,0E0,0E0,0E0,0E0,0E0,0E0],"parents":[2147483647,0,0,1,1,2,2,3,3,4,4,5,5,6,6,7,7,8,8,9,9,10,10,11,11],"right_children":[2,4,6,8,10,12,14,16,18,20,22,24,-1,-1,-1,-1,-1,-1,-1,-1,-1,-1,-1,-1,-1],"split_conditions":[2.4E2,1.77E2,3.63E2,1.62E2,2E2,3.01E2,4.17E2,1E0,1E0,5.966667E-1,2.1E2,1E0,4.877634E-3,6.2938663E-3,8.242702E-3,-1.6838197E-3,-0E0,-8.6926343E-4,-0E0,-2.66009E-4,3.7248887E-4,6.0637755E-4,1.5278325E-3,2.5517873E-3,4.0243147E-3],"split_indices":[4,4,4,4,4,4,4,208,123,12,4,11,0,0,0,0,0,0,0,0,0,0,0,0,0],"split_type":[0,0,0,0,0,0,0,0,0,0,0,0,0,0,0,0,0,0,0,0,0,0,0,0,0],"sum_hessian":[1.5174E4,1.2176E4,2.998E3,1.0409E4,1.767E3,1.836E3,1.162E3,9.871E3,5.38E2,6.85E2,1.082E3,1.119E3,7.17E2,5E2,6.62E2,9.863E3,8E0,5.01E2,3.7E1,5.04E2,1.81E2,3.61E2,7.21E2,7.56E2,3.63E2],"tree_param":{"num_deleted":"0","num_feature":"245","num_nodes":"25","size_leaf_vector":"1"}},{"base_weights":[3.3611574E-4,-2.6471745E-2,9.309891E-2,-3.099594E-2,9.904351E-3,5.3611282E-2,1.270518E-1,-3.218039E-2,-1.7539471E-2,-0E0,1.7960692E-2,3.7148E-2,6.26969E-2,5.1703765E-3,1.5041785E-1,-1.6111663E-3,-0E0,-0E0,-9.113693E-4,-6.93578E-5,1.4133484E-4,9.359183E-4,-0E0,1.870692E-3,-0E0,3.1460864E-3,-0E0,6.7763026E-3,9.169123E-3],"categories":[],"categories_nodes":[],"categories_segments":[],"categories_sizes":[],"default_left":[0,0,0,0,0,0,0,0,0,0,0,0,0,0,0,0,0,0,0,0,0,0,0,0,0,0,0,0,0],"id":33,"left_children":[1,3,5,7,9,11,13,15,17,19,21,23,25,-1,27,-1,-1,-1,-1,-1,-1,-1,-1,-1,-1,-1,-1,-1,-1],"loss_changes":[3.7741154E1,1.9549179E0,4.364052E0,1.1547947E-1,9.279962E-2,1.3144732E-1,7.0225334E-1,1.291275E-2,8.399069E-3,3.1091142E-3,1.3180524E-2,3.7517548E-3,7.967234E-3,0E0,4.0979385E-2,0E0,0E0,0E0,0E0,0E0,0E0,0E0,0E0,0E0,0E0,0E0,0E0,0E0,0E0],"parents":[2147483647,0,0,1,1,2,2,3,3,4,4,5,5,6,6,7,7,8,8,9,9,10,10,11,11,12,12,14,14],"right_children":[2,4,6,8,10,12,14,16,18,20,22,24,26,-1,28,-1,-1,-1,-1,-1,-1,-1,-1,-1,-1,-1,-1,-1,-1],"split_conditions":[5.4380794E0,5.2278304E0,5.7807436E0,5.0875964E0,5.31812E0,5.543884E0,5.996452E0,3.58E2,6E-2,1.91E2,1E0,6.809916E8,1E0,5.1703765E-3,6.1984787E0,-1.6111663E-3,-0E0,-0E0,-9.113693E-4,-6.93578E-5,1.4133484E-4,9.359183E-4,-0E0,1.870692E-3,-0E0,3.1460864E-3,-0E0,6.7763026E-3,9.169123E-3],"split_indices":[17,17,17,17,17,17,17,6,7,4,80,1,219,0,17,0,0,0,0,0,0,0,0,0,0,0,0,0,0],"split_type":[0,0,0,0,0,0,0,0,0,0,0,0,0,0,0,0,0,0,0,0,0,0,0,0,0,0,0,0,0],"sum_hessian":[1.5144E4,1.1742E4,3.402E3,1.0468E4,1.274E3,1.59E3,1.812E3,9.549E3,9.19E2,6.01E2,6.73E2,6.1E2,9.8E2,9.3E2,8.82E2,9.536E3,1.3E1,4.3E1,8.76E2,2.84E2,3.17E2,6.57E2,1.6E1,6.04E2,6E0,9.75E2,5E0,6.39E2,2.43E2],"tree_param":{"num_deleted":"0","num_feature":"245","num_nodes":"29","size_leaf_vector":"1"}},{"base_weights":[1.5791527E-4,-2.4866465E-2,8.8399015E-2,-2.991286E-2,5.404706E-3,5.0435968E-2,1.2008707E-1,-2.9951455E-2,-0E0,-5.7075927E-3,1.2593202E-2,3.4566365E-2,2.999814E-3,5.122632E-3,7.455477E-3,-1.4990245E-3,-0E0,-4.051325E-4,-0E0,2.6386784E-4,8.758109E-4,1.788636E-3,-0E0],"categories":[],"categories_nodes":[],"categories_segments":[],"categories_sizes":[],"default_left":[0,0,0,0,0,0,0,0,0,0,0,0,0,0,0,0,0,0,0,0,0,0,0],"id":34,"left_children":[1,3,5,7,9,11,13,15,-1,17,19,21,-1,-1,-1,-1,-1,-1,-1,-1,-1,-1,-1],"loss_changes":[3.3707314E1,1.8368831E0,3.8713493E0,1.0996819E-2,1.4042217E-1,1.3513756E-1,6.356087E-1,7.827759E-3,0E0,1.0556653E-2,1.5430242E-2,1.5152156E-2,0E0,0E0,0E0,0E0,0E0,0E0,0E0,0E0,0E0,0E0,0E0],"parents":[2147483647,0,0,1,1,2,2,3,3,4,4,5,5,6,6,7,7,9,9,10,10,11,11],"right_children":[2,4,6,8,10,12,14,16,-1,18,20,22,-1,-1,-1,-1,-1,-1,-1,-1,-1,-1,-1],"split_conditions":[5.4380794E0,5.1730742E0,5.7714877E0,1E0,5.273E0,5.5529594E0,6.063785E0,1E0,-0E0,1E1,5.3423343E0,1E0,2.999814E-3,5.122632E-3,7.455477E-3,-1.4990245E-3,-0E0,-4.051325E-4,-0E0,2.6386784E-4,8.758109E-4,1.788636E-3,-0E0],"split_indices":[17,17,17,227,17,17,17,175,0,8,17,122,0,0,0,0,0,0,0,0,0,0,0],"split_type":[0,0,0,0,0,0,0,0,0,0,0,0,0,0,0,0,0,0,0,0,0,0,0],"sum_hessian":[1.523E4,1.1858E4,3.372E3,1.0192E4,1.666E3,1.552E3,1.82E3,1.0178E4,1.4E1,6E2,1.066E3,6.28E2,9.24E2,1.162E3,6.58E2,1.0167E4,1.1E1,4.57E2,1.43E2,5.13E2,5.53E2,5.98E2,3E1],"tree_param":{"num_deleted":"0","num_feature":"245","num_nodes":"23","size_leaf_vector":"1"}},{"base_weights":[3.8663766E-4,-2.2098493E-2,8.967726E-2,-2.7459329E-2,1.4829105E-2,6.521192E-2,1.3033187E-1,-2.8392324E-2,-8.61941E-3,6.32941E-3,2.8021177E-2,4.9612604E-2,8.263061E-2,5.9069847E-3,8.119363E-3,-1.4243237E-3,-0E0,-4.8980024E-4,-0E0,-0E0,3.6770338E-4,1.4446025E-3,-0E0,2.4916334E-3,-0E0,4.161027E-3,-0E0],"categories":[],"categories_nodes":[],"categories_segments":[],"categories_sizes":[],"default_left":[0,0,0,0,0,0,0,0,0,0,0,0,0,0,0,0,0,0,0,0,0,0,0,0,0,0,0],"id":35,"left_children":[1,3,5,7,9,11,13,15,17,19,21,23,25,-1,-1,-1,-1,-1,-1,-1,-1,-1,-1,-1,-1,-1,-1],"loss_changes":[3.0219309E1,2.3870296E0,2.7926846E0,1.4669609E-1,1.3308597E-1,3.7525845E-1,9.964371E-2,1.8366814E-2,5.3917244E-3,7.6331794E-3,8.400142E-3,1.0496378E-2,1.9135475E-3,0E0,0E0,0E0,0E0,0E0,0E0,0E0,0E0,0E0,0E0,0E0,0E0,0E0,0E0],"parents":[2147483647,0,0,1,1,2,2,3,3,4,4,5,5,6,6,7,7,8,8,9,9,10,10,11,11,12,12],"right_children":[2,4,6,8,10,12,14,16,18,20,22,24,26,-1,-1,-1,-1,-1,-1,-1,-1,-1,-1,-1,-1,-1,-1],"split_conditions":[5.505238E0,5.247024E0,5.9375362E0,5.154135E0,5.4026775E0,5.7268257E0,6.1941004E0,1E0,6.2E1,3E0,1E0,1E0,1E0,5.9069847E-3,8.119363E-3,-1.4243237E-3,-0E0,-4.8980024E-4,-0E0,-0E0,3.6770338E-4,1.4446025E-3,-0E0,2.4916334E-3,-0E0,4.161027E-3,-0E0],"split_indices":[17,17,17,17,17,17,17,59,8,5,122,59,143,0,0,0,0,0,0,0,0,0,0,0,0,0,0],"split_type":[0,0,0,0,0,0,0,0,0,0,0,0,0,0,0,0,0,0,0,0,0,0,0,0,0,0,0],"sum_hessian":[1.5012E4,1.1985E4,3.027E3,1.049E4,1.495E3,1.91E3,1.117E3,9.943E3,5.47E2,9.58E2,5.37E2,1.044E3,8.66E2,8.42E2,2.75E2,9.9E3,4.3E1,4.79E2,6.8E1,1.08E2,8.5E2,5.15E2,2.2E1,1.039E3,5E0,8.54E2,1.2E1],"tree_param":{"num_deleted":"0","num_feature":"245","num_nodes":"27","size_leaf_vector":"1"}},{"base_weights":[1.459902E-4,-2.6063189E-2,3.1446632E-2,-2.6490578E-2,2.4604776E-3,2.6459793E-2,4.1623143E-3,-2.7347906E-2,-4.3707616E-3,3.356482E-2,9.841242E-3,-1.373187E-3,-0E0,-7.958497E-4,1.9156386E-4,1.3848523E-3,2.0900674E-3,6.2469775E-7,1.6601362E-3],"categories":[],"categories_nodes":[],"categories_segments":[],"categories_sizes":[],"default_left":[0,0,0,0,0,0,0,0,0,0,1,0,0,0,0,0,0,0,0],"id":36,"left_children":[1,3,5,7,-1,9,-1,11,13,15,17,-1,-1,-1,-1,-1,-1,-1,-1],"loss_changes":[1.2355144E1,2.442193E-1,1.660387E0,1.2238407E-1,0E0,6.990051E-1,0E0,2.385807E-2,4.5509294E-2,1.3808584E-1,4.10398E-1,0E0,0E0,0E0,0E0,0E0,0E0,0E0,0E0],"parents":[2147483647,0,0,1,1,2,2,3,3,5,5,7,7,8,8,9,9,10,10],"right_children":[2,4,6,8,-1,10,-1,12,14,16,18,-1,-1,-1,-1,-1,-1,-1,-1],"split_conditions":[3.1E1,3.31E2,1.148E3,1E0,2.4604776E-3,1E0,4.1623143E-3,5.7684595E8,2.2E1,1.88E0,1.51E0,-1.373187E-3,-0E0,-7.958497E-4,1.9156386E-4,1.3848523E-3,2.0900674E-3,6.2469775E-7,1.6601362E-3],"split_indices":[9,8,8,9,0,243,0,1,6,7,7,0,0,0,0,0,0,0,0],"split_type":[0,0,0,0,0,0,0,0,0,0,0,0,0,0,0,0,0,0,0],"sum_hessian":[1.5048E4,8.173E3,6.875E3,8.142E3,3.1E1,6.293E3,5.82E2,7.794E3,3.48E2,4.364E3,1.929E3,7.76E3,3.4E1,1.94E2,1.54E2,2.627E3,1.737E3,1.39E3,5.39E2],"tree_param":{"num_deleted":"0","num_feature":"245","num_nodes":"19","size_leaf_vector":"1"}},{"base_weights":[6.5372867E-4,-1.9661784E-2,8.761804E-2,-2.5421962E-2,1.7414736E-2,6.6221766E-2,6.21058E-3,-2.6256062E-2,-1.1127568E-2,6.7499294E-3,2.6664535E-2,5.0223503E-2,3.956982E-3,-1.3153289E-3,-0E0,-5.873253E-4,-0E0,-0E0,4.5918603E-4,1.3577892E-3,-0E0,-0E0,2.525566E-3],"categories":[],"categories_nodes":[],"categories_segments":[],"categories_sizes":[],"default_left":[0,0,0,0,0,0,0,0,0,0,0,0,0,0,0,0,0,0,0,0,0,0,0],"id":37,"left_children":[1,3,5,7,9,11,-1,13,15,17,19,21,-1,-1,-1,-1,-1,-1,-1,-1,-1,-1,-1],"loss_changes":[2.6775402E1,2.6244678E0,2.0335674E0,8.83975E-2,1.2634745E-1,2.3814678E-1,0E0,1.2628555E-2,6.6799372E-3,8.431673E-3,9.854674E-3,9.712219E-3,0E0,0E0,0E0,0E0,0E0,0E0,0E0,0E0,0E0,0E0,0E0],"parents":[2147483647,0,0,1,1,2,2,3,3,4,4,5,5,7,7,8,8,9,9,10,10,11,11],"right_children":[2,4,6,8,10,12,-1,14,16,18,20,22,-1,-1,-1,-1,-1,-1,-1,-1,-1,-1,-1],"split_conditions":[5.529429E0,5.2574954E0,5.963579E0,5.147794E0,5.3936276E0,5.7268257E0,6.21058E-3,1.4916913E18,5.7044864E8,-7.39775E1,1E0,6.0278E4,3.956982E-3,-1.3153289E-3,-0E0,-5.873253E-4,-0E0,-0E0,4.5918603E-4,1.3577892E-3,-0E0,-0E0,2.525566E-3],"split_indices":[17,17,17,17,17,17,0,0,1,3,93,1,0,0,0,0,0,0,0,0,0,0,0],"split_type":[0,0,0,0,0,0,0,0,0,0,0,0,0,0,0,0,0,0,0,0,0,0,0],"sum_hessian":[1.5111E4,1.2242E4,2.869E3,1.062E4,1.622E3,1.833E3,1.036E3,9.966E3,6.54E2,8.06E2,8.16E2,8.6E2,9.73E2,9.946E3,2E1,6.35E2,1.9E1,2.72E2,5.34E2,8E2,1.6E1,6E0,8.54E2],"tree_param":{"num_deleted":"0","num_feature":"245","num_nodes":"23","size_leaf_vector":"1"}},{"base_weights":[-0E0,-1.9494068E-2,8.138393E-2,-2.4323445E-2,1.4000659E-2,5.9825454E-2,1.163408E-1,-2.513169E-2,-8.7609235E-3,5.8097597E-3,2.062398E-2,4.1323002E-2,3.5527765E-3,5.2664E-3,7.259153E-3,-1.2581915E-3,-0E0,-0E0,-4.9619883E-4,3.410649E-4,-0E0,1.0524679E-3,-0E0,-0E0,2.0921987E-3],"categories":[],"categories_nodes":[],"categories_segments":[],"categories_sizes":[],"default_left":[0,0,0,0,0,0,0,0,0,0,0,0,0,0,0,0,0,0,0,0,0,0,0,0,0],"id":38,"left_children":[1,3,5,7,9,11,13,15,17,19,21,23,-1,-1,-1,-1,-1,-1,-1,-1,-1,-1,-1,-1,-1],"loss_changes":[2.3954731E1,1.9755802E0,2.0035152E0,9.927988E-2,5.4908782E-2,2.5905704E-1,5.0787926E-2,9.917736E-3,8.017547E-3,7.5644515E-3,7.783264E-3,5.452037E-3,0E0,0E0,0E0,0E0,0E0,0E0,0E0,0E0,0E0,0E0,0E0,0E0,0E0],"parents":[2147483647,0,0,1,1,2,2,3,3,4,4,5,5,6,6,7,7,8,8,9,9,10,10,11,11],"right_children":[2,4,6,8,10,12,14,16,18,20,22,24,-1,-1,-1,-1,-1,-1,-1,-1,-1,-1,-1,-1,-1],"split_conditions":[5.521461E0,5.2574954E0,5.9427996E0,5.1607003E0,5.3812146E0,5.6801724E0,6.1941004E0,1E0,1.62E2,-7.382727E1,1E0,-7.401394E1,3.5527765E-3,5.2664E-3,7.259153E-3,-1.2581915E-3,-0E0,-0E0,-4.9619883E-4,3.410649E-4,-0E0,1.0524679E-3,-0E0,-0E0,2.0921987E-3],"split_indices":[17,17,17,17,17,17,17,175,4,3,93,3,0,0,0,0,0,0,0,0,0,0,0,0,0],"split_type":[0,0,0,0,0,0,0,0,0,0,0,0,0,0,0,0,0,0,0,0,0,0,0,0,0],"sum_hessian":[1.5057E4,1.214E4,2.917E3,1.0637E4,1.503E3,1.827E3,1.09E3,1.0049E4,5.88E2,7.42E2,7.61E2,7.29E2,1.098E3,8.24E2,2.66E2,1.0039E4,1E1,4.9E1,5.39E2,7E2,4.2E1,7.48E2,1.3E1,1.5E1,7.14E2],"tree_param":{"num_deleted":"0","num_feature":"245","num_nodes":"25","size_leaf_vector":"1"}},{"base_weights":[4.4303728E-4,-1.7610919E-2,7.843028E-2,-2.2639109E-2,1.4574515E-2,5.941499E-2,1.112166E-1,-2.3500884E-2,-8.446765E-3,5.2518076E-3,2.2665357E-2,4.6520557E-2,3.6935143E-3,5.1815077E-3,7.5438432E-3,-1.1780568E-3,-0E0,-4.8123897E-4,-0E0,2.953752E-4,-0E0,-0E0,1.1780531E-3,2.3632902E-3,-0E0],"categories":[],"categories_nodes":[],"categories_segments":[],"categories_sizes":[],"default_left":[0,0,0,0,0,0,0,0,1,0,0,0,0,0,0,0,0,0,0,0,0,0,0,0,0],"id":39,"left_children":[1,3,5,7,9,11,13,15,17,19,21,23,-1,-1,-1,-1,-1,-1,-1,-1,-1,-1,-1,-1,-1],"loss_changes":[2.1381754E1,1.9973531E0,1.5907154E0,9.776211E-2,9.505141E-2,2.1114397E-1,7.29084E-3,1.1633396E-2,7.827681E-3,4.785903E-3,1.6064048E-2,1.0552645E-2,0E0,0E0,0E0,0E0,0E0,0E0,0E0,0E0,0E0,0E0,0E0,0E0,0E0],"parents":[2147483647,0,0,1,1,2,2,3,3,4,4,5,5,6,6,7,7,8,8,9,9,10,10,11,11],"right_children":[2,4,6,8,10,12,14,16,18,20,22,24,-1,-1,-1,-1,-1,-1,-1,-1,-1,-1,-1,-1,-1],"split_conditions":[5.529429E0,5.2574954E0,5.963579E0,5.1474943E0,5.3936276E0,5.7589016E0,6.2363696E0,1E0,2.41E0,3.1E1,5E-2,1.4916913E18,3.6935143E-3,5.1815077E-3,7.5438432E-3,-1.1780568E-3,-0E0,-4.8123897E-4,-0E0,2.953752E-4,-0E0,-0E0,1.1780531E-3,2.3632902E-3,-0E0],"split_indices":[17,17,17,17,17,17,17,114,7,5,7,0,0,0,0,0,0,0,0,0,0,0,0,0,0],"split_type":[0,0,0,0,0,0,0,0,0,0,0,0,0,0,0,0,0,0,0,0,0,0,0,0,0],"sum_hessian":[1.5137E4,1.2283E4,2.854E3,1.0651E4,1.632E3,1.831E3,1.023E3,9.973E3,6.78E2,8.18E2,8.14E2,1.011E3,8.2E2,8.89E2,1.34E2,9.943E3,3E1,6.06E2,7.2E1,7.83E2,3.5E1,3.2E1,7.82E2,9.84E2,2.7E1],"tree_param":{"num_deleted":"0","num_feature":"245","num_nodes":"25","size_leaf_vector":"1"}},{"base_weights":[6.855533E-4,-1.8865643E-2,6.70152E-2,-2.2096034E-2,5.7278657E-3,3.9250057E-2,9.3470626E-2,-2.2491243E-2,-1.0292637E-2,-0E0,1.1750302E-2,3.1599835E-2,5.465095E-2,7.8469425E-2,5.784954E-3,-1.1256713E-3,-0E0,-7.204291E-4,-0E0,-1.4505353E-4,1.052676E-4,-0E0,6.72853E-4,1.0601237E-3,1.9500472E-3,2.749924E-3,-0E0,3.935343E-3,-0E0],"categories":[],"categories_nodes":[],"categories_segments":[],"categories_sizes":[],"default_left":[0,0,0,0,0,0,0,0,0,0,0,0,0,0,0,0,0,0,0,0,0,0,0,0,0,0,0,0,0],"id":40,"left_children":[1,3,5,7,9,11,13,15,17,19,21,23,25,27,-1,-1,-1,-1,-1,-1,-1,-1,-1,-1,-1,-1,-1,-1,-1],"loss_changes":[1.9845366E1,9.525504E-1,2.4176083E0,1.5259743E-2,5.633399E-2,1.118083E-1,3.6714077E-1,7.473469E-3,1.694481E-2,4.454919E-3,9.279393E-3,2.9889107E-2,1.8569231E-3,9.703636E-3,0E0,0E0,0E0,0E0,0E0,0E0,0E0,0E0,0E0,0E0,0E0,0E0,0E0,0E0,0E0],"parents":[2147483647,0,0,1,1,2,2,3,3,4,4,5,5,6,6,7,7,8,8,9,9,10,10,11,11,12,12,13,13],"right_children":[2,4,6,8,10,12,14,16,18,20,22,24,26,28,-1,-1,-1,-1,-1,-1,-1,-1,-1,-1,-1,-1,-1,-1,-1],"split_conditions":[2.22E2,1.8E2,3.17E2,1.67E2,1.99E2,1E0,4.17E2,1E0,4.075951E1,1E0,4.06781E1,2.53E2,1.25E2,1E0,5.784954E-3,-1.1256713E-3,-0E0,-7.204291E-4,-0E0,-1.4505353E-4,1.052676E-4,-0E0,6.72853E-4,1.0601237E-3,1.9500472E-3,2.749924E-3,-0E0,3.935343E-3,-0E0],"split_indices":[4,4,4,4,4,11,4,40,2,11,2,4,5,33,0,0,0,0,0,0,0,0,0,0,0,0,0,0,0],"split_type":[0,0,0,0,0,0,0,0,0,0,0,0,0,0,0,0,0,0,0,0,0,0,0,0,0,0,0,0,0],"sum_hessian":[1.526E4,1.1776E4,3.484E3,1.0445E4,1.331E3,1.722E3,1.762E3,1.0022E4,4.23E2,6.09E2,7.22E2,1.2E3,5.22E2,1.087E3,6.75E2,1.0017E4,5E0,2.96E2,1.27E2,4.31E2,1.78E2,1.21E2,6.01E2,5.6E2,6.4E2,5.16E2,6E0,1.082E3,5E0],"tree_param":{"num_deleted":"0","num_feature":"245","num_nodes":"29","size_leaf_vector":"1"}},{"base_weights":[1.8205382E-4,-1.6812233E-2,6.876668E-2,-2.0770557E-2,1.3195845E-2,4.927456E-2,9.808102E-2,-2.1573015E-2,-8.618956E-3,4.7769123E-3,2.053613E-2,3.8109533E-2,6.011292E-2,4.412953E-3,6.0907067E-3,-1.0806876E-3,-0E0,-5.8780744E-4,-0E0,1.945757E-5,5.3978077E-4,1.0766732E-3,-0E0,1.9246327E-3,-0E0,-0E0,3.0417514E-3],"categories":[],"categories_nodes":[],"categories_segments":[],"categories_sizes":[],"default_left":[0,0,0,0,0,0,0,0,0,0,0,0,0,0,0,0,0,0,0,0,0,0,0,0,0,0,0],"id":41,"left_children":[1,3,5,7,9,11,13,15,17,19,21,23,25,-1,-1,-1,-1,-1,-1,-1,-1,-1,-1,-1,-1,-1,-1],"loss_changes":[1.7685484E1,1.4471998E0,1.5614843E0,7.389927E-2,5.992022E-2,1.17322445E-1,3.2971382E-2,7.7619553E-3,2.0383723E-2,7.605573E-3,1.1628419E-2,2.0736098E-2,1.4116287E-2,0E0,0E0,0E0,0E0,0E0,0E0,0E0,0E0,0E0,0E0,0E0,0E0,0E0,0E0],"parents":[2147483647,0,0,1,1,2,2,3,3,4,4,5,5,6,6,7,7,8,8,9,9,10,10,11,11,12,12],"right_children":[2,4,6,8,10,12,14,16,18,20,22,24,26,-1,-1,-1,-1,-1,-1,-1,-1,-1,-1,-1,-1,-1,-1],"split_conditions":[2.4E2,1.9E2,3.63E2,1.67E2,2.12E2,2.95E2,4.65E2,1E0,6.0333335E-1,1E0,1E0,1E0,5.497991E-4,4.412953E-3,6.0907067E-3,-1.0806876E-3,-0E0,-5.8780744E-4,-0E0,1.945757E-5,5.3978077E-4,1.0766732E-3,-0E0,1.9246327E-3,-0E0,-0E0,3.0417514E-3],"split_indices":[4,4,4,4,4,4,4,58,12,11,224,206,25,0,0,0,0,0,0,0,0,0,0,0,0,0,0],"split_type":[0,0,0,0,0,0,0,0,0,0,0,0,0,0,0,0,0,0,0,0,0,0,0,0,0,0,0],"sum_hessian":[1.5123E4,1.211E4,3.013E3,1.0729E4,1.381E3,1.835E3,1.178E3,9.985E3,7.44E2,7.09E2,6.72E2,9.56E2,8.79E2,8.73E2,3.05E2,9.964E3,2.1E1,5.46E2,1.98E2,5.08E2,2.01E2,6.36E2,3.6E1,9.51E2,5E0,1.7E1,8.62E2],"tree_param":{"num_deleted":"0","num_feature":"245","num_nodes":"27","size_leaf_vector":"1"}},{"base_weights":[3.74079E-4,-1.5351447E-2,6.771963E-2,-2.0003E-2,1.1747654E-2,5.0351165E-2,9.3476094E-2,-2.0553123E-2,-8.473915E-3,2.1427202E-3,1.9938327E-2,3.9217204E-2,3.0329395E-3,4.2383843E-3,6.4743757E-3,-1.0299337E-3,-0E0,-4.988652E-4,-0E0,2.8205485E-4,-0E0,1.025756E-3,-0E0,-0E0,1.9740087E-3],"categories":[],"categories_nodes":[],"categories_segments":[],"categories_sizes":[],"default_left":[0,0,0,0,0,0,0,0,0,0,0,0,0,0,0,0,0,0,0,0,0,0,0,0,0],"id":42,"left_children":[1,3,5,7,9,11,13,15,17,19,21,23,-1,-1,-1,-1,-1,-1,-1,-1,-1,-1,-1,-1,-1],"loss_changes":[1.6052351E1,1.5513434E0,1.1268415E0,3.6893845E-2,1.1648752E-1,9.325218E-2,1.0718632E-1,9.673119E-3,9.003118E-3,7.361468E-3,9.519696E-3,9.149313E-3,0E0,0E0,0E0,0E0,0E0,0E0,0E0,0E0,0E0,0E0,0E0,0E0,0E0],"parents":[2147483647,0,0,1,1,2,2,3,3,4,4,5,5,6,6,7,7,8,8,9,9,10,10,11,11],"right_children":[2,4,6,8,10,12,14,16,18,20,22,24,-1,-1,-1,-1,-1,-1,-1,-1,-1,-1,-1,-1,-1],"split_conditions":[5.529429E0,5.241747E0,5.9427996E0,5.147794E0,5.3812146E0,5.730392E0,6.2176824E0,1E0,6.2E1,2.63E2,5.832592E8,6.0278E4,3.0329395E-3,4.2383843E-3,6.4743757E-3,-1.0299337E-3,-0E0,-4.988652E-4,-0E0,2.8205485E-4,-0E0,1.025756E-3,-0E0,-0E0,1.9740087E-3],"split_indices":[17,17,17,17,17,17,17,58,8,9,1,1,0,0,0,0,0,0,0,0,0,0,0,0,0],"split_type":[0,0,0,0,0,0,0,0,0,0,0,0,0,0,0,0,0,0,0,0,0,0,0,0,0],"sum_hessian":[1.5102E4,1.2233E4,2.869E3,1.0473E4,1.76E3,1.742E3,1.127E3,9.911E3,5.62E2,8.68E2,8.92E2,8.91E2,8.51E2,9.38E2,1.89E2,9.89E3,2.1E1,4.95E2,6.7E1,3.54E2,5.14E2,8.65E2,2.7E1,6E0,8.85E2],"tree_param":{"num_deleted":"0","num_feature":"245","num_nodes":"25","size_leaf_vector":"1"}},{"base_weights":[3.0575416E-4,-1.620578E-2,5.7412207E-2,-1.8879594E-2,6.651952E-3,3.46977E-2,8.153706E-2,-1.9357068E-2,-5.489759E-3,-0E0,9.139198E-3,2.4868315E-2,4.230818E-2,7.394421E-2,5.8141206E-3,-9.7269187E-4,-0E0,-0E0,-4.800235E-4,4.976E-4,-0E0,1.2723565E-3,-0E0,2.1500085E-3,-0E0,3.7073751E-3,-0E0],"categories":[],"categories_nodes":[],"categories_segments":[],"categories_sizes":[],"default_left":[0,0,0,0,0,0,0,0,0,0,0,0,0,0,0,0,0,0,0,0,0,0,0,0,0,0,0],"id":43,"left_children":[1,3,5,7,9,11,13,15,17,-1,19,21,23,25,-1,-1,-1,-1,-1,-1,-1,-1,-1,-1,-1,-1,-1],"loss_changes":[1.4345191E1,7.3097754E-1,1.7471924E0,4.2366505E-2,1.9499931E-2,6.327152E-2,2.1479034E-1,6.6189766E-3,9.597438E-3,0E0,1.0565795E-2,1.0333896E-2,1.8805027E-2,2.8190613E-3,0E0,0E0,0E0,0E0,0E0,0E0,0E0,0E0,0E0,0E0,0E0,0E0,0E0],"parents":[2147483647,0,0,1,1,2,2,3,3,4,4,5,5,6,6,7,7,8,8,10,10,11,11,12,12,13,13],"right_children":[2,4,6,8,10,12,14,16,18,-1,20,22,24,26,-1,-1,-1,-1,-1,-1,-1,-1,-1,-1,-1,-1,-1],"split_conditions":[5.4380794E0,5.247024E0,5.8261623E0,5.1730742E0,5.3033047E0,5.602119E0,6.1941004E0,1E0,5.4927502E17,-0E0,-7.379733E1,1.4767336E18,1E0,1E0,5.8141206E-3,-9.7269187E-4,-0E0,-0E0,-4.800235E-4,4.976E-4,-0E0,1.2723565E-3,-0E0,2.1500085E-3,-0E0,3.7073751E-3,-0E0],"split_indices":[17,17,17,17,17,17,17,190,0,0,3,0,93,184,0,0,0,0,0,0,0,0,0,0,0,0,0],"split_type":[0,0,0,0,0,0,0,0,0,0,0,0,0,0,0,0,0,0,0,0,0,0,0,0,0,0,0],"sum_hessian":[1.5164E4,1.1751E4,3.413E3,1.056E4,1.191E3,1.783E3,1.63E3,1.0123E4,4.37E2,3.28E2,8.63E2,8.41E2,9.42E2,1.369E3,2.61E2,1.004E4,8.3E1,1.92E2,2.45E2,8.34E2,2.9E1,8.19E2,2.2E1,9.22E2,2E1,1.362E3,7E0],"tree_param":{"num_deleted":"0","num_feature":"245","num_nodes":"27","size_leaf_vector":"1"}},{"base_weights":[1.0751167E-4,-1.3959532E-2,6.114884E-2,-1.7878702E-2,1.1065428E-2,4.5794174E-2,8.678311E-2,-1.8657489E-2,-9.387607E-3,4.2268266E-3,1.803334E-2,3.1836793E-2,5.409312E-2,7.8216106E-2,5.9013767E-3,-0E0,-9.394316E-4,-0E0,-4.99465E-4,-0E0,2.6930743E-4,9.410075E-4,-0E0,1.6394688E-3,-0E0,2.7133143E-3,-0E0,-0E0,3.948161E-3],"categories":[],"categories_nodes":[],"categories_segments":[],"categories_sizes":[],"default_left":[0,0,0,0,0,0,0,0,0,0,0,0,0,0,0,0,0,0,0,0,0,0,0,0,0,0,0,0,0],"id":44,"left_children":[1,3,5,7,9,11,13,15,17,19,21,23,25,27,-1,-1,-1,-1,-1,-1,-1,-1,-1,-1,-1,-1,-1,-1,-1],"loss_changes":[1.3066344E1,1.2146378E0,9.7845745E-1,4.2040348E-2,5.5372536E-2,1.19137526E-1,5.470705E-2,1.0421038E-2,7.396579E-3,5.4575503E-3,6.465256E-3,2.337581E-2,5.7103634E-3,1.2640953E-2,0E0,0E0,0E0,0E0,0E0,0E0,0E0,0E0,0E0,0E0,0E0,0E0,0E0,0E0,0E0],"parents":[2147483647,0,0,1,1,2,2,3,3,4,4,5,5,6,6,7,7,8,8,9,9,10,10,11,11,12,12,13,13],"right_children":[2,4,6,8,10,12,14,16,18,20,22,24,26,28,-1,-1,-1,-1,-1,-1,-1,-1,-1,-1,-1,-1,-1,-1,-1],"split_conditions":[5.529429E0,5.2574954E0,5.963579E0,5.09375E0,5.39852E0,5.7071104E0,6.2176824E0,2.0576E5,6E-2,4.1446392E-3,1E0,1.4767336E18,1E0,4.56457E5,5.9013767E-3,-0E0,-9.394316E-4,-0E0,-4.99465E-4,-0E0,2.6930743E-4,9.410075E-4,-0E0,1.6394688E-3,-0E0,2.7133143E-3,-0E0,-0E0,3.948161E-3],"split_indices":[17,17,17,17,17,17,17,1,7,25,224,0,206,0,0,0,0,0,0,0,0,0,0,0,0,0,0,0,0],"split_type":[0,0,0,0,0,0,0,0,0,0,0,0,0,0,0,0,0,0,0,0,0,0,0,0,0,0,0,0,0],"sum_hessian":[1.5156E4,1.2306E4,2.85E3,1.0675E4,1.631E3,1.812E3,1.038E3,9.667E3,1.008E3,8.98E2,7.33E2,7.26E2,1.086E3,8.48E2,1.9E2,1.05E2,9.562E3,4.4E1,9.64E2,1.58E2,7.4E2,6.91E2,4.2E1,7.06E2,2E1,1.081E3,5E0,1.4E1,8.34E2],"tree_param":{"num_deleted":"0","num_feature":"245","num_nodes":"29","size_leaf_vector":"1"}},{"base_weights":[6.488052E-4,-1.4351491E-2,5.2458763E-2,-1.6579662E-2,6.8546287E-3,3.106217E-2,7.230571E-2,-1.7109048E-2,-5.5723274E-3,-0E0,9.716453E-3,2.4483362E-2,3.9269302E-2,6.126352E-2,4.6855374E-3,-8.5914665E-4,-0E0,-0E0,-3.4521247E-4,1.6500113E-4,-0E0,5.189368E-4,-0E0,-0E0,1.2337476E-3,2.000051E-3,-0E0,3.0734218E-3,-0E0],"categories":[],"categories_nodes":[],"categories_segments":[],"categories_sizes":[],"default_left":[0,0,0,0,0,0,0,0,0,0,0,0,0,0,0,0,0,0,0,0,0,0,0,0,0,0,0,0,0],"id":45,"left_children":[1,3,5,7,9,11,13,15,17,19,21,23,25,27,-1,-1,-1,-1,-1,-1,-1,-1,-1,-1,-1,-1,-1,-1,-1],"loss_changes":[1.1779439E1,5.62948E-1,1.3367004E0,3.8986683E-2,1.4584791E-2,2.3477435E-2,2.3930264E-1,1.07162E-2,5.8558956E-3,1.023674E-3,6.3557103E-3,3.9574504E-3,1.6461134E-2,3.428936E-3,0E0,0E0,0E0,0E0,0E0,0E0,0E0,0E0,0E0,0E0,0E0,0E0,0E0,0E0,0E0],"parents":[2147483647,0,0,1,1,2,2,3,3,4,4,5,5,6,6,7,7,8,8,9,9,10,10,11,11,12,12,13,13],"right_children":[2,4,6,8,10,12,14,16,18,20,22,24,26,28,-1,-1,-1,-1,-1,-1,-1,-1,-1,-1,-1,-1,-1,-1,-1],"split_conditions":[5.4380794E0,5.267858E0,5.790142E0,5.1730742E0,5.31812E0,5.627621E0,6.088584E0,1.98E2,5.187386E0,1.24E2,5.655796E8,2.0576E5,1.4916913E18,1E0,4.6855374E-3,-8.5914665E-4,-0E0,-0E0,-3.4521247E-4,1.6500113E-4,-0E0,5.189368E-4,-0E0,-0E0,1.2337476E-3,2.000051E-3,-0E0,3.0734218E-3,-0E0],"split_indices":[17,17,17,17,17,17,17,5,17,9,1,1,0,184,0,0,0,0,0,0,0,0,0,0,0,0,0,0,0],"split_type":[0,0,0,0,0,0,0,0,0,0,0,0,0,0,0,0,0,0,0,0,0,0,0,0,0,0,0,0,0],"sum_hessian":[1.5102E4,1.1698E4,3.404E3,1.0629E4,1.069E3,1.666E3,1.738E3,1.0053E4,5.76E2,3.84E2,6.85E2,9.99E2,6.67E2,1.185E3,5.53E2,1.0003E4,5E1,7.9E1,4.97E2,9.1E1,2.93E2,6.59E2,2.6E1,9E0,9.9E2,6.53E2,1.4E1,1.178E3,7E0],"tree_param":{"num_deleted":"0","num_feature":"245","num_nodes":"29","size_leaf_vector":"1"}},{"base_weights":[1.9132858E-4,-1.2823218E-2,5.461528E-2,-1.6020272E-2,9.986736E-3,3.941533E-2,8.07832E-2,-1.6591195E-2,-4.836378E-3,-0E0,1.2513635E-2,2.5431946E-2,4.708515E-2,7.353157E-2,5.5094296E-3,-8.3461136E-4,-0E0,-3.475983E-4,-0E0,2.1742338E-4,-3.0971325E-5,6.4740836E-4,-0E0,1.2962755E-3,-0E0,2.36327E-3,-0E0,-0E0,3.7111775E-3],"categories":[],"categories_nodes":[],"categories_segments":[],"categories_sizes":[],"default_left":[0,0,0,0,0,0,0,0,0,0,0,0,0,0,0,0,0,0,0,0,0,0,0,0,0,0,0,0,0],"id":46,"left_children":[1,3,5,7,9,11,13,15,17,19,21,23,25,27,-1,-1,-1,-1,-1,-1,-1,-1,-1,-1,-1,-1,-1,-1,-1],"loss_changes":[1.0825682E1,9.0144515E-1,1.0448084E0,4.7310352E-2,2.7006313E-2,1.2745142E-1,1.7577171E-2,9.753227E-3,6.2267054E-3,4.0130233E-3,7.586643E-3,7.623315E-3,8.829594E-3,7.84874E-3,0E0,0E0,0E0,0E0,0E0,0E0,0E0,0E0,0E0,0E0,0E0,0E0,0E0,0E0,0E0],"parents":[2147483647,0,0,1,1,2,2,3,3,4,4,5,5,6,6,7,7,8,8,9,9,10,10,11,11,12,12,13,13],"right_children":[2,4,6,8,10,12,14,16,18,20,22,24,26,28,-1,-1,-1,-1,-1,-1,-1,-1,-1,-1,-1,-1,-1,-1,-1],"split_conditions":[5.521461E0,5.273E0,5.963579E0,5.1730742E0,5.31812E0,5.6801724E0,6.228495E0,2.18E2,2.7012253E8,1.1311012E8,4.8E1,1.4916913E18,1E0,4.56457E5,5.5094296E-3,-8.3461136E-4,-0E0,-3.475983E-4,-0E0,2.1742338E-4,-3.0971325E-5,6.4740836E-4,-0E0,1.2962755E-3,-0E0,2.36327E-3,-0E0,-0E0,3.7111775E-3],"split_indices":[17,17,17,17,17,17,17,6,1,1,5,0,88,0,0,0,0,0,0,0,0,0,0,0,0,0,0,0,0],"split_type":[0,0,0,0,0,0,0,0,0,0,0,0,0,0,0,0,0,0,0,0,0,0,0,0,0,0,0,0,0],"sum_hessian":[1.5219E4,1.2269E4,2.95E3,1.08E4,1.469E3,1.895E3,1.055E3,1.0189E4,6.11E2,3.62E2,1.107E3,7.22E2,1.173E3,8.82E2,1.73E2,1.0101E4,8.8E1,4.23E2,1.88E2,2.06E2,1.56E2,1.079E3,2.8E1,7.06E2,1.6E1,1.168E3,5E0,1.5E1,8.67E2],"tree_param":{"num_deleted":"0","num_feature":"245","num_nodes":"29","size_leaf_vector":"1"}},{"base_weights":[4.858769E-4,-1.2108244E-2,5.105041E-2,-1.5148333E-2,7.994067E-3,3.8129184E-2,7.594019E-2,-1.559713E-2,-5.3799027E-3,1.9359692E-3,1.3563924E-2,2.505064E-2,4.4354066E-2,-0E0,7.6161124E-2,-7.818392E-4,-0E0,-3.2982437E-4,-0E0,3.8933192E-4,-0E0,7.28608E-4,-0E0,1.2745382E-3,-0E0,2.2283036E-3,-0E0,-0E0,3.841893E-3],"categories":[],"categories_nodes":[],"categories_segments":[],"categories_sizes":[],"default_left":[0,0,0,0,0,0,0,0,0,0,0,0,0,0,0,0,0,0,0,0,0,0,0,0,0,0,0,0,0],"id":47,"left_children":[1,3,5,7,9,11,13,15,17,19,21,23,25,-1,27,-1,-1,-1,-1,-1,-1,-1,-1,-1,-1,-1,-1,-1,-1],"loss_changes":[9.674546E0,7.468604E-1,8.526764E-1,2.5036097E-2,3.6655076E-2,9.244752E-2,4.83799E-3,8.704901E-3,5.113799E-3,8.466093E-3,1.0656804E-2,8.063018E-3,8.976698E-3,0E0,3.3769608E-3,0E0,0E0,0E0,0E0,0E0,0E0,0E0,0E0,0E0,0E0,0E0,0E0,0E0,0E0],"parents":[2147483647,0,0,1,1,2,2,3,3,4,4,5,5,6,6,7,7,8,8,9,9,10,10,11,11,12,12,14,14],"right_children":[2,4,6,8,10,12,14,16,18,20,22,24,26,-1,28,-1,-1,-1,-1,-1,-1,-1,-1,-1,-1,-1,-1,-1,-1],"split_conditions":[5.512496E0,5.247024E0,5.963579E0,5.147794E0,5.3812146E0,5.652489E0,6E0,1E0,6.2E1,1.52E2,1E0,1E0,1E0,-0E0,4.56457E5,-7.818392E-4,-0E0,-3.2982437E-4,-0E0,3.8933192E-4,-0E0,7.28608E-4,-0E0,1.2745382E-3,-0E0,2.2283036E-3,-0E0,-0E0,3.841893E-3],"split_indices":[17,17,17,17,17,17,19,48,8,9,224,162,206,0,0,0,0,0,0,0,0,0,0,0,0,0,0,0,0],"split_type":[0,0,0,0,0,0,0,0,0,0,0,0,0,0,0,0,0,0,0,0,0,0,0,0,0,0,0,0,0],"sum_hessian":[1.5125E4,1.2095E4,3.03E3,1.055E4,1.545E3,2.026E3,1.004E3,9.987E3,5.63E2,8.28E2,7.17E2,7.1E2,1.316E3,5E0,9.99E2,9.972E3,1.5E1,4.91E2,7.2E1,1.88E2,6.4E2,6.71E2,4.6E1,6.98E2,1.2E1,1.308E3,8E0,1.7E1,9.82E2],"tree_param":{"num_deleted":"0","num_feature":"245","num_nodes":"29","size_leaf_vector":"1"}},{"base_weights":[9.147658E-5,-1.28750885E-2,4.525286E-2,-1.4764936E-2,3.4785944E-3,2.8377019E-2,6.501335E-2,-1.540974E-2,-7.5518084E-3,-0E0,5.67548E-3,1.9309193E-2,3.480746E-2,5.647567E-2,4.25773E-3,-7.725652E-4,-0E0,-0E0,-4.706856E-4,6.213242E-5,-5.489002E-6,3.4611992E-4,-0E0,9.969162E-4,-0E0,1.7671572E-3,-0E0,2.8354586E-3,-0E0],"categories":[],"categories_nodes":[],"categories_segments":[],"categories_sizes":[],"default_left":[0,0,0,0,0,0,0,0,1,0,1,0,0,0,0,0,0,0,0,0,0,0,0,0,0,0,0,0,0],"id":48,"left_children":[1,3,5,7,9,11,13,15,17,19,21,23,25,27,-1,-1,-1,-1,-1,-1,-1,-1,-1,-1,-1,-1,-1,-1,-1],"loss_changes":[8.881188E0,3.7375128E-1,1.0308881E0,2.5822878E-2,8.164719E-3,5.232382E-2,1.0721207E-1,7.2579384E-3,1.2623917E-2,2.08001E-4,8.347066E-3,1.2069404E-2,1.5845895E-2,7.0626736E-3,0E0,0E0,0E0,0E0,0E0,0E0,0E0,0E0,0E0,0E0,0E0,0E0,0E0,0E0,0E0],"parents":[2147483647,0,0,1,1,2,2,3,3,4,4,5,5,6,6,7,7,8,8,9,9,10,10,11,11,12,12,13,13],"right_children":[2,4,6,8,10,12,14,16,18,20,22,24,26,28,-1,-1,-1,-1,-1,-1,-1,-1,-1,-1,-1,-1,-1,-1,-1],"split_conditions":[5.433722E0,5.247024E0,5.8406415E0,5.0875964E0,5.3082676E0,5.602119E0,6.13373E0,1E0,6E-2,4.8219177E-1,2.83E0,1E0,4.082982E1,1E0,4.25773E-3,-7.725652E-4,-0E0,-0E0,-4.706856E-4,6.213242E-5,-5.489002E-6,3.4611992E-4,-0E0,9.969162E-4,-0E0,1.7671572E-3,-0E0,2.8354586E-3,-0E0],"split_indices":[17,17,17,17,17,17,17,48,7,16,7,56,2,176,0,0,0,0,0,0,0,0,0,0,0,0,0,0,0],"split_type":[0,0,0,0,0,0,0,0,0,0,0,0,0,0,0,0,0,0,0,0,0,0,0,0,0,0,0,0,0],"sum_hessian":[1.5105E4,1.172E4,3.385E3,1.0561E4,1.159E3,1.857E3,1.528E3,9.564E3,9.97E2,4.72E2,6.87E2,8.4E2,1.017E3,1.116E3,4.12E2,9.543E3,2.1E1,2.14E2,7.83E2,1.29E2,3.43E2,6.35E2,5.2E1,8.18E2,2.2E1,9.99E2,1.8E1,1.109E3,7E0],"tree_param":{"num_deleted":"0","num_feature":"245","num_nodes":"29","size_leaf_vector":"1"}},{"base_weights":[3.895948E-4,-1.1086738E-2,4.6799965E-2,-1.3904471E-2,6.8208165E-3,3.405961E-2,6.541914E-2,-1.4294396E-2,-5.303943E-3,-0E0,1.0424571E-2,2.1148019E-2,3.877946E-2,5.9621733E-2,4.973253E-3,-7.1690837E-4,-0E0,-3.2367595E-4,-0E0,-5.4484448E-5,-0E0,5.5963715E-4,-0E0,-0E0,1.1000616E-3,-0E0,1.9616794E-3,2.9889827E-3,-0E0],"categories":[],"categories_nodes":[],"categories_segments":[],"categories_sizes":[],"default_left":[0,0,0,0,0,0,0,0,0,0,0,0,0,0,0,0,0,0,0,0,0,0,0,0,0,0,0,0,0],"id":49,"left_children":[1,3,5,7,9,11,13,15,17,19,21,23,25,27,-1,-1,-1,-1,-1,-1,-1,-1,-1,-1,-1,-1,-1,-1,-1],"loss_changes":[8.110736E0,6.1983633E-1,6.109371E-1,1.5510559E-2,4.350236E-2,4.9316645E-2,5.8594227E-2,1.0024309E-2,4.3727253E-3,4.0966066E-4,1.22877285E-2,1.4587089E-2,1.1554599E-2,1.9686222E-3,0E0,0E0,0E0,0E0,0E0,0E0,0E0,0E0,0E0,0E0,0E0,0E0,0E0,0E0,0E0],"parents":[2147483647,0,0,1,1,2,2,3,3,4,4,5,5,6,6,7,7,8,8,9,9,10,10,11,11,12,12,13,13],"right_children":[2,4,6,8,10,12,14,16,18,20,22,24,26,28,-1,-1,-1,-1,-1,-1,-1,-1,-1,-1,-1,-1,-1,-1,-1],"split_conditions":[5.5174527E0,5.247024E0,5.9295893E0,5.147794E0,5.31812E0,5.623644E0,6.2363696E0,1E0,4.8E1,9.4333974E17,-7.381965E1,3.74115E5,5.497991E-4,4.082424E1,4.973253E-3,-7.1690837E-4,-0E0,-3.2367595E-4,-0E0,-5.4484448E-5,-0E0,5.5963715E-4,-0E0,-0E0,1.1000616E-3,-0E0,1.9616794E-3,2.9889827E-3,-0E0],"split_indices":[17,17,17,17,17,17,17,227,8,0,3,1,25,2,0,0,0,0,0,0,0,0,0,0,0,0,0,0,0],"split_type":[0,0,0,0,0,0,0,0,0,0,0,0,0,0,0,0,0,0,0,0,0,0,0,0,0,0,0,0,0],"sum_hessian":[1.5155E4,1.2135E4,3.02E3,1.0534E4,1.601E3,1.83E3,1.19E3,9.964E3,5.7E2,5.17E2,1.084E3,5.51E2,1.279E3,1.049E3,1.41E2,9.952E3,1.2E1,4.86E2,8.4E1,3.42E2,1.75E2,1.038E3,4.6E1,1.2E1,5.39E2,2.2E1,1.257E3,1.044E3,5E0],"tree_param":{"num_deleted":"0","num_feature":"245","num_nodes":"29","size_leaf_vector":"1"}},{"base_weights":[-6.150608E-5,-1.0927005E-2,4.4674154E-2,-1.3573525E-2,7.03929E-3,3.512643E-2,6.916625E-2,-1.4098076E-2,-5.5170767E-3,7.072016E-4,1.1602384E-2,2.2237692E-2,4.0936176E-2,-0E0,3.4720493E-3,-7.080608E-4,-0E0,-3.4191643E-4,-0E0,1.4837616E-4,-0E0,6.710919E-4,-0E0,-0E0,1.1358229E-3,2.053568E-3,-0E0],"categories":[],"categories_nodes":[],"categories_segments":[],"categories_sizes":[],"default_left":[0,0,0,0,0,0,0,0,0,0,0,0,0,0,0,0,0,0,0,0,0,0,0,0,0,0,0],"id":50,"left_children":[1,3,5,7,9,11,13,15,17,19,21,23,25,-1,-1,-1,-1,-1,-1,-1,-1,-1,-1,-1,-1,-1,-1],"loss_changes":[7.331271E0,5.873364E-1,5.7662106E-1,2.5331974E-2,3.1613447E-2,9.5312595E-2,6.0868263E-3,7.270217E-3,7.5544305E-3,2.6280074E-3,1.3001412E-2,1.0013461E-2,5.697727E-3,0E0,0E0,0E0,0E0,0E0,0E0,0E0,0E0,0E0,0E0,0E0,0E0,0E0,0E0],"parents":[2147483647,0,0,1,1,2,2,3,3,4,4,5,5,6,6,7,7,8,8,9,9,10,10,11,11,12,12],"right_children":[2,4,6,8,10,12,14,16,18,20,22,24,26,-1,-1,-1,-1,-1,-1,-1,-1,-1,-1,-1,-1,-1,-1],"split_conditions":[5.521461E0,5.2574954E0,6.0210233E0,5.1357985E0,5.376123E0,5.6801724E0,6E0,1E0,6.2E1,8.8E-1,4.0772335E1,2.87348E5,1E0,-0E0,3.4720493E-3,-7.080608E-4,-0E0,-3.4191643E-4,-0E0,1.4837616E-4,-0E0,6.710919E-4,-0E0,-0E0,1.1358229E-3,2.053568E-3,-0E0],"split_indices":[17,17,17,17,17,17,19,83,8,7,2,1,110,0,0,0,0,0,0,0,0,0,0,0,0,0,0],"split_type":[0,0,0,0,0,0,0,0,0,0,0,0,0,0,0,0,0,0,0,0,0,0,0,0,0,0,0],"sum_hessian":[1.5146E4,1.2206E4,2.94E3,1.0688E4,1.518E3,2.15E3,7.9E2,9.916E3,7.72E2,7.29E2,7.89E2,7.26E2,1.424E3,5E0,7.85E2,9.864E3,5.2E1,6.63E2,1.09E2,3.37E2,3.92E2,6.61E2,1.28E2,1.1E1,7.15E2,1.418E3,6E0],"tree_param":{"num_deleted":"0","num_feature":"245","num_nodes":"27","size_leaf_vector":"1"}},{"base_weights":[3.9081357E-4,-1.0713151E-2,3.858054E-2,-1.2170583E-2,4.8912633E-3,2.6809203E-2,6.021677E-2,-1.2856639E-2,-5.344955E-3,5.7628425E-3,-0E0,1.6902458E-2,3.3019178E-2,6.039874E-2,-0E0,-6.4657273E-4,-0E0,-3.9104396E-4,-0E0,-0E0,3.8387583E-4,8.7127567E-4,-0E0,1.6624304E-3,-0E0,3.0297176E-3,-0E0],"categories":[],"categories_nodes":[],"categories_segments":[],"categories_sizes":[],"default_left":[0,0,0,0,1,0,0,0,0,0,0,0,0,0,0,0,0,0,0,0,0,0,0,0,0,0,0],"id":51,"left_children":[1,3,5,7,9,11,13,15,17,19,-1,21,23,25,-1,-1,-1,-1,-1,-1,-1,-1,-1,-1,-1,-1,-1],"loss_changes":[6.45612E0,2.7408957E-1,7.8298235E-1,3.2081723E-2,4.657086E-3,8.744061E-2,7.6146126E-3,8.10647E-3,1.672811E-2,6.8040807E-3,0E0,9.2689395E-3,1.2391448E-2,2.0604134E-3,0E0,0E0,0E0,0E0,0E0,0E0,0E0,0E0,0E0,0E0,0E0,0E0,0E0],"parents":[2147483647,0,0,1,1,2,2,3,3,4,4,5,5,6,6,7,7,8,8,9,9,11,11,12,12,13,13],"right_children":[2,4,6,8,10,12,14,16,18,20,-1,22,24,26,-1,-1,-1,-1,-1,-1,-1,-1,-1,-1,-1,-1,-1],"split_conditions":[2.22E2,1.9E2,3.63E2,1.59E2,2.05E0,2.65E2,1E0,1E0,5.7E-1,-7.398367E1,-0E0,1E0,4.085128E1,1E0,-0E0,-6.4657273E-4,-0E0,-3.9104396E-4,-0E0,-0E0,3.8387583E-4,8.7127567E-4,-0E0,1.6624304E-3,-0E0,3.0297176E-3,-0E0],"split_indices":[4,4,4,4,7,4,184,131,12,3,0,162,2,47,0,0,0,0,0,0,0,0,0,0,0,0,0],"split_type":[0,0,0,0,0,0,0,0,0,0,0,0,0,0,0,0,0,0,0,0,0,0,0,0,0,0,0],"sum_hessian":[1.5153E4,1.1721E4,3.432E3,1.0779E4,9.42E2,2.257E3,1.175E3,9.659E3,1.12E3,8.18E2,1.24E2,9.36E2,1.321E3,1.17E3,5E0,9.596E3,6.3E1,7.95E2,3.25E2,2.43E2,5.75E2,9.11E2,2.5E1,1.314E3,7E0,1.163E3,7E0],"tree_param":{"num_deleted":"0","num_feature":"245","num_nodes":"27","size_leaf_vector":"1"}},{"base_weights":[8.9810506E-5,-1.0486542E-2,3.6319945E-2,-1.19566815E-2,4.0104575E-3,2.2505905E-2,5.322551E-2,-1.2260929E-2,-3.1755036E-3,-0E0,5.597571E-3,1.4312836E-2,2.8972154E-2,4.8183378E-2,4.2274394E-3,-6.165289E-4,-0E0,-0E0,-2.720252E-4,3.3406683E-4,-0E0,7.281347E-4,-0E0,1.4714272E-3,-0E0,2.4171488E-3,-0E0],"categories":[],"categories_nodes":[],"categories_segments":[],"categories_sizes":[],"default_left":[0,0,0,0,0,0,0,0,0,0,0,0,0,0,0,0,0,0,0,0,0,0,0,0,0,0,0],"id":52,"left_children":[1,3,5,7,9,11,13,15,17,-1,19,21,23,25,-1,-1,-1,-1,-1,-1,-1,-1,-1,-1,-1,-1,-1],"loss_changes":[5.845222E0,2.5817215E-1,7.2706795E-1,1.3078928E-2,6.1541703E-3,5.81432E-2,9.479332E-2,1.2229085E-2,5.886022E-3,0E0,7.081514E-3,5.642146E-3,7.920444E-3,8.988619E-3,0E0,0E0,0E0,0E0,0E0,0E0,0E0,0E0,0E0,0E0,0E0,0E0,0E0],"parents":[2147483647,0,0,1,1,2,2,3,3,4,4,5,5,6,6,7,7,8,8,10,10,11,11,12,12,13,13],"right_children":[2,4,6,8,10,12,14,16,18,-1,20,22,24,26,-1,-1,-1,-1,-1,-1,-1,-1,-1,-1,-1,-1,-1],"split_conditions":[5.424644E0,5.2574954E0,5.8509746E0,3.63E2,-7.398032E1,5.602119E0,6.2176824E0,1E0,4.6346516E7,-0E0,-7.382727E1,1E0,1E0,1E0,4.2274394E-3,-6.165289E-4,-0E0,-0E0,-2.720252E-4,3.3406683E-4,-0E0,7.281347E-4,-0E0,1.4714272E-3,-0E0,2.4171488E-3,-0E0],"split_indices":[17,17,17,9,3,17,17,133,0,0,3,206,93,244,0,0,0,0,0,0,0,0,0,0,0,0,0],"split_type":[0,0,0,0,0,0,0,0,0,0,0,0,0,0,0,0,0,0,0,0,0,0,0,0,0,0,0],"sum_hessian":[1.5181E4,1.1731E4,3.45E3,1.0714E4,1.017E3,1.935E3,1.515E3,1.0244E4,4.7E2,3E2,7.17E2,9.26E2,1.009E3,1.339E3,1.76E2,1.0209E4,3.5E1,1.13E2,3.57E2,6.61E2,5.6E1,9.21E2,5E0,9.87E2,2.2E1,1.334E3,5E0],"tree_param":{"num_deleted":"0","num_feature":"245","num_nodes":"27","size_leaf_vector":"1"}},{"base_weights":[2.2046138E-4,-1.00394245E-2,3.3777177E-2,-1.1554473E-2,2.4646483E-3,1.952851E-2,4.87007E-2,-0E0,-1.1674065E-2,-0E0,8.964954E-3,1.41611155E-2,3.0496161E-2,4.202331E-2,6.3976645E-2,-5.3003925E-5,-0E0,-6.437853E-4,-4.49609E-4,-1.467752E-4,1.1147657E-4,-0E0,5.298953E-4,7.557973E-4,-0E0,-0E0,1.5844401E-3,2.1124713E-3,-0E0,-0E0,3.2762215E-3],"categories":[],"categories_nodes":[],"categories_segments":[],"categories_sizes":[],"default_left":[0,0,0,0,0,0,0,0,0,0,0,0,0,0,0,0,0,0,0,0,0,0,0,0,0,0,0,0,0,0,0],"id":53,"left_children":[1,3,5,7,9,11,13,15,17,19,21,23,25,27,29,-1,-1,-1,-1,-1,-1,-1,-1,-1,-1,-1,-1,-1,-1,-1,-1],"loss_changes":[5.2290134E0,2.280953E-1,6.865549E-1,1.1251807E-2,1.718433E-2,6.3658774E-2,5.974865E-2,1.07881584E-4,1.0817051E-2,5.6435773E-3,4.2882487E-3,1.2596101E-2,1.8550038E-2,9.348869E-3,1.6323328E-2,0E0,0E0,0E0,0E0,0E0,0E0,0E0,0E0,0E0,0E0,0E0,0E0,0E0,0E0,0E0,0E0],"parents":[2147483647,0,0,1,1,2,2,3,3,4,4,5,5,6,6,7,7,8,8,9,9,10,10,11,11,12,12,13,13,14,14],"right_children":[2,4,6,8,10,12,14,16,18,20,22,24,26,28,30,-1,-1,-1,-1,-1,-1,-1,-1,-1,-1,-1,-1,-1,-1,-1,-1],"split_conditions":[2.17E2,1.8E2,3.17E2,2.0576E5,5.966667E-1,1E0,4.39E2,-7.394723E1,2.55E0,1.94E2,-7.398959E1,4.3772466E-2,7.15807E5,1E0,4E-2,-5.3003925E-5,-0E0,-6.437853E-4,-4.49609E-4,-1.467752E-4,1.1147657E-4,-0E0,5.298953E-4,7.557973E-4,-0E0,-0E0,1.5844401E-3,2.1124713E-3,-0E0,-0E0,3.2762215E-3],"split_indices":[4,4,4,1,12,11,4,3,7,4,3,25,1,184,7,0,0,0,0,0,0,0,0,0,0,0,0,0,0,0,0],"split_type":[0,0,0,0,0,0,0,0,0,0,0,0,0,0,0,0,0,0,0,0,0,0,0,0,0,0,0,0,0,0,0],"sum_hessian":[1.5113E4,1.1553E4,3.56E3,1.0376E4,1.177E3,1.859E3,1.701E3,1.29E2,1.0247E4,8.77E2,3E2,1.314E3,5.45E2,1.237E3,4.64E2,9.3E1,3.6E1,6.811E3,3.436E3,3.41E2,5.36E2,4.8E1,2.52E2,1.208E3,1.06E2,2.2E1,5.23E2,1.229E3,8E0,1.8E1,4.46E2],"tree_param":{"num_deleted":"0","num_feature":"245","num_nodes":"31","size_leaf_vector":"1"}},{"base_weights":[7.482804E-5,-9.545888E-3,3.370007E-2,-1.1317676E-2,4.3809242E-4,2.2209926E-2,5.035366E-2,-1.1522253E-2,-0E0,-2.3098714E-3,4.3609575E-3,1.4633845E-2,2.7938977E-2,4.5766678E-2,4.2604827E-3,-5.806093E-4,-0E0,-0E0,-9.1986636E-5,-0E0,-2.08123E-4,-0E0,3.100064E-4,-0E0,7.598864E-4,1.4186851E-3,-0E0,2.323034E-3,-0E0],"categories":[],"categories_nodes":[],"categories_segments":[],"categories_sizes":[],"default_left":[0,0,0,0,0,0,0,0,0,0,0,0,0,0,0,0,0,0,0,0,0,0,0,0,0,0,0,0,0],"id":54,"left_children":[1,3,5,7,9,11,13,15,17,19,21,23,25,27,-1,-1,-1,-1,-1,-1,-1,-1,-1,-1,-1,-1,-1,-1,-1],"loss_changes":[4.898307E0,2.1772003E-1,5.698948E-1,1.1878967E-2,2.0191522E-2,4.465747E-2,7.156873E-2,1.0176301E-2,6.295386E-4,5.3593856E-3,6.148668E-3,1.1743382E-2,7.971406E-3,6.5977573E-3,0E0,0E0,0E0,0E0,0E0,0E0,0E0,0E0,0E0,0E0,0E0,0E0,0E0,0E0,0E0],"parents":[2147483647,0,0,1,1,2,2,3,3,4,4,5,5,6,6,7,7,8,8,9,9,10,10,11,11,12,12,13,13],"right_children":[2,4,6,8,10,12,14,16,18,20,22,24,26,28,-1,-1,-1,-1,-1,-1,-1,-1,-1,-1,-1,-1,-1,-1,-1],"split_conditions":[5.433722E0,5.1607003E0,5.888878E0,5E1,5.3033047E0,5.623644E0,6.2363696E0,1E0,8.5E1,4.842568E7,-7.398032E1,-7.401394E1,1.4767336E18,1E0,4.2604827E-3,-5.806093E-4,-0E0,-0E0,-9.1986636E-5,-0E0,-2.08123E-4,-0E0,3.100064E-4,-0E0,7.598864E-4,1.4186851E-3,-0E0,2.323034E-3,-0E0],"split_indices":[17,17,17,5,17,17,17,202,5,0,3,3,0,93,0,0,0,0,0,0,0,0,0,0,0,0,0,0,0],"split_type":[0,0,0,0,0,0,0,0,0,0,0,0,0,0,0,0,0,0,0,0,0,0,0,0,0,0,0,0,0],"sum_hessian":[1.5061E4,1.1689E4,3.372E3,1.0012E4,1.677E3,2.035E3,1.337E3,9.749E3,2.63E2,8.37E2,8.4E2,9.56E2,1.079E3,1.213E3,1.24E2,9.674E3,7.5E1,8E1,1.83E2,2.72E2,5.65E2,2.66E2,5.74E2,1.9E1,9.37E2,1.056E3,2.3E1,1.18E3,3.3E1],"tree_param":{"num_deleted":"0","num_feature":"245","num_nodes":"29","size_leaf_vector":"1"}},{"base_weights":[3.836642E-4,-8.834406E-3,3.1190915E-2,-1.0011569E-2,1.5940458E-3,1.7229255E-2,4.379321E-2,-1.0118782E-2,-0E0,5.6535993E-3,-0E0,-0E0,1.7523637E-2,3.72098E-2,6.0509194E-2,-5.086704E-4,-0E0,-0E0,3.5220815E-4,-2.7936869E-5,6.258838E-5,9.115124E-4,-0E0,1.872542E-3,-0E0,3.0585516E-3,-0E0],"categories":[],"categories_nodes":[],"categories_segments":[],"categories_sizes":[],"default_left":[0,0,0,0,0,0,0,0,0,0,0,0,0,0,0,0,0,0,0,0,0,0,0,0,0,0,0],"id":55,